{"version":"0.5.4","metadata":{"date":{"year":2025,"month":10,"day":3,"hour":7,"minute":50,"second":52},"loudness":-32.66606903076172,"gain":0.8689677946179694,"name":"[AMP] 100W BOLD CRUSH Chugga412 DI - STD","modeled_by":"2dor","gear_type":"amp","gear_make":"tz-make","gear_model":"tz-model","tone_type":"overdrive","input_level_dbu":22.85,"output_level_dbu":13.195,"training":{"settings":{"ignore_checks":true},"data":{"latency":{"manual":0,"calibration":{"algorithm_version":1,"delays":[1],"safety_factor":1,"recommended":0,"warnings":{"matches_lookahead":false,"disagreement_too_high":false}}},"checks":{"version":4,"passed":false}},"validation_esr":0.026713240509633192}},"architecture":"WaveNet","config":{"layers":[{"input_size":1,"condition_size":1,"head_size":8,"channels":16,"kernel_size":3,"dilations":[1,2,4,8,16,32,64,128,256,512],"activation":"Tanh","gated":false,"head_bias":false},{"input_size":16,"condition_size":1,"head_size":1,"channels":8,"kernel_size":3,"dilations":[1,2,4,8,16,32,64,128,256,512],"activation":"Tanh","gated":false,"head_bias":true}],"head":null,"head_scale":0.02},"weights":[-0.0018679325003176928,0.06893204897642136,-0.003960839938372374,-0.5676987171173096,-0.23692692816257477,-0.0013687551254406571,-0.00008611072553321719,0.3297256827354431,0.0004326291673351079,0.06893078237771988,0.002925378968939185,-0.0004144530976191163,-0.2873186767101288,-0.4493716061115265,0.00012814265210181475,0.0003202123334631324,-0.3640997111797333,0.24321343004703522,-0.012720639817416668,-0.821316659450531,-0.2867264151573181,0.5122395157814026,0.0960698202252388,0.17482545971870422,-0.12221255153417587,0.7083746194839478,0.45136502385139465,-0.6434171199798584,0.6374686360359192,0.2764268219470978,-0.5513932704925537,0.051706310361623764,-0.04313294589519501,0.10071871429681778,-0.21617770195007324,-0.18480677902698517,-0.049907103180885315,-0.5515367984771729,-0.275907039642334,0.5655044913291931,0.08420515060424805,-0.028336133807897568,-0.10926928371191025,-0.7959973216056824,-0.47279563546180725,0.486169695854187,0.09570561349391937,-0.02404014579951763,-0.08011693507432938,0.12876537442207336,0.09287063777446747,0.10702645778656006,0.7230193018913269,0.34292808175086975,-0.4237818121910095,0.6056723594665527,0.3509167432785034,-0.623483419418335,-0.17639777064323425,0.07165298610925674,0.39511969685554504,0.19833122193813324,0.09704497456550598,-0.031454749405384064,-0.13257934153079987,-0.3187829554080963,0.17134393751621246,0.6554543972015381,0.7755395174026489,-0.2812062203884125,-0.167854443192482,-0.14020398259162903,0.06772009283304214,-0.6065508127212524,-0.8223560452461243,0.44963574409484863,-0.6776329874992371,-0.9524160623550415,0.41612452268600464,0.11979269981384277,0.2235756814479828,-0.16390156745910645,-0.037503767758607864,-0.017148375511169434,-0.11340254545211792,0.6444993615150452,0.9421910047531128,-0.4273330271244049,0.07880593091249466,0.003111491911113262,0.10186856240034103,0.6068094372749329,0.7282082438468933,-0.5210370421409607,0.1542332023382187,-0.15337738394737244,0.3940693140029907,0.0214634221047163,-0.11606442928314209,-0.009944478049874306,-0.5517959594726562,-0.7930298447608948,0.3120584785938263,-0.7530842423439026,-1.0672132968902588,0.36480873823165894,0.26377949118614197,-0.309340238571167,-0.1740625947713852,-0.008398503996431828,-0.040827881544828415,-0.19151343405246735,0.03655945509672165,0.16051210463047028,0.05311846360564232,-0.21939384937286377,0.9428799152374268,0.16174772381782532,0.15543894469738007,0.10152769833803177,0.19392330944538116,0.00388534739613533,-1.2936867475509644,-0.08501638472080231,-0.042046982795000076,-1.2023133039474487,-0.187352254986763,0.021219028159976006,-0.07064367830753326,0.2796434760093689,0.018021224066615105,-0.0792962908744812,-0.08240704983472824,-0.0372556634247303,1.35433828830719,0.027915943413972855,0.017826668918132782,0.017949149012565613,0.02101762965321541,-0.11156241595745087,0.9115557670593262,0.10047907382249832,-0.06576313078403473,0.015235841274261475,-0.09140374511480331,0.06060383468866348,-0.019733933731913567,0.13074715435504913,-0.04291010648012161,-1.278627872467041,-0.25507086515426636,-0.08167986571788788,-1.241479516029358,-0.06057707592844963,-0.004416600335389376,0.011721400544047356,0.08157290518283844,0.06283389031887054,-0.08984794467687607,-0.028223607689142227,-0.17762915790081024,0.056340210139751434,-0.25890201330184937,-0.45297518372535706,-0.7989407777786255,-0.1805419921875,-0.021985258907079697,0.048939455300569534,0.013183198869228363,0.6143522262573242,1.1670405864715576,-0.06909888982772827,0.6500256657600403,0.9686171412467957,-0.12120804190635681,-0.06095326319336891,0.014586048200726509,-0.07459771633148193,-0.021862376481294632,-0.0806339681148529,-0.052144382148981094,-0.6160759925842285,-1.002511978149414,0.1755436360836029,0.0042360336519777775,0.041122715920209885,-0.004634663928300142,-0.4198329448699951,-0.736456036567688,0.1444043517112732,-0.0016695007216185331,0.04769856110215187,0.041658587753772736,-0.014555822126567364,-0.11087491363286972,0.14507335424423218,0.49196597933769226,1.0296837091445923,-0.10828676074743271,0.6043111681938171,1.0350003242492676,0.04538501799106598,-0.19196036458015442,0.12300561368465424,0.2480362206697464,-0.015532972291111946,0.020274177193641663,-0.08352982252836227,-0.20151495933532715,0.11865996569395065,0.04634693264961243,0.38195517659187317,-0.6153268218040466,-0.5852120518684387,0.02833671309053898,0.1042986586689949,0.02850041165947914,-0.3736587166786194,1.0469928979873657,0.5471147894859314,-0.39555421471595764,0.972032904624939,0.6358855962753296,0.013592652976512909,0.2082374095916748,-0.15875239670276642,-0.012466617859899998,-0.16921918094158173,-0.023429162800312042,0.3615197241306305,-0.9597623348236084,-0.43308037519454956,-0.09586697816848755,-0.0658886581659317,-0.08040770143270493,0.4572635591030121,-0.4531785845756531,-0.42713382840156555,-0.029674356803297997,-0.02507033571600914,0.06308026611804962,0.13837261497974396,-0.03209254518151283,0.03788570687174797,-0.2679803967475891,0.7488278150558472,0.6990722417831421,-0.44423726201057434,0.9344666004180908,0.5921680331230164,0.07673151046037674,0.07539044320583344,-0.15117953717708588,0.01632307842373848,-0.04265958070755005,0.052184052765369415,-0.1343238204717636,-0.2101801186800003,-0.2502231001853943,-0.8432763814926147,0.004295209422707558,0.3893076777458191,-0.09513452649116516,0.04677210748195648,-0.0577426478266716,0.514920175075531,-0.41040629148483276,-0.38958826661109924,0.7643027901649475,-0.23476967215538025,-0.4390336275100708,-0.028201481327414513,-0.05055652931332588,0.07582331448793411,-0.0053903632797300816,-0.08844765275716782,0.003900506068021059,-0.7310222387313843,0.40134668350219727,0.3467879593372345,0.06817711144685745,0.019552351906895638,-0.11198998242616653,-0.7074581384658813,-0.05443422123789787,0.2375030517578125,0.18063992261886597,0.005312514025717974,0.028515541926026344,0.07920882105827332,0.06769456714391708,0.11018922924995422,0.6417146325111389,-0.33111855387687683,-0.40460965037345886,0.5099563002586365,-0.2700135409832001,-0.49603232741355896,0.23794673383235931,0.12213388085365295,0.9681167006492615,-0.07042470574378967,0.0018938459688797593,-0.22277019917964935,-0.08969138562679291,-0.008188864216208458,-0.20091453194618225,0.7233442664146423,0.4827539622783661,-0.28376397490501404,-0.18046769499778748,-0.1835447996854782,0.1307075023651123,-0.913964033126831,-0.6751494407653809,0.3987279236316681,-0.8635310530662537,-0.6083833575248718,0.4061700701713562,0.10475553572177887,0.040601104497909546,-0.04928182438015938,0.03941074386239052,0.15011459589004517,-0.07866976410150528,0.9134826064109802,0.8801277279853821,-0.40054741501808167,-0.059239521622657776,-0.17583443224430084,-0.10214756429195404,0.5660125613212585,0.4347025156021118,-0.4006454050540924,-0.09376273304224014,0.05324742943048477,0.02033730410039425,-0.02241124026477337,-0.11030688881874084,0.008154274895787239,-0.8483762741088867,-0.7298408150672913,0.44234833121299744,-0.7596535682678223,-0.802531361579895,0.4607924222946167,-0.04839492216706276,0.09995017945766449,-0.34503424167633057,0.025365708395838737,0.048736125230789185,-0.13220393657684326,0.23564663529396057,0.014969431795179844,-0.17995169758796692,0.6475926637649536,-0.23042666912078857,0.021126728504896164,-0.00503648491576314,-0.02283264510333538,0.04907683655619621,-0.9392074942588806,-0.14793235063552856,0.06412360072135925,-0.6218880414962769,0.15778233110904694,0.12281258404254913,-0.07575516402721405,-0.06827134639024734,-0.24475380778312683,0.0966215580701828,0.0014239962911233306,0.01691986434161663,0.6389118432998657,-0.05518096312880516,-0.15089231729507446,-0.08655288815498352,-0.015075976960361004,0.06398730725049973,0.6103648543357849,-0.13483648002147675,-0.2242538183927536,0.04258989170193672,0.015402358025312424,-0.018313724547624588,-0.06955417990684509,-0.04020899534225464,0.0879865437746048,-0.7875242233276367,0.05484588444232941,0.017892366275191307,-0.7961007952690125,-0.10817725956439972,-0.08158566057682037,-0.028151588514447212,-0.07895680516958237,-0.7510442733764648,0.016719253733754158,-0.11134910583496094,-0.1488419771194458,-0.4911727011203766,0.031545091420412064,-0.3728381097316742,-0.09928947687149048,-0.4562716782093048,0.2638017535209656,0.2117837518453598,0.12413133680820465,-0.4776620864868164,0.10274447500705719,0.2836751639842987,-0.4236687123775482,0.2067335695028305,0.4571467339992523,-0.4785308539867401,-0.318604052066803,-0.04946393892168999,-0.4470401406288147,-0.2133534848690033,-0.12875255942344666,0.10672881454229355,-0.16366711258888245,-0.3082386553287506,0.36113718152046204,-0.00042371591553092003,-0.05649777129292488,-0.23938623070716858,-0.3077245056629181,-0.6750450134277344,0.2323526293039322,-0.01733989641070366,0.026029232889413834,-0.032425589859485626,0.12360784411430359,0.1569863110780716,-0.21674701571464539,0.07744267582893372,0.27318498492240906,-0.2724435031414032,-0.08718235045671463,0.23835481703281403,-0.484030544757843,-0.300060898065567,0.23448719084262848,-0.007464875932782888,-0.10923613607883453,0.04008418694138527,0.6710586547851562,0.03765594959259033,0.1002444475889206,0.4669378101825714,0.6407860517501831,-0.41522422432899475,-0.021396098658442497,0.03412122279405594,0.04974105954170227,-0.022351056337356567,-0.6247014999389648,0.4020003080368042,-0.03820895776152611,-0.766426146030426,0.4907394051551819,0.01766161434352398,0.0013146481942385435,0.30566152930259705,-0.19398938119411469,-0.13174128532409668,0.14200513064861298,0.15133632719516754,0.5925562381744385,-0.3978430926799774,0.04856599122285843,0.0923130139708519,0.20681479573249817,0.19232740998268127,0.4400026798248291,-0.708157479763031,-0.04852325841784477,-0.06738553941249847,-0.05691557377576828,0.22897356748580933,0.000848320487421006,-0.08893405646085739,-0.19197756052017212,-0.6693610548973083,0.600778341293335,0.10324961692094803,-0.5884168744087219,0.5065901279449463,-0.003915585111826658,-0.08086483180522919,-0.26620087027549744,-0.04711095243692398,0.0654573068022728,0.037739962339401245,-0.027214568108320236,-0.1434633582830429,-0.03328731283545494,0.03347798064351082,0.08556410670280457,-0.13940304517745972,0.21169771254062653,0.06721235811710358,0.01715627871453762,0.026715384796261787,-0.02904631942510605,0.05939837172627449,-0.08234008401632309,0.0034317169338464737,0.06208089739084244,-0.16303977370262146,-0.01146161463111639,0.0024550508242100477,-0.02991236001253128,-0.026688525453209877,-0.029107660055160522,-0.0009827942121773958,-0.03225256875157356,0.06919769197702408,0.12150546908378601,0.029398560523986816,-0.07985024899244308,-0.04051598906517029,-0.144667387008667,-0.09282692521810532,0.042564649134874344,0.10111401230096817,-0.03970198705792427,-0.13033589720726013,0.05055403336882591,0.02953120321035385,0.1580403447151184,-0.06490540504455566,-0.1080666035413742,-0.24098347127437592,0.044413890689611435,-0.021114900708198547,-0.2355249971151352,0.06531303375959396,-0.03748273849487305,-0.028414912521839142,0.004545453004539013,-0.08261889219284058,0.2408856749534607,-0.028642384335398674,0.060656480491161346,-0.011854808777570724,-0.24560998380184174,-0.39102208614349365,0.1930730640888214,-0.023036278784275055,0.03005461022257805,0.0289041418582201,0.3332280218601227,0.4240867793560028,0.1451275646686554,0.3107759952545166,0.3721001446247101,0.11902725696563721,0.06189431622624397,0.09715268015861511,-0.08042056858539581,0.034260544925928116,-0.12258858978748322,-0.3347620666027069,-0.29984840750694275,-0.3939988911151886,-0.1488790065050125,0.03810332715511322,0.0984196662902832,0.10864683985710144,-0.13552413880825043,-0.2538260817527771,-0.06949854642152786,0.09695263206958771,-0.011230794712901115,-0.0233997143805027,-0.05242778733372688,-0.035004064440727234,0.1426321566104889,0.3274739384651184,0.2776390016078949,-0.013235438615083694,0.425117552280426,0.3768102824687958,0.09533631801605225,0.16885289549827576,0.07116403430700302,-0.27380844950675964,-0.0004005036025773734,0.008531683124601841,-0.03785386309027672,-0.03353115916252136,0.21687020361423492,-0.08156917989253998,-0.18431150913238525,0.88640296459198,0.2345152646303177,0.10010787099599838,0.03108120523393154,-0.10511395335197449,-0.04174107685685158,-1.3868314027786255,0.19351577758789062,0.053544893860816956,-1.211286187171936,0.09728753566741943,-0.07403963059186935,0.3150537610054016,0.14195917546749115,-0.07946635782718658,-0.16711333394050598,-0.09148791432380676,-0.059891872107982635,1.356776475906372,-0.02005373127758503,-0.07875160127878189,-0.03897955268621445,-0.026418272405862808,-0.16462822258472443,0.7853371500968933,-0.07905454188585281,0.0032533896155655384,-0.018848810344934464,-0.09947577863931656,-0.007503812666982412,0.08368304371833801,0.11931757628917694,-0.07170232385396957,-1.2255192995071411,0.15037071704864502,0.04428786411881447,-1.2170922756195068,0.10610249638557434,0.046038419008255005,0.10309562087059021,-0.1156114861369133,0.15091276168823242,0.05221029743552208,0.2404554784297943,0.15849541127681732,-0.18098437786102295,-0.25671130418777466,0.02290486730635166,-0.05089760199189186,0.36079683899879456,-0.07574626803398132,0.0604715421795845,-0.14715948700904846,-0.013928422704339027,0.05055242404341698,-0.26612842082977295,0.1196691244840622,-0.13463342189788818,-0.38333144783973694,0.160539448261261,0.26867714524269104,0.22673378884792328,0.0396558903157711,-0.08018065989017487,-0.014648235403001308,-0.03500809893012047,0.11382032185792923,0.12895560264587402,-0.09892153739929199,-0.15210911631584167,-0.01976511813700199,0.14204904437065125,0.028742341324687004,0.3310738801956177,-0.10106436163187027,-0.06375773251056671,-0.15699836611747742,-0.019786302000284195,-0.08576928824186325,0.03036070428788662,-0.020048679783940315,-0.021800123155117035,-0.1143777146935463,-0.03710917755961418,0.10278309136629105,-0.3093852698802948,-0.07372955232858658,-0.06312145292758942,-0.22754788398742676,-0.016099736094474792,-0.05735700577497482,-0.6017088890075684,0.025470247492194176,-0.03454519063234329,-0.11027591675519943,-0.17966514825820923,0.12590964138507843,0.07392416894435883,0.03366854041814804,-0.08825411647558212,0.07310734689235687,-0.017657222226262093,-0.005690623540431261,0.07936304062604904,0.020850466564297676,-0.010930964723229408,-0.04029158875346184,-0.09242136031389236,-0.07587645202875137,0.000028702979761874303,0.009262868203222752,0.1085507720708847,0.015031252056360245,0.019495096057653427,0.011145105585455894,-0.13324227929115295,-0.0034089579712599516,-0.09471862763166428,-0.034196797758340836,-0.12444303184747696,0.024645445868372917,0.007323821075260639,0.12532015144824982,0.11007560044527054,0.11721312254667282,-0.023882567882537842,-0.03235417604446411,0.1293560415506363,0.004246284253895283,-0.004892150405794382,0.19243445992469788,-0.02254733256995678,0.047262679785490036,-0.026806192472577095,0.0346645824611187,0.03805898502469063,0.0751820057630539,-0.058172255754470825,0.04313894361257553,0.29125165939331055,-0.20068834722042084,-0.05268033221364021,-0.44844457507133484,-0.3717890679836273,-1.016011357307434,0.09581604599952698,0.037947725504636765,0.08646636456251144,0.04951847344636917,0.5406454801559448,1.2758708000183105,-0.19501887261867523,0.37004727125167847,0.9948452711105347,-0.29443854093551636,0.018836412578821182,-0.13762864470481873,-0.06879494339227676,-0.23268935084342957,-0.05313257500529289,-0.25468072295188904,-0.2694515585899353,-1.2558108568191528,0.06756710261106491,-0.011962734162807465,-0.028417648747563362,-0.07103422284126282,-0.17528650164604187,-0.6493923664093018,0.2815307080745697,0.21171411871910095,0.10524775087833405,0.14364337921142578,0.05805853381752968,0.1653699278831482,0.07265672087669373,0.46874508261680603,1.1845897436141968,-0.07985847443342209,0.3269881308078766,1.297925591468811,-0.2483852505683899,0.07161224633455276,0.23920324444770813,0.49251461029052734,-0.12582820653915405,-0.13159674406051636,-0.10873563587665558,-0.007900979369878769,-0.025778409093618393,-0.06206553429365158,0.08100110292434692,0.05959991738200188,-0.024221375584602356,-0.10202012956142426,-0.0562744140625,-0.025913070887327194,-0.011961914598941803,0.0007521997904404998,-0.21047507226467133,-0.08467470854520798,0.002430186839774251,0.00010000358452089131,0.05086266249418259,0.9494262337684631,-0.7161515355110168,0.9173872470855713,-0.6496739387512207,-0.6787052750587463,1.3465203046798706,0.6617174744606018,-0.5244554281234741,0.5789196491241455,0.0749417394399643,-0.31400373578071594,-0.5625697374343872,0.21498340368270874,-0.5003787279129028,0.1161021962761879,0.5145068168640137,0.2144320160150528,0.18290269374847412,-0.34968000650405884,0.1648464947938919,0.14706730842590332,0.15206308662891388,-0.06247728690505028,0.07061750441789627,0.03473445773124695,-0.2656351625919342,-0.00018105011258739978,-0.34082671999931335,0.015761544927954674,0.0020050527527928352,0.00041053773020394146,-0.3466801941394806,0.2828543186187744,-0.3108144998550415,-0.1707397699356079,0.03700637444853783,0.053624071180820465,0.09322218596935272,0.16072116792201996,0.15696269273757935,-0.07362166047096252,0.22762490808963776,0.001360819092951715,0.023402011021971703,-0.2313118427991867,0.0016916260356083512,-0.00023920142848510295,0.33463019132614136,-0.10325437039136887,0.1906961053609848,-0.11852902919054031,0.2776287794113159,-0.14135950803756714,0.05882041156291962,-0.10032638162374496,0.18282350897789001,0.3149745762348175,0.12985052168369293,-0.0044042570516467094,0.12547197937965393,0.2578054666519165,0.002006850903853774,-0.00009474354010308161,-0.10171698033809662,-0.01905995048582554,0.08723916858434677,0.014348086901009083,0.17001031339168549,-0.114725261926651,-0.06970757246017456,-0.06005313619971275,-0.10784624516963959,0.2957223057746887,-0.021713729947805405,-0.002425258979201317,-0.5860296487808228,-0.14825694262981415,-0.0007860150071792305,-0.0003245431580580771,-0.07547984272241592,-0.06133730337023735,0.03725776448845863,0.07815344631671906,0.06152797490358353,-0.21943825483322144,0.3139128088951111,-0.0362432599067688,0.22034354507923126,0.09698957204818726,0.06364791095256805,0.002121926285326481,0.5000649690628052,-0.03884278982877731,0.00284710805863142,0.0000948826054809615,-0.037433937191963196,-0.13922926783561707,0.1599973440170288,0.11468509584665298,0.026218228042125702,0.030646685510873795,0.07877971976995468,0.04991923272609711,0.26648497581481934,0.38049760460853577,0.21703830361366272,0.0008717838791199028,0.060415495187044144,-0.138093039393425,0.0022959981579333544,-0.00038291772943921387,-0.030666284263134003,0.08088315278291702,0.002006658585742116,-0.01248143520206213,-0.3100995123386383,0.042074985802173615,-0.06763669103384018,0.3929738402366638,-0.06922850757837296,0.07508763670921326,-0.23018059134483337,-0.0025781213771551847,0.47729361057281494,-0.09263075888156891,-0.0026385081000626087,-0.0005091619095765054,0.25160691142082214,0.16941317915916443,-0.011245429515838623,0.2522498667240143,-0.2708844244480133,-0.3716544210910797,0.4389124810695648,0.3328092694282532,0.43589848279953003,0.10501311719417572,0.18567094206809998,-0.00020342641801107675,-0.17459924519062042,0.04709411785006523,-0.0004314626567065716,0.0002434595226077363,-0.028408855199813843,0.07054892182350159,0.1311762034893036,-0.14276506006717682,0.19971758127212524,-0.0260862298309803,-0.04111150652170181,-0.15809103846549988,0.28741827607154846,0.04746329411864281,-0.37252748012542725,0.0004474604793358594,-0.5657804608345032,-0.031984202563762665,0.0011799712665379047,0.00022275290393736213,-0.03829294070601463,0.16802550852298737,-0.149270698428154,0.4839876592159271,-0.4212968349456787,0.01159654464572668,-0.04707309231162071,0.2587210237979889,-0.017886700108647346,0.1971164047718048,0.4446229636669159,-0.002669790992513299,0.9808289408683777,-0.06889034807682037,-0.0011572522344067693,-0.00022624200209975243,0.07430612295866013,-0.03671611100435257,-0.11855507642030716,0.010046065784990788,0.10694213956594467,-0.0389140360057354,0.04801294952630997,0.13458964228630066,0.07781199365854263,0.06309255957603455,-0.08012183010578156,0.0006031715893186629,0.1699354201555252,-0.018386445939540863,0.002782971365377307,-0.0008660948369652033,-0.10459999740123749,-0.0923648551106453,-0.0183886531740427,-0.0897970125079155,-0.16444222629070282,-0.10551968216896057,-0.12107719480991364,-0.20058390498161316,-0.12495368719100952,-0.053311727941036224,0.03696636110544205,-0.00007526343688368797,-0.3069149851799011,-0.1546172946691513,-0.0007464619120582938,0.00022226721921470016,-0.05532702058553696,0.06249666213989258,-0.023068854585289955,0.24483661353588104,-0.1549510508775711,0.051289670169353485,0.028779126703739166,-0.18036973476409912,0.21087469160556793,-0.01412015687674284,-0.09402300417423248,0.002634584903717041,0.007923328317701817,-0.22395813465118408,0.0028454577550292015,-0.0009759158710949123,0.026658177375793457,-0.06680919975042343,-0.11152192950248718,-0.3212154805660248,0.02096555009484291,-0.0438738614320755,0.22650516033172607,0.20738238096237183,-0.030700013041496277,-0.13733609020709991,-0.3909071385860443,-0.0011662637116387486,-0.5082553625106812,0.004834820982068777,-0.00037427316419780254,-0.00019439254538156092,0.16825640201568604,-0.13485483825206757,0.02545824460685253,-0.06041397899389267,-0.13376681506633759,-0.04376307874917984,-0.054634273052215576,0.18692569434642792,0.42151039838790894,0.11258465051651001,0.1292404979467392,0.0004295980033930391,0.27655029296875,0.05408242344856262,-0.0008920811233110726,-0.000014976301827118732,-0.03091023489832878,0.22225308418273926,-0.14394542574882507,-0.0790296196937561,-0.003704276867210865,-0.11650250852108002,0.11131634563207626,0.151998832821846,0.19937780499458313,-0.7038533091545105,-0.11209311336278915,-0.00017209479119628668,-0.15008553862571716,-0.09163659065961838,0.0010925719980150461,-0.00022732857905793935,0.22271743416786194,-0.0848851278424263,-0.017466330900788307,0.040509920567274094,-0.13523972034454346,0.13814081251621246,0.04472168907523155,0.13124984502792358,0.08682986348867416,-0.14115408062934875,0.2843943238258362,0.04736456274986267,-0.08868370950222015,-0.000023551576305180788,-0.11726006865501404,0.11711776256561279,-0.03548886999487877,-0.1374276727437973,-0.36252549290657043,-0.056580111384391785,0.3168218433856964,-0.9488360285758972,0.37223580479621887,0.13871034979820251,0.015979208052158356,-0.08383533358573914,-0.2982313930988312,-0.016652684658765793,0.12076367437839508,-0.3547983467578888,-0.3885857164859772,-0.5051055550575256,0.21969105303287506,-0.06373295933008194,-0.47004517912864685,0.1781877726316452,0.152438685297966,-0.20398686826229095,0.24649426341056824,0.12155035883188248,-0.6732856035232544,-0.007462640758603811,0.06922037154436111,0.2209414839744568,0.007063206750899553,0.1042913943529129,-0.1943899691104889,-0.0974234789609909,-0.0842776894569397,-0.05825265124440193,-0.10569334775209427,0.03796151652932167,0.012445096857845783,-0.21373113989830017,-0.050319112837314606,0.3120381832122803,-0.01898171566426754,0.11009715497493744,0.04163886979222298,0.3004077076911926,0.8822215795516968,-0.4693625867366791,0.029489027336239815,-0.1929684728384018,-0.07596755772829056,-0.038114357739686966,0.2801124155521393,-0.5422651767730713,0.3201461434364319,0.3734968602657318,0.4801940321922302,0.13645227253437042,-0.20594313740730286,0.20579907298088074,0.007174110040068626,-0.12471188604831696,0.013104164972901344,-0.31675440073013306,0.33304810523986816,-0.23025798797607422,0.048373814672231674,0.06782252341508865,0.2690594494342804,-0.2763519883155823,0.08821151405572891,0.2306462526321411,0.11567380279302597,0.7211635708808899,-0.5329634547233582,-0.0027010077610611916,0.03018270991742611,-0.4062808156013489,-0.02543657086789608,0.31765294075012207,-0.4783210754394531,0.2841200530529022,0.18613825738430023,-0.322899729013443,-0.27565956115722656,-0.06257037073373795,0.057720914483070374,0.1153184026479721,-0.0035058539360761642,-0.2101544290781021,-0.014617779292166233,-0.19783008098602295,0.42694801092147827,0.2401403784751892,-0.4974423050880432,0.2971457540988922,-0.1596696823835373,0.21501590311527252,0.6268885135650635,-0.021562624722719193,-1.0063278675079346,-0.31643977761268616,-0.160259410738945,0.2593790292739868,-0.3318484425544739,-0.13331200182437897,-0.07433800399303436,0.338543176651001,0.27760252356529236,-0.1324428766965866,0.25097203254699707,0.03857223317027092,-0.12292582541704178,0.45678308606147766,-0.6265980005264282,-0.17225095629692078,0.46739599108695984,0.12593324482440948,-0.3632147014141083,-0.11288952827453613,-0.5798973441123962,0.5512735247612,0.44474849104881287,0.028849055990576744,0.2070864737033844,0.11616618186235428,-0.09303957968950272,0.23885273933410645,-0.0590762160718441,0.1845986545085907,-0.08171077817678452,-0.19787342846393585,0.015146585181355476,-0.0745258703827858,-0.15588831901550293,-0.12577934563159943,0.16318204998970032,0.13775736093521118,0.11805133521556854,-0.07865740358829498,-0.34100618958473206,-0.40281835198402405,-0.9952902793884277,0.052891578525304794,-0.35200586915016174,0.2571738064289093,-0.0984688550233841,0.1323692947626114,-0.6166521310806274,0.09285164624452591,-0.4662053883075714,0.11333486437797546,0.1913120448589325,-0.028088701888918877,0.008721093647181988,0.023473549634218216,0.20105992257595062,0.4935438334941864,-0.18160633742809296,0.038472890853881836,-0.1556335687637329,-0.43947359919548035,-0.33069440722465515,0.13117404282093048,0.25506076216697693,-0.07060589641332626,-0.2398853451013565,-0.03731505945324898,-0.4856795072555542,0.20759381353855133,0.2397066205739975,-0.0077838473953306675,0.23825746774673462,0.04361265152692795,0.019907735288143158,-0.2068389356136322,0.044032786041498184,0.0602237693965435,-0.14945387840270996,-0.09501583129167557,0.19507791101932526,0.20098991692066193,0.0006118289311416447,0.07930196821689606,-0.07762934267520905,-0.5522334575653076,0.17885379493236542,0.26661252975463867,-0.25919780135154724,-0.13252465426921844,-0.7401978373527527,0.03495372086763382,-0.23899205029010773,-0.15535779297351837,-0.05020549148321152,0.24884498119354248,0.3515649139881134,0.33785852789878845,-0.5101407766342163,0.9550057649612427,-0.5741342306137085,0.00850550178438425,-0.2603495121002197,-0.18633218109607697,0.3168318569660187,-0.5694440007209778,-0.19263747334480286,0.17829765379428864,-0.6082550883293152,0.21714361011981964,-0.18988899886608124,-0.23331202566623688,0.054700613021850586,-0.15544690191745758,0.06162600591778755,0.2361581176519394,-0.0212152861058712,-0.5118259787559509,0.7422242760658264,0.036502424627542496,-0.24079953134059906,-0.3089161217212677,0.054140955209732056,-0.040553152561187744,0.1384865641593933,0.18121276795864105,0.0017125169979408383,-0.08360012620687485,-0.05756469815969467,-0.16142885386943817,-0.27766817808151245,0.04443037509918213,-0.10111365467309952,-0.21399162709712982,0.024533037096261978,-0.0018439235864207149,0.11791829019784927,-0.17851203680038452,-0.24863874912261963,0.1584775298833847,-0.11608926206827164,-0.026901399716734886,0.06315135955810547,0.004034115932881832,0.2804091274738312,-0.19774103164672852,-0.17789976298809052,-0.2914995551109314,0.4935424327850342,-0.04313349351286888,0.43558794260025024,-0.16181053221225739,0.02230466529726982,0.19438496232032776,0.15785062313079834,0.09118135273456573,0.6408281922340393,0.5132231116294861,0.24019703269004822,0.18157489597797394,-0.41429609060287476,-0.1559392511844635,-0.31186991930007935,-0.03674628585577011,0.2888002395629883,-0.8279763460159302,0.27371421456336975,0.04006412625312805,0.16338878870010376,0.32276010513305664,0.19683945178985596,-0.44424915313720703,0.17057378590106964,-0.11871744692325592,0.026430528610944748,0.29102611541748047,-0.0030938039999455214,-0.08156384527683258,-0.10755154490470886,0.22932259738445282,-0.17974381148815155,-0.10931329429149628,0.006709509063512087,-0.11997213959693909,0.05843144655227661,0.20783056318759918,0.9380898475646973,-0.8150695562362671,-0.030762379989027977,-0.4687405526638031,0.25117406249046326,-0.04440690949559212,-0.2195338010787964,-0.0630800873041153,0.23250404000282288,0.521012544631958,-0.4636452794075012,0.09396328032016754,0.1166391521692276,0.1584601104259491,0.20653115212917328,0.1893393099308014,-0.027141818776726723,-0.18198508024215698,0.20728205144405365,-0.6249936819076538,0.47773006558418274,0.31914350390434265,-0.4398799240589142,0.03389905393123627,0.2504393756389618,-0.3782092332839966,0.4108518064022064,0.6154462099075317,0.20917172729969025,0.0008245177450589836,0.1839839369058609,-0.4132770299911499,0.26752379536628723,0.15339289605617523,-0.30054962635040283,-0.13498620688915253,0.18742823600769043,-0.2533257007598877,0.03960099443793297,0.15651682019233704,0.2004181295633316,0.18423420190811157,-0.08776400238275528,0.19617913663387299,-0.0023002743255347013,0.07523012161254883,-0.137701615691185,0.11157684028148651,-0.22056825459003448,0.2941087484359741,-0.03620961308479309,-0.3440178632736206,0.3397909998893738,-0.1090298518538475,0.16652795672416687,0.20971164107322693,-0.2829909026622772,-0.6695640683174133,-0.03807372227311134,0.17696000635623932,0.37251222133636475,-0.0047242180444300175,0.07790517061948776,0.04446118697524071,-0.23050807416439056,0.13946151733398438,0.5130842924118042,-0.6599577069282532,-0.3969005048274994,-0.026060331612825394,0.47162875533103943,-0.23544688522815704,0.0806305855512619,0.3174552917480469,0.08855403959751129,0.5154592394828796,-0.32717370986938477,0.10949263721704483,0.3231256902217865,0.33459094166755676,0.17179234325885773,-0.03343787044286728,-0.6475566625595093,0.01688065379858017,-0.43354350328445435,0.0663326233625412,-0.00019957915355917066,-0.40370413661003113,-0.2697541415691376,-0.002517483662813902,0.15478432178497314,-0.37145689129829407,-0.09446974098682404,0.1722920835018158,0.17546416819095612,-0.3691621422767639,0.15700532495975494,0.6337044835090637,0.19905610382556915,-0.03364502638578415,-0.2090999186038971,-0.15029294788837433,0.2490723878145218,0.0005396201740950346,0.12445106357336044,0.17590740323066711,-0.21318896114826202,-0.020447619259357452,-0.10359568893909454,-0.014604696072638035,0.20134195685386658,-0.3167243003845215,-0.024622200056910515,-0.037066683173179626,0.04911817982792854,-0.05869559571146965,-0.3774733245372772,0.0028764023445546627,0.27179786562919617,-0.10502199828624725,-0.04502230882644653,-0.22683770954608917,0.03467336669564247,-0.3916374742984772,-0.00999509822577238,0.0716182217001915,0.10418114066123962,-0.009251372888684273,-0.05244185030460358,-0.13050596415996552,0.4823688566684723,0.43215686082839966,0.06392348557710648,-0.247949481010437,-0.14144080877304077,-0.289370059967041,-0.11766008287668228,0.02382909134030342,0.19659511744976044,0.33749088644981384,0.1449810266494751,0.17580865323543549,-0.4890449047088623,-0.40452447533607483,-0.24219435453414917,0.4326268434524536,0.19937296211719513,0.1943819224834442,-0.3593621850013733,0.04594585672020912,0.26362934708595276,0.19022631645202637,0.6796479821205139,0.6088844537734985,-0.6856328248977661,0.10703124105930328,0.05783001706004143,0.01287195272743702,-0.1689014732837677,0.030639514327049255,0.319338858127594,-0.03844810649752617,0.22209347784519196,0.47404584288597107,0.285380095243454,0.4080393612384796,0.0004006780218333006,0.27549922466278076,-0.048717938363552094,0.16080206632614136,-0.35400065779685974,-0.6171578764915466,0.9146572947502136,0.0020956466905772686,0.1002834141254425,0.05763976648449898,-0.14523491263389587,-0.5327579975128174,0.1692582070827484,-0.16293957829475403,-0.0906921923160553,0.19646385312080383,-0.058206282556056976,0.13259169459342957,-0.019690440967679024,0.0029180694837123156,-0.12534396350383759,0.08439832180738449,-0.03719313442707062,0.19138497114181519,0.1685333549976349,0.36433470249176025,0.09716024994850159,0.10122574865818024,0.38479334115982056,-0.21670657396316528,-0.1016426831483841,0.205657958984375,-0.06774706393480301,0.1174422949552536,0.5560578107833862,-0.618520200252533,-0.21612104773521423,-0.05983366072177887,0.30599385499954224,0.12122838199138641,-0.13327252864837646,0.10382125526666641,-0.30929863452911377,-0.1778281033039093,0.022903257980942726,-0.4888242483139038,0.3288668692111969,0.2703685760498047,-0.4417562484741211,-0.29130473732948303,-0.0008966309251263738,-0.15448713302612305,0.0973682850599289,0.37430840730667114,-0.05663289129734039,-0.17155969142913818,0.09706424176692963,-0.2474653273820877,-0.23477192223072052,0.25132861733436584,-0.33683085441589355,-0.14881287515163422,0.12202230840921402,0.12762874364852905,-0.020690621808171272,0.003252507420256734,0.1252632439136505,-0.059616394340991974,-0.09237967431545258,0.3399920165538788,-0.13312169909477234,-0.18792739510536194,-0.03766624629497528,-0.2640301585197449,0.6325564384460449,0.12721462547779083,0.14285731315612793,-0.4650532305240631,-0.491384893655777,0.0864662230014801,0.9759222865104675,0.2574613094329834,0.16552700102329254,-0.7700550556182861,-0.14777128398418427,-0.12115012854337692,-0.2004731446504593,0.1453830450773239,-0.21835562586784363,0.06887972354888916,-0.17691414058208466,0.15246088802814484,0.33060750365257263,-0.508965790271759,-0.2439514547586441,-0.07771816849708557,0.10263342410326004,0.11591619998216629,-0.03759623318910599,-0.14256732165813446,-0.2280149757862091,0.8899939060211182,-0.08027920871973038,0.18416471779346466,0.08183496445417404,-0.17886629700660706,-0.2939109206199646,0.086516834795475,-0.19449688494205475,0.03466334566473961,0.06675611436367035,-0.0009922966128215194,0.002293831668794155,0.14839738607406616,0.14772549271583557,-0.0032279519364237785,0.10908982902765274,0.17668621242046356,-0.006627016235142946,0.23809917271137238,0.0831843838095665,-0.06548073887825012,0.0029792445711791515,0.20785441994667053,0.1636771261692047,0.042460523545742035,-0.30900779366493225,0.15601980686187744,-0.2713942229747772,0.23814965784549713,-0.21817359328269958,-0.21881203353405,-0.11550679802894592,-0.2758718430995941,0.17453886568546295,0.12375260144472122,-0.08722245693206787,0.16837899386882782,-0.6498628258705139,0.5111247301101685,-0.006923362612724304,0.01630149595439434,-0.30255645513534546,-0.21828310191631317,0.5318742990493774,0.5968453288078308,0.35876479744911194,-0.04396377503871918,-0.19463764131069183,-0.4412120282649994,0.15958566963672638,-0.12263380736112595,-0.02090117335319519,0.42810484766960144,0.2520608901977539,0.2536732256412506,0.2168494313955307,-0.3175210654735565,0.3759883940219879,-0.8209443092346191,-0.14394927024841309,0.20199747383594513,-0.17856816947460175,0.13045844435691833,0.19945837557315826,-1.0176876783370972,0.15457479655742645,-0.29682791233062744,-0.20216283202171326,0.009605705738067627,0.23765169084072113,-0.4212634861469269,-0.00795718189328909,-0.3964143991470337,0.10101106762886047,0.008265199139714241,-0.4666793942451477,-0.42080268263816833,0.7221830487251282,0.7697409987449646,-0.7781182527542114,0.1411914974451065,0.2761993408203125,0.08302948623895645,-0.07081718742847443,0.3150295317173004,-0.00649507250636816,0.14018948376178741,0.5354495644569397,0.5799029469490051,0.07982964813709259,0.09254098683595657,0.10129468142986298,0.08759966492652893,-0.3351803719997406,0.028133954852819443,-0.434067040681839,-0.2740509808063507,0.6384735107421875,-0.12936419248580933,-0.029779493808746338,0.27719128131866455,-0.1986866593360901,-0.1996743381023407,-0.05330325663089752,-0.1597982943058014,-0.17272864282131195,0.1619364619255066,0.13920091092586517,0.051870763301849365,0.027020804584026337,-0.061149608343839645,0.060813143849372864,0.43474081158638,-0.16696299612522125,0.14254817366600037,0.11280220746994019,-0.23572120070457458,-0.312165230512619,0.7210707664489746,0.11707263439893723,0.11635715514421463,-0.11007975786924362,-0.1525391787290573,-0.5652151107788086,-0.24040181934833527,0.02010301500558853,0.7234236598014832,-0.09611675143241882,-0.016626548022031784,-0.1806902438402176,-0.20654255151748657,0.17056621611118317,-0.27009251713752747,-0.44702616333961487,-0.06874484568834305,-0.7043595314025879,0.16212065517902374,0.10782640427350998,0.11557108908891678,-0.29947909712791443,0.0008057218510657549,0.347612202167511,0.07760884612798691,0.3826987147331238,-0.6424459218978882,0.5289900898933411,0.13380256295204163,-0.11441303789615631,-0.33225592970848083,0.21424143016338348,0.04914798587560654,0.14858879148960114,0.27195265889167786,0.12713660299777985,-0.06142788007855415,-0.019998498260974884,-0.01761847734451294,0.1328554004430771,-0.061571281403303146,-0.04692889004945755,0.1645662486553192,0.0911211222410202,-0.183693990111351,-0.00047552166506648064,-0.0941387340426445,0.01051645539700985,0.14644703269004822,-0.062047578394412994,-0.05433621257543564,-0.02996405027806759,0.08735239505767822,0.4882603883743286,-0.18894365429878235,0.1711050122976303,1.2072335481643677,-0.31189626455307007,-0.08233021199703217,-0.04669908806681633,0.33545762300491333,-0.2661099135875702,-0.25937822461128235,0.12886835634708405,0.0032428365666419268,-0.34401336312294006,0.44717568159103394,-0.01514393463730812,0.043226055800914764,-0.05095064267516136,0.06402911990880966,0.22119936347007751,-0.046699073165655136,-0.06267016381025314,-0.6768621206283569,0.12299665808677673,0.16719886660575867,-0.022582581266760826,0.07824381440877914,-0.0020192149095237255,0.15013450384140015,0.15003876388072968,0.20013941824436188,0.1781214475631714,-0.11548878252506256,-0.07644630968570709,-0.30977579951286316,0.1613662838935852,-0.10330575704574585,-0.007543044630438089,0.3230735659599304,0.1525416523218155,-0.18235895037651062,-0.21638751029968262,-0.23008374869823456,-0.44146206974983215,0.3219940662384033,-0.19360961019992828,0.3691970407962799,-0.19408361613750458,0.021828310564160347,-0.01876695081591606,-0.05665675923228264,0.15053850412368774,0.0050440588966012,0.04476257413625717,-0.12787623703479767,-0.031533949077129364,0.059470776468515396,0.004570713732391596,0.06455359607934952,-0.07696934789419174,-0.053094714879989624,0.037937745451927185,-0.006968796253204346,0.009190836921334267,-0.3725782036781311,-0.04300403967499733,0.3540489673614502,-0.3918042480945587,0.2808111011981964,-0.21853987872600555,-0.45166316628456116,-0.5100192427635193,0.3500259518623352,-0.35155636072158813,0.07299251109361649,-0.2967182695865631,-0.00747750885784626,-0.2340025156736374,0.29255038499832153,-0.3278305232524872,-0.0404973067343235,0.2070867270231247,0.054286159574985504,0.01990310288965702,0.004216229543089867,0.4255712926387787,0.18419377505779266,0.38234367966651917,0.09484325349330902,-0.1819063127040863,-0.017338506877422333,-0.016070585697889328,-0.018283208832144737,-0.17856793105602264,0.19783039391040802,0.35533180832862854,-0.02872120402753353,0.2626097798347473,0.07722529768943787,-0.10478366166353226,0.037768423557281494,0.23555059731006622,0.35412755608558655,-0.103634774684906,0.13611117005348206,0.050710394978523254,-0.04527872055768967,-0.07485784590244293,0.22656533122062683,0.06333789974451065,0.23181746900081635,0.08016859740018845,-0.10499647259712219,-0.14740785956382751,-0.37050485610961914,0.11984916031360626,0.1459766924381256,0.1953934133052826,0.14045695960521698,0.07586318999528885,0.20759207010269165,0.10691586136817932,-0.21370908617973328,-0.04216757044196129,-0.025511503219604492,-0.31966012716293335,-0.038624107837677,-0.03141734376549721,0.14608322083950043,-0.10561688244342804,-0.16258636116981506,0.3673291802406311,-0.1193244680762291,-0.2455710470676422,-0.07744944095611572,0.13684336841106415,-0.0649217888712883,-0.08036381006240845,0.08807922899723053,0.25937536358833313,0.2529144287109375,-0.06110287830233574,0.4544571042060852,0.23838482797145844,0.2145388424396515,0.28373491764068604,0.05201539024710655,0.07191793620586395,-0.30821657180786133,-0.1892450749874115,-0.20070208609104156,0.07904475927352905,0.1340145319700241,-0.24806112051010132,0.16806992888450623,0.1599285751581192,-0.06592859327793121,-0.26527830958366394,-0.3216835856437683,-0.21661873161792755,0.1366148442029953,0.04565657675266266,-0.10735390335321426,0.06972627341747284,0.00612617889419198,0.1277497410774231,0.033661145716905594,0.042972687631845474,-0.4280816912651062,0.20943455398082733,0.033550892025232315,-0.032264165580272675,-0.2067677229642868,0.19316191971302032,-0.07378272712230682,0.031129704788327217,0.1584080159664154,0.3363308608531952,-0.049028944224119186,-0.2529860734939575,0.15955336391925812,0.1646786481142044,0.003442346351221204,-0.036021456122398376,0.24149714410305023,0.09211321175098419,-0.23682519793510437,0.23590514063835144,0.4173833429813385,0.10542380064725876,-0.059514209628105164,-0.234776571393013,0.11820648610591888,0.14089757204055786,0.0007705898606218398,0.006774830631911755,-0.18114997446537018,-0.057290658354759216,-0.5380619168281555,-0.007959459908306599,-0.02919616736471653,0.02415393479168415,0.11559071391820908,-0.04660673812031746,-0.24732670187950134,-0.03542889282107353,-0.16941966116428375,0.20551519095897675,-0.11507271230220795,0.0849628895521164,-0.12820544838905334,0.28490492701530457,0.04478243738412857,-0.18117351830005646,0.032141875475645065,-0.016760554164648056,-0.040913213044404984,0.15034589171409607,0.13230229914188385,0.2720257341861725,-0.24673712253570557,-0.11513987183570862,-0.10716556012630463,0.014364063739776611,-0.27824240922927856,-0.03294546902179718,0.4278128743171692,-0.4959530234336853,0.22687175869941711,-0.11838322877883911,0.34687915444374084,0.17713519930839539,-0.49056002497673035,-0.07520876824855804,0.20386525988578796,0.3581797778606415,0.18966971337795258,-0.00894614402204752,0.6355990767478943,-0.3850269615650177,-0.023767899721860886,0.008326040580868721,0.01982620172202587,-0.047235358506441116,-0.050776463001966476,-0.4796951115131378,0.26059162616729736,0.07695858180522919,0.0351397804915905,0.008740692399442196,-0.3137642741203308,-0.06156890466809273,0.04632081091403961,0.023130249232053757,-0.4484478533267975,0.2783755362033844,0.014878260903060436,0.055447109043598175,0.036143336445093155,-0.47236084938049316,-0.02819977141916752,-0.15324755012989044,-0.13949768245220184,0.39514756202697754,0.4121570587158203,0.001692984951660037,-0.1280277669429779,-0.09485005587339401,0.0985926166176796,-0.0011472735786810517,-0.1296209990978241,-0.071933314204216,-0.1972007304430008,0.23162707686424255,0.08958898484706879,0.3333836793899536,0.16801008582115173,0.30707505345344543,-0.22351586818695068,0.12710201740264893,-0.4716065227985382,-0.08499152958393097,-0.1928664594888687,-0.009724854491651058,0.0060141379944980145,-0.010767033323645592,0.010525267571210861,-0.15614061057567596,0.039710186421871185,0.10747717320919037,0.25364622473716736,0.38369956612586975,-0.1313914656639099,-0.21797482669353485,-0.4547281265258789,-0.41245236992836,0.5433431267738342,0.1620367467403412,0.4931931495666504,-0.08867817372083664,0.1002831980586052,0.1563858836889267,-0.171722412109375,-0.0629945769906044,-0.3173721432685852,-0.05777248367667198,0.27210962772369385,0.22341357171535492,0.1420096606016159,-0.40794622898101807,-0.07484395802021027,0.12821859121322632,0.08772779256105423,-0.00844147615134716,-0.00369126140139997,0.1154647096991539,0.09744876623153687,0.14597424864768982,-0.07317113876342773,0.11797062307596207,-0.13158203661441803,-0.30282288789749146,0.32456791400909424,0.2531459331512451,0.17814767360687256,0.19082659482955933,-0.49265608191490173,0.2592267692089081,0.06571445614099503,0.11900922656059265,0.44473254680633545,0.3528836965560913,0.031204642727971077,0.21172592043876648,0.2377328723669052,-0.06772051751613617,0.015379287302494049,0.05943494290113449,-0.019124360755085945,-0.024481438100337982,-0.019774271175265312,-0.025682412087917328,0.0698356032371521,-0.09588836878538132,-0.024319032207131386,0.22129949927330017,0.0807986781001091,0.05157391354441643,-0.03701143339276314,-0.16409382224082947,-0.0002871451142709702,-0.08738748729228973,0.061431970447301865,-0.12012732774019241,0.010289129801094532,-0.4493330121040344,0.1508043110370636,-0.020464695990085602,0.3023300766944885,0.06505858898162842,0.02457450143992901,0.21187721192836761,-0.1767803430557251,-0.1572117805480957,0.4764562249183655,-0.670202374458313,-0.09659579396247864,-0.46499451994895935,0.2800218164920807,0.19775094091892242,0.04077630490064621,-0.19395098090171814,-0.03305954486131668,0.28201988339424133,0.2379726767539978,-0.4650398790836334,-0.24263428151607513,0.23914150893688202,0.08352892100811005,0.4937434196472168,-0.23764218389987946,-0.23559515178203583,-0.20713287591934204,0.09505966305732727,-0.2281893640756607,0.04100250452756882,-0.5155912041664124,-0.4172290563583374,-0.016586188226938248,0.44325727224349976,-0.14566537737846375,-0.5118314027786255,0.2240120768547058,0.3591880202293396,0.23443706333637238,0.3396036624908447,0.3750925660133362,0.09631291776895523,-0.5249977707862854,0.5005807280540466,0.0969538763165474,0.11184469610452652,0.12867337465286255,-0.13930320739746094,0.05289491266012192,-0.04487099125981331,-0.047353655099868774,0.001516873249784112,0.07613077759742737,0.27068352699279785,0.14951136708259583,0.25258418917655945,0.29119735956192017,-0.20339663326740265,-0.1934032142162323,-0.46785372495651245,-0.030535779893398285,0.25565242767333984,0.2329833060503006,-0.16713397204875946,-0.2402247190475464,-0.3045711815357208,-0.008657881990075111,-0.37293845415115356,0.08267170190811157,-0.19586364924907684,-0.13324739038944244,-0.19597366452217102,-0.23870445787906647,0.3849658668041229,0.13785453140735626,0.22330424189567566,0.0006431126967072487,-0.12851925194263458,0.2700270414352417,-0.4022391736507416,-0.038254301995038986,0.13715572655200958,-0.2784430980682373,0.37940582633018494,-0.03954575955867767,-0.6070952415466309,-0.04526875913143158,0.12403050065040588,0.12054276466369629,0.25185510516166687,-0.19611552357673645,0.1092715859413147,-0.0851740837097168,0.1653638780117035,0.2604796588420868,0.22749753296375275,0.4056301414966583,0.21217378973960876,0.11539633572101593,-0.3124031722545624,0.24540750682353973,0.06462428718805313,-0.09548559039831161,0.0484449602663517,0.00907557550817728,-0.12337062507867813,0.5089187026023865,0.04305968061089516,0.06761982291936874,0.1495952159166336,0.13700398802757263,0.1004444807767868,-0.08458130061626434,0.05917567014694214,0.37219884991645813,0.16251738369464874,-0.014354794286191463,0.3947700560092926,-0.2681650221347809,-0.03350939229130745,0.34955713152885437,-0.19863085448741913,-0.09388229250907898,0.09006927907466888,-0.2960508465766907,-0.12222931534051895,-0.03695760294795036,-0.12284184992313385,0.10105472803115845,-0.0059757172130048275,0.05213490128517151,0.17674916982650757,0.004557172767817974,0.07869496196508408,0.08166631311178207,-0.11091580986976624,-0.6613087058067322,-0.14295300841331482,-0.03842313587665558,-0.01763993129134178,0.052193935960531235,-0.26636219024658203,-0.3129722476005554,-0.193637415766716,0.3238653838634491,0.1540622115135193,0.2855207324028015,0.19785873591899872,-0.002967169275507331,0.282502681016922,0.09048371762037277,-0.20256179571151733,0.07289217412471771,0.1466429978609085,-0.24783405661582947,-0.145797461271286,-0.3428695797920227,0.46701696515083313,0.17660175263881683,-0.030589448288083076,-0.1259905844926834,-0.45135632157325745,0.4328994154930115,0.49537476897239685,-0.1136593148112297,-0.16548502445220947,0.30831605195999146,-0.5431959629058838,-0.0032047193963080645,0.5540382862091064,0.062316060066223145,0.24555450677871704,-0.02077854983508587,0.23880156874656677,0.08574172109365463,0.03678486496210098,0.23929515480995178,0.29436594247817993,-0.4518631100654602,0.560123860836029,-0.21831285953521729,-0.4246375560760498,-0.3380419909954071,-0.36654120683670044,0.6357051730155945,0.029005998745560646,0.19469869136810303,0.24031032621860504,-0.08025626093149185,-0.04103507101535797,-0.17384524643421173,-0.18314053118228912,0.07550154626369476,0.08869623392820358,-0.12464059144258499,0.19912837445735931,-0.033664289861917496,0.2800564467906952,0.0004815915017388761,0.433671236038208,0.2939493954181671,0.048339683562517166,-0.8557681441307068,-0.046472810208797455,-0.5372180938720703,-0.45917314291000366,0.017054645344614983,-0.2429167777299881,0.08952194452285767,0.1241561695933342,-0.11222811788320541,-0.4420492947101593,-0.02686065249145031,-0.18089358508586884,-0.29357340931892395,0.7121908664703369,-0.1284647434949875,-0.48429667949676514,-0.4098237454891205,0.1997581273317337,-0.00200012163259089,0.23329253494739532,0.2653258144855499,0.09941940009593964,0.18765150010585785,0.5124201774597168,0.06259525567293167,-0.7232904434204102,-0.11928331106901169,0.7848777770996094,0.20992235839366913,-0.07902581244707108,-0.04017762839794159,0.03312946856021881,0.03762612119317055,-0.05663580447435379,0.09320574253797531,-0.29772552847862244,-0.5368761420249939,0.040147144347429276,0.34954848885536194,-0.3072490692138672,-0.032282836735248566,-0.2999899983406067,0.09585694223642349,0.22972232103347778,-0.4402802586555481,-0.11602416634559631,0.0441136434674263,-0.6024423837661743,0.6830135583877563,-0.09003504365682602,0.4129881262779236,-0.10297214984893799,0.13672898709774017,0.15213200449943542,0.03194686397910118,-0.49550965428352356,0.052724599838256836,0.4976430833339691,-0.06591543555259705,-0.1281796097755432,0.19879621267318726,-0.5017736554145813,-0.08460665494203568,0.5623297691345215,0.2973496913909912,0.07640115916728973,-0.006909252144396305,0.5192703604698181,-0.1308116465806961,-0.25775235891342163,-0.23396854102611542,0.14086724817752838,-0.3990958631038666,0.4128376543521881,0.2893572449684143,-0.6294708251953125,-0.21386000514030457,-0.02152504213154316,0.025740904733538628,0.0600527822971344,-0.033387310802936554,0.47174233198165894,-0.03901403769850731,-0.1018589586019516,0.1936018466949463,0.17112691700458527,0.2622942626476288,-0.23289738595485687,-0.05386008322238922,-0.019787073135375977,0.43119823932647705,-0.23098139464855194,-0.049214188009500504,-0.08283574134111404,0.06011292338371277,0.04252255707979202,-0.7906451225280762,0.095884770154953,0.20305520296096802,0.10407529771327972,0.050817131996154785,-0.06542682647705078,0.39608994126319885,0.2857195734977722,0.33425506949424744,0.4412382245063782,-0.046435996890068054,0.06655438244342804,0.14458705484867096,-0.017103752121329308,0.22276034951210022,-0.29163917899131775,-0.057486556470394135,-0.15051212906837463,-0.4975527822971344,-0.024899885058403015,-0.1375209093093872,-0.09857464581727982,-0.12714356184005737,0.08060149103403091,0.0017918875673785806,-0.05714648216962814,-0.08831453323364258,0.16434505581855774,0.06679091602563858,0.22249455749988556,-0.38413187861442566,-0.1203734427690506,-0.2689102292060852,0.24872227013111115,-0.17857898771762848,0.14463458955287933,0.05351477861404419,0.3023917078971863,-0.3087352514266968,0.09557542204856873,-0.24797524511814117,-0.2249642312526703,0.7121831178665161,-0.262419193983078,-0.15182167291641235,0.5759047865867615,-0.11365091055631638,-0.021098865196108818,-0.17615334689617157,0.270894855260849,0.1963711827993393,-0.15300126373767853,-0.05673949047923088,0.30334603786468506,0.276986688375473,0.3351297974586487,0.07200884073972702,-0.2821086347103119,0.3450887203216553,0.4996761679649353,-0.3176382780075073,0.36704376339912415,0.44454774260520935,-0.8667145371437073,-0.15631262958049774,-0.0948818102478981,0.026144323870539665,-0.2770974934101105,0.08194995671510696,-0.06464673578739166,-0.2226538360118866,-0.32472845911979675,0.5207818150520325,-0.3569469749927521,-0.21647077798843384,0.45503538846969604,0.016527285799384117,0.028849242255091667,-0.6668943762779236,-0.12069828063249588,0.5569329261779785,-0.9019603133201599,-0.06295441836118698,-0.1110745370388031,0.31169191002845764,-0.3110857605934143,-0.4717728793621063,-0.017369495704770088,-0.11967484652996063,-0.03133708983659744,0.2828800082206726,-0.3915632665157318,0.12223025411367416,-0.03992573916912079,-0.2489614635705948,0.10343772917985916,0.014411656185984612,-0.004952140152454376,0.43946462869644165,-0.17096653580665588,-0.10611558705568314,-0.004702333360910416,-0.09221301972866058,0.39878129959106445,0.619591236114502,-0.10306088626384735,-0.08748970180749893,-0.36393609642982483,-0.29529088735580444,0.0848379135131836,0.3168410062789917,-0.5372194647789001,-0.024820169433951378,-0.1758386641740799,0.3276563882827759,-0.05231447517871857,0.017675604671239853,0.4851967692375183,-0.20366127789020538,-0.1241738349199295,0.20868238806724548,0.018191121518611908,-0.0004994280752725899,0.033731795847415924,0.25138986110687256,0.2403324991464615,-0.0135667584836483,0.07661011815071106,0.46654602885246277,-0.19023017585277557,0.07252077013254166,-0.40733981132507324,-0.0649154931306839,-0.2138693779706955,-0.19480520486831665,0.2526325583457947,-0.5193234086036682,1.1303476095199585,-0.3013325333595276,0.06922891736030579,0.06412356346845627,-0.078646220266819,0.07299226522445679,-0.38598453998565674,0.3659455180168152,0.12630987167358398,0.7262639403343201,0.0364895723760128,0.16262470185756683,0.39070838689804077,-0.6812803745269775,0.19107910990715027,-0.44903433322906494,0.26238518953323364,0.32740455865859985,-0.3277711272239685,0.2859850227832794,0.4248056709766388,-1.0485643148422241,0.35141465067863464,-0.2983594834804535,0.032651450484991074,-0.09056198596954346,0.35271748900413513,-0.38603946566581726,-0.33036741614341736,-0.7515597939491272,-0.30853593349456787,0.3898223638534546,-0.46983057260513306,0.16228586435317993,-0.24245470762252808,0.028559181839227676,-0.12737809121608734,0.5411090850830078,0.0423838272690773,-0.7632157802581787,-0.08091671764850616,0.2500312328338623,-0.2886798679828644,-0.25611716508865356,0.3136613667011261,0.22639496624469757,-0.1184736043214798,0.15539363026618958,0.19066764414310455,-0.4172109365463257,-0.03771138936281204,-0.4243110716342926,0.12285563349723816,0.030300065875053406,-0.7918229699134827,0.5682816505432129,-0.01695944182574749,0.37608060240745544,-0.08076171576976776,0.07050678879022598,0.09621123969554901,-0.11939244717359543,-0.22093595564365387,0.4403492510318756,0.6467259526252747,0.08844760060310364,-0.02251928113400936,0.01600533165037632,-0.3104874789714813,-0.37634801864624023,0.4721335172653198,0.1062464714050293,-0.00900040939450264,-0.03897443041205406,0.1108943372964859,0.3359099328517914,0.010616431012749672,-0.3644452393054962,0.3143978416919708,0.5087389349937439,0.2562696635723114,0.007639159448444843,-0.5250963568687439,-0.09355788677930832,-0.030478186905384064,0.24619461596012115,-0.21997274458408356,-0.31627845764160156,0.09896339476108551,-0.013603895902633667,-0.0863146185874939,-0.16031676530838013,-0.21102264523506165,-0.14812465012073517,0.11666793376207352,-0.00028318740078248084,-0.0534711591899395,-0.05972319468855858,-0.020755568519234657,-0.22422575950622559,-0.33869534730911255,-0.10779254138469696,-0.06375353038311005,-0.048061076551675797,0.003874308429658413,-0.2031956911087036,0.055424053221940994,0.009491432458162308,0.024605020880699158,-0.1299319565296173,-0.03090725652873516,-0.38459065556526184,-0.24222099781036377,-0.2723263204097748,0.0027872261125594378,-0.349668949842453,-0.10998167842626572,-0.521032989025116,0.518302857875824,0.09709885716438293,0.037823181599378586,-0.23968112468719482,0.01653541438281536,-0.1328817456960678,-0.4408019483089447,0.06695885956287384,0.18913599848747253,-0.3146580457687378,0.06973255425691605,0.20811893045902252,-0.6787422895431519,0.0792747437953949,-0.16190703213214874,0.055666692554950714,0.1497606635093689,0.26441076397895813,-0.12967051565647125,0.0303867869079113,-0.08746274560689926,0.33157429099082947,-0.20896565914154053,-0.13376030325889587,-0.41440919041633606,-0.046639829874038696,-0.09603255987167358,-0.07467389851808548,-0.022881707176566124,-0.15808866918087006,-0.22805529832839966,-0.07442047446966171,0.09292470663785934,0.10440981388092041,-0.235813707113266,0.08366439491510391,-0.1300748884677887,-0.03781340271234512,-0.00985646154731512,-0.2978512942790985,0.3940289318561554,0.4731130003929138,-0.006729402579367161,-0.1036994457244873,0.31683775782585144,0.20146848261356354,0.2622988224029541,0.37311434745788574,-0.5101520419120789,0.012526217848062515,-0.1807810515165329,-0.494882732629776,-0.17463244497776031,-0.32918065786361694,0.39942339062690735,-0.039671510457992554,-0.07549086958169937,0.11645619571208954,-0.32224008440971375,-0.057150717824697495,-0.039158791303634644,0.10080894827842712,0.18585661053657532,0.19137610495090485,0.21107333898544312,0.2935887277126312,0.10281591862440109,0.03954780846834183,0.11704877018928528,0.11293169111013412,0.35091593861579895,0.3234572112560272,-0.3361292779445648,-0.16618674993515015,-0.3184222877025604,0.021975278854370117,-0.008450021035969257,0.09012819826602936,0.03726452961564064,0.04894000291824341,-0.1360652595758438,0.16640940308570862,-0.06618072837591171,0.023835984990000725,0.18578705191612244,-0.2543725073337555,-0.14453603327274323,0.07291530817747116,-0.04917756840586662,-0.16244298219680786,0.021015016362071037,0.04667719081044197,0.19118252396583557,0.07887353003025055,-0.04564795643091202,-0.23859503865242004,0.22265443205833435,0.18711251020431519,-0.09858647733926773,-0.0973653644323349,0.07222894579172134,0.01750420778989792,0.6234599351882935,0.03555433824658394,-0.012778561562299728,0.58954918384552,0.22378987073898315,0.1957559734582901,-0.7503254413604736,-0.18622075021266937,-0.1682896912097931,-0.022116314619779587,0.03760424256324768,-0.4508863389492035,-0.2593770921230316,-0.060053881257772446,-0.043841537088155746,0.14560073614120483,0.3591732978820801,0.4048057198524475,-0.33831390738487244,-0.049059219658374786,-0.08477585762739182,0.08543328195810318,-0.0979207307100296,-0.33457812666893005,0.47367873787879944,-0.11059299856424332,0.07820963114500046,-0.3909871578216553,0.13882136344909668,0.07573918998241425,-0.3619132936000824,-0.05689201131463051,-0.07609979063272476,-0.3281598687171936,0.334037184715271,0.4153331220149994,0.4119556248188019,0.060010094195604324,-0.04870018735527992,-0.03611839562654495,-0.1572989672422409,-0.17246855795383453,0.23397840559482574,-0.22951918840408325,-0.10571824014186859,0.26452210545539856,0.15645089745521545,-0.09777625650167465,-0.1197124719619751,-0.24359457194805145,0.18559995293617249,-0.7907218933105469,-0.04733257368206978,0.1311500370502472,0.2651587426662445,0.19876083731651306,0.29429566860198975,0.21069802343845367,-0.09873495995998383,-0.08676482737064362,-0.08424080163240433,0.1104169711470604,-0.1920156627893448,0.2661001980304718,0.35675808787345886,0.32143864035606384,0.3195091784000397,-0.11675883084535599,-0.016559520736336708,-0.02714407630264759,0.05798692628741264,-0.0962022915482521,-0.45845869183540344,0.020329279825091362,0.20090745389461517,-0.015006985515356064,0.5563833713531494,0.06055281311273575,-0.24078278243541718,0.007335876580327749,-0.1907973438501358,0.23722848296165466,0.5241404175758362,-0.19358155131340027,-0.45444151759147644,0.11882137507200241,-0.05646314471960068,0.22943100333213806,0.7059570550918579,-0.11655903607606888,-0.5715446472167969,-0.5804014205932617,0.02104129269719124,0.18811531364917755,-0.022392187267541885,0.42505931854248047,-0.009433424100279808,-0.5033620595932007,-0.22940482199192047,-0.0002553386439103633,-0.68608158826828,0.11561591923236847,0.40490472316741943,0.5939937233924866,-0.47208988666534424,-0.5226020216941833,-0.012974883429706097,0.11145922541618347,0.18350407481193542,-0.00584116717800498,0.07841842621564865,0.014784296974539757,-0.033276673406362534,-0.031696878373622894,0.019670531153678894,0.012420091778039932,-0.018546245992183685,0.08036083728075027,-0.008751092478632927,0.007294414099305868,0.06130782887339592,-0.7363401651382446,-0.01348148938268423,-0.0354672409594059,-0.06183990091085434,0.1234622448682785,-0.0042619542218744755,0.49224576354026794,0.10570425540208817,-0.2848719358444214,0.3079911768436432,-0.5629948377609253,0.28634363412857056,0.602533221244812,-0.12211267650127411,1.0842769145965576,-0.021156592294573784,0.1809758096933365,-0.07303030788898468,0.053062912076711655,-0.15875868499279022,0.2185533046722412,-0.2464996725320816,-0.31697139143943787,0.14933037757873535,0.0654059424996376,0.3104698359966278,0.0810195729136467,-0.4864861071109772,-0.05274996533989906,0.2965262830257416,0.35682249069213867,0.0601678192615509,-0.15050622820854187,-0.18196317553520203,0.06272681057453156,-0.3135567307472229,-0.2095491588115692,0.30082273483276367,-0.12665027379989624,-0.12014084309339523,-0.04103966802358627,0.12267329543828964,0.44123706221580505,-0.024451229721307755,-0.35516902804374695,0.2072831690311432,0.13585157692432404,0.18261964619159698,0.5707141160964966,0.2635550796985626,0.024122746661305428,-0.02810574136674404,-0.2588822841644287,-0.09290965646505356,-0.07221388816833496,0.07441332191228867,-0.04090379178524017,0.029646556824445724,-0.37693944573402405,0.10014686733484268,-0.5342970490455627,-0.13050194084644318,0.2445107251405716,0.480818510055542,0.5843743681907654,-0.09660247713327408,0.26409912109375,-0.26393255591392517,-0.14697259664535522,0.1792811155319214,0.021707504987716675,-0.021562499925494194,-0.17139600217342377,0.18397770822048187,-0.014487841166555882,0.16735272109508514,0.1317453384399414,-0.13211698830127716,-0.13229894638061523,0.31951671838760376,0.2887161374092102,0.14617738127708435,0.26766398549079895,-0.02155633457005024,-0.07659205049276352,0.11665621399879456,0.3287900388240814,-0.227356418967247,0.017314497381448746,0.20382286608219147,-0.09581941366195679,0.16481876373291016,0.044964276254177094,0.02741898037493229,0.293330579996109,-0.07745884358882904,-0.08903674781322479,0.17999811470508575,-0.06228166073560715,0.10342913866043091,-0.00009626472456147894,0.0037414091639220715,-0.1841656118631363,-0.0023029495496302843,-0.03071548044681549,-0.09686535596847534,0.28424403071403503,0.02277766726911068,0.2831503450870514,-0.08506429940462112,0.08317648619413376,-0.4381338059902191,-0.041719160974025726,0.06641245633363724,0.4444941282272339,0.0373677983880043,-0.00017026392742991447,0.20912083983421326,-0.29101911187171936,0.04821590706706047,-0.13682781159877777,0.07950299233198166,-0.3264239430427551,-0.39746174216270447,-0.23442266881465912,0.28609970211982727,0.13257041573524475,-0.2904002070426941,0.19246965646743774,0.18859261274337769,0.16850464046001434,0.0871734693646431,0.07616065442562103,0.2626248896121979,-0.16735242307186127,0.010092630051076412,0.3593581020832062,0.052176155149936676,-0.10744357854127884,0.13895320892333984,-0.1603105068206787,-0.23623356223106384,-0.17450843751430511,0.3552822172641754,-0.12747825682163239,-0.059178661555051804,0.20949308574199677,0.10927052050828934,0.1871500313282013,0.04615616425871849,-0.004007205367088318,0.1501496434211731,-0.057395510375499725,-0.20372618734836578,-0.2500406801700592,0.13620918989181519,-0.08123606443405151,-0.07623036950826645,-0.08154962211847305,0.2772579491138458,-0.5117579102516174,0.12172406166791916,0.462714284658432,-0.008762456476688385,0.19272160530090332,-0.18996495008468628,0.1361660212278366,0.10872643440961838,-0.021083923056721687,0.06981613487005234,-0.011736164800822735,-0.2527416944503784,-0.0003448141796980053,0.14414989948272705,0.12303213030099869,-0.3585090935230255,0.23785732686519623,-0.07720201462507248,-0.12895196676254272,-0.12489752471446991,0.26011157035827637,-0.08733243495225906,-0.24376650154590607,-0.3469707667827606,0.6570037603378296,-0.23745349049568176,-0.22872108221054077,0.14758902788162231,-0.0933307558298111,0.33929312229156494,-0.06933405995368958,0.0017652964452281594,0.3762909471988678,-0.14516671001911163,0.1273595541715622,0.4847556948661804,0.051084551960229874,0.2456524521112442,-0.017475515604019165,0.17368336021900177,-0.055792637169361115,-0.06434846669435501,0.16028034687042236,-0.09559804201126099,-0.09064468741416931,0.0468238890171051,-0.29982173442840576,-0.12723110616207123,0.10576752573251724,-0.18844252824783325,-0.1271115094423294,-0.13926373422145844,-0.23408108949661255,0.07013340294361115,-0.21603085100650787,0.1742480844259262,-0.20788627862930298,0.0007338760769926012,0.10368622094392776,-0.13213235139846802,0.4234347343444824,-0.022553008049726486,-0.055647604167461395,0.23107922077178955,-0.010627283714711666,-0.3294762670993805,-0.34567272663116455,-0.03824528679251671,0.12447849661111832,0.18822911381721497,0.16783520579338074,-0.0013269629562273622,0.09964747726917267,0.12080110609531403,-0.1326768547296524,-0.2444256991147995,-0.254747599363327,0.1744590848684311,0.2849298119544983,0.13069504499435425,0.15720970928668976,0.28915679454803467,0.003616855014115572,-0.07995757460594177,-0.25293630361557007,0.1605052649974823,0.10701669752597809,0.0015388736501336098,-0.0627918466925621,-0.049697741866111755,-0.526841402053833,0.1430828720331192,0.11440117657184601,0.00022490938135888427,0.05240849405527115,0.11558018624782562,-0.17389224469661713,0.0006002279696986079,0.3315013647079468,-0.09385735541582108,-0.018773982301354408,0.28961047530174255,0.142783522605896,-0.024064941331744194,-0.01703653484582901,-0.38115277886390686,0.619937539100647,-0.15062452852725983,-0.02702796459197998,0.2583446204662323,0.21487706899642944,0.2539881765842438,-0.1521352380514145,0.0777350664138794,-0.1326100379228592,-0.0607808381319046,-0.08694061636924744,0.3423616290092468,0.37606191635131836,0.1421770304441452,-0.06936543434858322,-0.0029914879705756903,0.15230342745780945,-0.08058688789606094,-0.32419484853744507,0.20607417821884155,0.32387715578079224,0.05459580197930336,-0.07485183328390121,0.07036278396844864,-0.12083804607391357,-0.13895255327224731,-0.0018348675221204758,-0.1699019968509674,-0.2490600049495697,0.4794798195362091,0.4730584919452667,0.5173275470733643,-0.323813259601593,-0.10808442533016205,0.2488010674715042,-0.12362062931060791,0.17436453700065613,0.6413666009902954,-0.22957175970077515,-0.11194689571857452,0.20029520988464355,-0.10139618813991547,0.03279934823513031,0.25356346368789673,-0.1296125203371048,0.33516690135002136,-0.5521416068077087,-0.268616259098053,0.138968363404274,-0.5863295197486877,0.27220579981803894,0.13918913900852203,0.009701847098767757,-0.8290107250213623,0.30111831426620483,0.5193216800689697,-0.4533192217350006,-0.39122581481933594,-0.6108358502388,-0.30259546637535095,-0.16908834874629974,-0.04575932398438454,-0.2582503855228424,-0.21429184079170227,-0.24465662240982056,0.6205366253852844,-0.10630214214324951,-0.5108582973480225,0.19722644984722137,0.3710553050041199,0.8441176414489746,-0.36801719665527344,-0.012734559364616871,-0.2923871576786041,0.05708928406238556,0.09554023295640945,0.37041765451431274,0.2218046933412552,0.1858757585287094,0.18996712565422058,0.021717576310038567,-0.05693773552775383,0.4100458323955536,-0.07446024566888809,0.38928744196891785,-0.19594095647335052,0.03629562631249428,-0.006368931848555803,0.2650519609451294,0.1664031445980072,0.043189506977796555,-0.0034066266380250454,0.04254297912120819,-0.10168865323066711,0.07490113377571106,-0.17418621480464935,-0.2834274470806122,0.26788079738616943,-0.13708819448947906,-0.09273510426282883,-0.27409225702285767,-0.40995919704437256,-0.5040786266326904,0.7955896854400635,0.01127107348293066,-0.12788332998752594,0.8272501230239868,-0.16331443190574646,-0.4690451920032501,0.21075868606567383,-0.38389304280281067,-0.2334669679403305,-0.15470992028713226,0.23290926218032837,0.5433287024497986,-0.5181666016578674,0.1916484832763672,0.016491947695612907,-0.24152514338493347,-0.05452940613031387,-0.038128167390823364,-0.08359822630882263,0.004192587453871965,0.047000546008348465,-0.09712591022253036,-0.014524918980896473,0.07434814423322678,-0.7949123978614807,-0.07056773453950882,-0.11707501113414764,0.2795037627220154,0.05951042100787163,-0.010931530967354774,-0.17806921899318695,0.06470945477485657,-0.07365776598453522,-0.31443148851394653,-0.09500594437122345,0.08964604884386063,-0.3427431881427765,0.006446429528295994,0.017035314813256264,0.22448088228702545,0.14208942651748657,-0.2608376145362854,-0.04729130491614342,0.06257323920726776,0.29213157296180725,0.13254772126674652,-0.32064682245254517,-0.08092276006937027,0.605995774269104,-0.0322391577064991,-0.1493806689977646,0.30441245436668396,0.014734677970409393,0.0654931291937828,0.13789847493171692,0.12547747790813446,-0.15579983592033386,0.24552328884601593,0.13516166806221008,-0.011861282400786877,-0.09187909215688705,0.0722867026925087,0.037210892885923386,0.6513937711715698,0.07958505302667618,-0.03675543889403343,0.5626267194747925,-0.23022931814193726,-0.1094934418797493,0.37496399879455566,-0.11819598823785782,-0.053956788033246994,0.6465854644775391,0.25697803497314453,0.07815248519182205,0.16011624038219452,0.473718523979187,0.030581381171941757,0.08729641884565353,-0.10452117770910263,-0.06540152430534363,-0.2957642674446106,-0.040531255304813385,-0.27520594000816345,0.6917216181755066,0.18227334320545197,-0.020173268392682076,0.3991093039512634,-0.05488455668091774,-0.0343657061457634,0.20337747037410736,-0.2941528260707855,0.11217539012432098,-0.10971898585557938,-0.6298272609710693,-0.26774609088897705,0.7939032912254333,0.054997727274894714,0.11380977183580399,0.16288705170154572,0.3645815849304199,0.015053452923893929,0.05436776950955391,0.2530052363872528,0.2869766056537628,0.012295389547944069,0.7836800813674927,0.391061931848526,-0.7243212461471558,-0.0382421538233757,-0.08936076611280441,-0.28446319699287415,0.023079831153154373,0.14659251272678375,0.23534174263477325,0.2542855441570282,0.11397230625152588,0.4764723479747772,-0.17671868205070496,-0.12551158666610718,0.45720934867858887,-0.21891088783740997,-0.45008474588394165,0.18391942977905273,-0.02436675690114498,-0.2980286777019501,-0.5503794550895691,0.07771120965480804,-0.1766931563615799,-0.06709730625152588,-0.40665966272354126,-0.6606513857841492,0.07747003436088562,-0.12877751886844635,0.31119030714035034,0.13828781247138977,0.17644524574279785,0.025874165818095207,0.04650668427348137,0.3759954571723938,-0.01501768734306097,-0.26459625363349915,-0.12690050899982452,-0.6602175831794739,0.5706291794776917,-0.026570698246359825,-0.15853559970855713,-0.39335811138153076,0.4581044018268585,-0.14872382581233978,-0.02788894809782505,0.331994891166687,-0.09920472651720047,-0.21864937245845795,-0.06698048859834671,0.16074085235595703,-0.13985894620418549,-0.2716076672077179,0.10343954712152481,0.10083270817995071,0.03864215686917305,-0.02487807348370552,-0.08936430513858795,0.2846970558166504,0.5228211879730225,-0.21900872886180878,-0.08189816772937775,-0.2261028289794922,-0.0749368667602539,0.1956886500120163,0.7700651288032532,-0.28970450162887573,-0.16453970968723297,0.4844716489315033,0.08285776525735855,0.43602654337882996,-0.2342349737882614,0.49150606989860535,-0.16180294752120972,0.041842345148324966,-0.2230493128299713,-0.05216898396611214,-0.062085799872875214,-0.16601145267486572,0.5458301305770874,-0.3865489661693573,-0.18116290867328644,0.009645976126194,-0.030174866318702698,0.40559494495391846,0.23515081405639648,0.45793724060058594,-0.5835029482841492,0.2591140568256378,-0.5027753114700317,-0.13523413240909576,0.3460630178451538,-0.21944552659988403,-0.22649268805980682,0.338932067155838,0.1773284375667572,-0.17509225010871887,-0.25137725472450256,0.1958978921175003,0.2641056776046753,0.0025933715514838696,0.04967399314045906,-0.21820683777332306,0.08942923694849014,-0.018917327746748924,0.3463204801082611,0.01302607636898756,-0.08458150923252106,-0.21836155652999878,0.016429970040917397,0.3066958785057068,-0.012374455109238625,0.040278445929288864,-0.03820979967713356,-0.11346156150102615,-0.2077590823173523,-0.15963482856750488,-0.2150801122188568,0.006807480938732624,0.014844046905636787,0.4388743042945862,-0.15178868174552917,0.025706065818667412,-0.3791160583496094,-0.16679035127162933,0.07966341078281403,0.20666879415512085,-0.008920082822442055,0.13582397997379303,0.22747866809368134,-0.014405499212443829,0.06451276689767838,0.028495965525507927,-0.5198311805725098,-0.17258889973163605,0.39928025007247925,0.08990251272916794,-0.052361708134412766,0.18840354681015015,0.27580946683883667,-0.10479964315891266,-0.17530976235866547,0.06488300114870071,-0.08146750181913376,0.15416549146175385,0.3202957808971405,0.2869795560836792,0.11439426988363266,-0.062309954315423965,0.10329385101795197,0.05653541907668114,-0.07463420182466507,-0.029082970693707466,-0.5283597707748413,0.15441595017910004,0.13724391162395477,0.45611461997032166,0.21969516575336456,-0.11189094930887222,0.08831021189689636,-0.2467038482427597,-0.1980958729982376,-0.19770781695842743,-0.1695028394460678,0.13600534200668335,-0.22624868154525757,0.10188527405261993,0.012082317844033241,-0.013130778446793556,-0.15368111431598663,-0.05190449580550194,0.2983953654766083,-0.2004118263721466,-0.1061260774731636,-0.22359180450439453,-0.009161953814327717,-0.09174373745918274,0.2765769064426422,0.4348105490207672,0.06454858928918839,0.10129167139530182,-0.5225772857666016,-0.20872654020786285,0.7493282556533813,-0.22234494984149933,0.020621396601200104,-0.273998498916626,0.11664203554391861,-0.07935010641813278,-0.0030366277787834406,0.030574265867471695,-0.15405626595020294,-0.14499562978744507,0.06693565100431442,-0.08353129029273987,-0.6255304217338562,0.10489585995674133,-0.09792614728212357,0.16830062866210938,-0.09304958581924438,0.06610572338104248,0.32686927914619446,0.001152296899817884,-0.4204281270503998,-0.6049617528915405,-0.09777683019638062,0.24860996007919312,-0.4125604033470154,-0.4142189025878906,-0.19290609657764435,-0.5324558615684509,0.26680490374565125,0.12067922949790955,-0.4875167906284332,0.16639287769794464,0.23158562183380127,0.23968999087810516,0.19042053818702698,0.4656374156475067,-0.0952601432800293,0.11050952225923538,0.05450039356946945,-0.5931565165519714,0.1715576946735382,-0.12445500493049622,0.045763254165649414,-0.3537938892841339,-0.10016753524541855,0.2572175860404968,0.6988250017166138,0.17805349826812744,-0.9421918392181396,-0.0961502343416214,-0.1259431391954422,0.5859830975532532,-0.5404539108276367,0.03717779740691185,0.4064423441886902,-0.2990783154964447,-0.06754361838102341,0.6151502132415771,-0.45939508080482483,-0.2645016014575958,0.322510689496994,0.47047996520996094,-0.06309475004673004,0.02560119517147541,0.2929469347000122,-0.16048838198184967,0.18184494972229004,0.44506534934043884,0.5519751906394958,-0.803864598274231,0.3321201503276825,-0.4886046350002289,0.06656194478273392,0.0479283407330513,0.32357993721961975,-0.10666068643331528,0.029445147141814232,-0.5451743006706238,-1.0576770305633545,-0.005885180085897446,-1.0061997175216675,0.5693416595458984,-0.06816381216049194,-0.14139536023139954,0.8067840337753296,0.3367983102798462,0.16522859036922455,-0.05869962275028229,0.7688145041465759,-0.32272958755493164,0.3643130660057068,0.06724894046783447,0.01931864395737648,-0.16204683482646942,-0.25250717997550964,0.487597793340683,-0.34783557057380676,0.12525737285614014,-1.6116083860397339,1.6303991079330444,-0.3431991934776306,0.08009917289018631,0.5604813098907471,-0.013597051613032818,0.7185011506080627,-0.6585338115692139,-0.04315675050020218,-0.14602810144424438,-0.44946739077568054,-0.15689988434314728,0.3214104473590851,-0.6289815306663513,0.22759146988391876,-0.739083468914032,0.37828463315963745,0.027613773941993713,-0.6882156133651733,-0.6497126221656799,-0.25970029830932617,-0.10023542493581772,0.4913082718849182,0.051571447402238846,0.2251380831003189,0.5402799844741821,-0.18099366128444672,-0.19235025346279144,-0.21883060038089752,0.1727253943681717,-0.04528513550758362,-0.16618970036506653,0.0660950168967247,-0.051698822528123856,-0.5952216386795044,-0.2672724723815918,-0.04113975167274475,0.6297468543052673,-0.013304016552865505,0.33856308460235596,0.09086393564939499,0.028760241344571114,-0.12441682070493698,-0.21528495848178864,-0.5857720971107483,0.20812365412712097,0.2832878530025482,0.1527242362499237,0.2976100444793701,0.2581913471221924,0.14255979657173157,0.020960431545972824,-0.07617796957492828,-0.11629795283079147,0.47420135140419006,-0.2633684575557709,0.15383924543857574,0.3189678192138672,-0.05615503713488579,-0.06879007816314697,-0.1648598313331604,-0.11666510999202728,0.12302585691213608,0.08657442033290863,0.59026700258255,-0.22449059784412384,0.11539037525653839,-0.10041133314371109,-0.3035035729408264,-0.12960341572761536,0.04760728031396866,0.19985228776931763,-0.020153772085905075,0.26898595690727234,0.20093947649002075,0.6939277648925781,-0.6611451506614685,0.21645097434520721,-0.4686588644981384,-0.0653267651796341,-0.2755553722381592,0.001433537807315588,0.036509931087493896,-0.16305893659591675,0.055004045367240906,-0.4048733115196228,0.010885254479944706,-0.36300981044769287,-0.3544112741947174,0.1772327721118927,0.20612101256847382,-0.3817287087440491,-0.42532581090927124,0.349591463804245,0.18493936955928802,0.43689730763435364,-1.1797345876693726,-0.32158151268959045,-0.059254370629787445,0.1887136697769165,-0.25701242685317993,-0.10658927261829376,0.24473221600055695,-0.4093758165836334,0.4438656270503998,-0.19378606975078583,-0.15212710201740265,-0.006204952951520681,0.36860042810440063,-0.1497078835964203,0.19709831476211548,-0.662508487701416,-0.002539603505283594,0.04667572304606438,0.2424248903989792,-0.2393558919429779,-0.035591039806604385,-0.29508650302886963,-0.5447766184806824,0.18065859377384186,0.3443826138973236,0.4968792200088501,-0.2022945135831833,-0.22314122319221497,-0.09230358898639679,-0.0629790723323822,0.004310439806431532,0.028069444000720978,-0.19159244000911713,-0.23846745491027832,-0.10719690471887589,0.09518159180879593,0.12322260439395905,-0.4966176450252533,0.16979610919952393,0.5291433334350586,0.3636353611946106,-0.09352748841047287,-0.06065675616264343,0.15125982463359833,-0.6611111760139465,0.3426898419857025,0.35905516147613525,-0.1429566591978073,0.08736968040466309,0.2135249674320221,0.08414001762866974,0.7908707857131958,0.44270122051239014,0.4043992757797241,0.7772677540779114,0.9168223142623901,0.4610745906829834,0.26165398955345154,-0.15573793649673462,0.058903325349092484,-0.2519231140613556,-0.29333600401878357,0.03438469395041466,0.20885337889194489,-0.525398850440979,0.2455691546201706,-0.04776487126946449,0.24384890496730804,-0.49066421389579773,0.022548209875822067,-0.6493802070617676,-0.13139043748378754,-0.07028196007013321,-0.47693875432014465,-1.0532599687576294,-0.6252404451370239,-0.12191648781299591,0.10926225036382675,0.4098040461540222,-0.5010220408439636,0.4288329482078552,-0.2322685718536377,0.10812738537788391,-0.38094624876976013,0.3419857919216156,-0.18694160878658295,-0.4749169647693634,0.42643046379089355,-0.114582858979702,-0.23874029517173767,-0.13642153143882751,-0.23485741019248962,0.13527870178222656,-0.5353580713272095,0.3673446476459503,0.5781763195991516,1.4432801008224487,-0.22978055477142334,-0.24254430830478668,0.40298762917518616,-0.3777238428592682,-0.4177667200565338,-0.2755381762981415,0.1490946263074875,-0.27814024686813354,0.2244769036769867,-0.1522284299135208,-0.4606993794441223,-0.5910748243331909,0.21506033837795258,-0.21073198318481445,0.6309334635734558,-0.6993818879127502,0.06955891102552414,-0.07834049314260483,0.013752616010606289,-0.15773582458496094,-0.05871238186955452,0.08513569831848145,-0.06683289259672165,0.14420373737812042,0.0031660902313888073,-0.08198104798793793,0.06769659370183945,0.11038196831941605,0.03436514735221863,-0.0915847048163414,-0.3078310787677765,0.001245950348675251,0.033422525972127914,0.13083569705486298,0.013409849256277084,0.11903972923755646,-0.07574261724948883,0.007194189820438623,0.16037051379680634,-0.12975673377513885,-0.13575610518455505,-0.09471868723630905,0.5667466521263123,0.35764825344085693,0.4870719611644745,-0.7283252477645874,0.12333834916353226,-0.1746414750814438,-0.3662046492099762,-0.0680939331650734,0.002599627012386918,0.3028889000415802,-0.13145776093006134,0.19939057528972626,0.14050626754760742,-0.2876124083995819,-0.055310387164354324,0.4401225447654724,-0.013591771945357323,0.13432171940803528,0.29717981815338135,-0.0048132166266441345,0.12052065879106522,0.04802096262574196,-0.033787742257118225,0.2924630045890808,0.43605393171310425,0.02775658294558525,-0.18365369737148285,0.09960499405860901,0.049187202006578445,0.043269988149404526,0.1298716962337494,0.46298691630363464,0.163035050034523,-0.1684025377035141,-0.04111665114760399,0.08096852153539658,0.04690933972597122,-0.2565186023712158,0.11447355151176453,0.17898105084896088,0.2148762345314026,0.1076355129480362,0.7247306108474731,-0.08101940155029297,0.3133448660373688,0.07083017379045486,0.0518140010535717,0.14791712164878845,0.28187814354896545,-0.8282271027565002,-0.12080741673707962,1.0269972085952759,-0.21643218398094177,-0.27530932426452637,-0.9004822969436646,0.13991737365722656,-0.07919793576002121,0.2535996437072754,0.23432984948158264,0.16990500688552856,0.11316066980361938,0.5554438829421997,-0.12002068012952805,0.31089314818382263,0.14836947619915009,0.15416854619979858,-0.08178777992725372,0.1586986631155014,0.12401169538497925,0.010006701573729515,0.3159380853176117,0.06372565776109695,0.0786314383149147,0.08713583648204803,1.7076493501663208,0.07693859189748764,-0.058745771646499634,0.016310030594468117,0.11342556774616241,-0.26956528425216675,-0.015890134498476982,-0.008670042268931866,0.4602425694465637,-0.28663745522499084,0.030940931290388107,0.40089139342308044,0.32235246896743774,-0.4421323835849762,0.23498238623142242,-0.0011381885269656777,-0.11406022310256958,0.46286675333976746,0.862087070941925,-0.14460265636444092,0.40663620829582214,0.5466099381446838,-0.11061760783195496,0.3799707591533661,-0.7043977975845337,-0.674192488193512,-0.27414605021476746,0.0824979767203331,0.15431661903858185,0.00654884846881032,0.16202287375926971,-0.4860559403896332,0.10397538542747498,-0.21957087516784668,-0.046010665595531464,-0.5109097957611084,0.1778414398431778,0.1186157837510109,0.21969303488731384,0.01754678040742874,-0.07286448776721954,-0.04704032093286514,0.16511490941047668,0.2956041991710663,-0.20216697454452515,-0.16883400082588196,-0.034459564834833145,-0.19187389314174652,-0.2423410415649414,0.061096712946891785,0.11841801553964615,-0.04755966737866402,0.02421821653842926,0.07075132429599762,-0.025849636644124985,0.02112150937318802,-0.24191783368587494,0.19513262808322906,-0.017899828031659126,0.289617657661438,-0.19340848922729492,-0.3533421754837036,-0.13110169768333435,-0.22899341583251953,-0.17447644472122192,-0.21821296215057373,-0.02169101871550083,0.03301139920949936,0.12421020865440369,-0.4560154676437378,-0.14526087045669556,-0.5204728841781616,-0.12432797253131866,0.2409226894378662,0.09628786891698837,-0.020594676956534386,-0.198664590716362,0.15708746016025543,-0.23541830480098724,-0.03745487704873085,-0.014344718307256699,0.21512742340564728,0.16786670684814453,0.31528928875923157,-0.06570272892713547,0.10977651923894882,0.01874198392033577,0.29131942987442017,-0.19066902995109558,0.27061372995376587,-0.16788603365421295,-0.11270375549793243,-0.07678084820508957,-0.19568867981433868,-0.048181429505348206,0.08915600925683975,0.352514386177063,0.0679023489356041,0.12996616959571838,0.09408262372016907,0.09677104651927948,0.06465844064950943,0.09068971872329712,0.1213342696428299,-0.08858557790517807,0.04771606996655464,-0.2231360375881195,0.007554478477686644,-0.07518753409385681,0.10097438842058182,-0.12522940337657928,0.08823581039905548,-0.14752089977264404,-0.011098361574113369,0.18558597564697266,0.0033752345480024815,-0.03181005269289017,-0.01884877122938633,0.24546663463115692,0.0669093057513237,0.015970174223184586,-0.04585370421409607,-0.3058414161205292,-0.08738795667886734,0.09548332542181015,0.20053911209106445,-0.19946110248565674,-0.25381165742874146,-0.21352316439151764,0.025912245735526085,0.14299799501895905,0.1294867992401123,-0.0039321621879935265,-0.031726058572530746,-0.037935610860586166,0.28251591324806213,0.24925297498703003,-0.008107822388410568,0.2901386320590973,-0.42562487721443176,-0.15120740234851837,-0.34113043546676636,-0.10594578832387924,0.29343754053115845,0.4369172155857086,0.12605230510234833,-0.01512067299336195,0.5284366607666016,0.18007303774356842,0.05690378695726395,0.21929357945919037,0.17273442447185516,-0.14575445652008057,0.050493281334638596,0.2070315182209015,-0.06932564824819565,-0.10843104869127274,0.11368364095687866,-0.06611282378435135,-0.21664349734783173,0.2858828902244568,-0.03285704553127289,-0.15364687144756317,-0.41759833693504333,-0.06993947178125381,0.02757181040942669,-0.08050962537527084,-0.10952193289995193,-0.08415762335062027,0.08370024710893631,-0.1618717908859253,-0.03897319361567497,0.09322512149810791,0.031023580580949783,0.29989784955978394,0.2141600102186203,0.10199170559644699,-0.16009414196014404,-0.02791479602456093,0.2270878702402115,-0.1388315111398697,0.027102747932076454,-0.03411237150430679,-0.056058358401060104,0.03797216713428497,-0.004762271419167519,0.34689944982528687,0.2260293960571289,-0.2794030010700226,-0.2194007784128189,-0.03851296380162239,-0.2524547576904297,-0.19459109008312225,0.15386375784873962,-0.023835409432649612,-0.1032324731349945,0.36150771379470825,0.3262089788913727,-0.1206231415271759,0.2259342223405838,-0.16335643827915192,-0.3097552955150604,0.19708101451396942,-0.26139625906944275,0.0880817100405693,0.0431901253759861,-0.30527740716934204,-0.31706899404525757,-0.23452633619308472,0.13757897913455963,-0.05054943263530731,-0.2692546546459198,-0.34854403138160706,-0.031066520139575005,-0.011732934974133968,-0.05594075471162796,0.05349374935030937,0.0734456479549408,0.35036394000053406,0.11157261580228806,-0.03995184972882271,0.0905919000506401,0.3460560441017151,0.07966329902410507,-0.05909411236643791,-0.10143541544675827,0.031041081994771957,-0.2184760421514511,-0.011059542186558247,0.06553295999765396,0.13686217367649078,0.13070593774318695,-0.28727078437805176,0.06022492051124573,-0.02315390296280384,-0.12786656618118286,-0.2939342260360718,0.11052186787128448,0.1303064376115799,0.4514065682888031,-0.4779166877269745,-0.21093156933784485,-0.23394499719142914,0.09087889641523361,-0.1026739850640297,0.1276901811361313,0.028211532160639763,-0.056409917771816254,-0.1047849953174591,0.13182736933231354,-0.0755191370844841,-0.08032233268022537,-0.08820953220129013,0.051970262080430984,0.2214602679014206,0.25852155685424805,0.33778977394104004,-0.030027886852622032,0.4431507885456085,0.46372997760772705,-0.039827100932598114,-0.029450636357069016,-0.21420973539352417,-0.04648200795054436,0.0398918017745018,0.04419376328587532,-0.16615864634513855,0.1273435354232788,-0.0029257519636303186,0.29263609647750854,-0.15557385981082916,-0.049577537924051285,-0.20140595734119415,0.18424877524375916,0.006227692123502493,-0.4623012840747833,-0.024041226133704185,0.02237606793642044,-0.28611546754837036,-0.05847166106104851,0.0460907444357872,0.14736510813236237,-0.10393565148115158,0.14553460478782654,-0.17399175465106964,0.3855489194393158,0.2421949952840805,0.3145202696323395,-0.22875173389911652,0.19668489694595337,0.2349952906370163,-0.2729530334472656,-0.1285688281059265,-0.1973869353532791,0.3739508390426636,0.20903019607067108,0.24874554574489594,0.635910153388977,-0.3681589365005493,0.14885756373405457,-0.12676647305488586,0.07607658952474594,-0.08728067576885223,-0.09285909682512283,0.13253344595432281,0.04641183465719223,-0.028161410242319107,0.09761549532413483,-0.4236892759799957,-0.16185630857944489,0.11570556461811066,-0.20684091746807098,-0.021190207451581955,-0.054052118211984634,-0.14434906840324402,0.0007076709298416972,-0.1693124622106552,-0.07590555399656296,-0.06451932340860367,0.19947324693202972,-0.45323842763900757,-0.13100609183311462,-0.10866714268922806,-0.03777497634291649,0.04509970173239708,-0.3538176715373993,0.2726336717605591,0.5597119331359863,0.3388107717037201,-0.5317647457122803,0.07352732867002487,0.19515682756900787,-0.3937453031539917,-0.19426299631595612,-0.04104822501540184,0.45855799317359924,-0.26946336030960083,-0.21942874789237976,0.14940616488456726,-0.2833998203277588,-0.2992107570171356,0.7969896793365479,-0.18509238958358765,-0.08371205627918243,0.5166005492210388,0.004158550873398781,-0.13073943555355072,0.03199366107583046,-0.2943723797798157,0.4562532901763916,-0.16924716532230377,-0.06782395392656326,-0.7231977581977844,0.5619117617607117,-0.14512410759925842,-0.715317964553833,-0.026188421994447708,0.2818095088005066,-0.6454570293426514,-0.09727092832326889,0.2510709762573242,-0.018420027568936348,0.0497715137898922,0.6744460463523865,-0.28810450434684753,-0.14139732718467712,-0.11676548421382904,0.048707328736782074,-0.6398144960403442,-0.5453822016716003,0.2987220883369446,-0.14097179472446442,-0.21380284428596497,-0.16133993864059448,0.9826542735099792,0.2554737627506256,0.5217819809913635,-0.6532041430473328,0.01949102059006691,-0.38209182024002075,0.9588063955307007,-0.23702123761177063,0.41125956177711487,-0.06374676525592804,-0.5920040607452393,-0.35181134939193726,0.17632858455181122,0.09757908433675766,-1.0084986686706543,0.246455579996109,0.22985181212425232,-0.016632502898573875,-0.3253459632396698,0.3552555441856384,-0.03588717803359032,-0.22137987613677979,-0.02685634046792984,-0.13788652420043945,-0.2572276294231415,0.06189219653606415,0.2598843276500702,0.14371562004089355,0.02600836753845215,0.12542399764060974,0.13054963946342468,0.046787749975919724,-0.2177438884973526,0.018935251981019974,-0.047500886023044586,0.03014271706342697,-0.5129111409187317,0.10845741629600525,-0.39066800475120544,-0.359822154045105,-0.06454095989465714,0.13017408549785614,0.02482985146343708,-0.07507207244634628,0.0679330974817276,-0.3543621301651001,0.06218145787715912,-0.1899818778038025,-0.35924118757247925,0.45582643151283264,0.06452210992574692,-0.7157033681869507,0.12504054605960846,0.1842779815196991,0.2512775659561157,-0.12647034227848053,-0.059433888643980026,-0.27949827909469604,-0.17489776015281677,-0.13909082114696503,-0.9887883067131042,-0.23466423153877258,-0.029625091701745987,0.14452508091926575,-0.10989940166473389,-0.07088901847600937,-0.45245426893234253,-0.007626361213624477,-0.20887033641338348,-0.11299393326044083,0.1451272964477539,0.22395308315753937,0.3388761579990387,-0.03591727837920189,-0.36802223324775696,-0.13941690325737,-0.13939860463142395,0.14307901263237,-0.22769202291965485,-0.0551469549536705,0.37754881381988525,-0.345579594373703,-0.07197500020265579,0.24501438438892365,0.18293538689613342,0.36438557505607605,0.33593711256980896,0.6000839471817017,-0.09900052845478058,-0.26647430658340454,-0.11763378232717514,-0.08246093988418579,0.19641909003257751,0.3414722681045532,0.041440632194280624,-0.11542140692472458,-0.8780199289321899,-0.5084307193756104,0.24151040613651276,0.5309093594551086,-0.19234806299209595,0.11634578555822372,-0.5575045943260193,-0.17253808677196503,-0.29318055510520935,0.6570301651954651,-0.18139062821865082,0.06992562860250473,0.315766841173172,0.10728299617767334,-0.22358974814414978,-0.262752890586853,0.26041364669799805,0.12062758952379227,0.22728540003299713,-0.04695058614015579,0.2382153570652008,0.3810044229030609,-0.04402918741106987,0.3542446494102478,0.666351318359375,0.16509318351745605,0.21998770534992218,0.2773360013961792,0.0862102061510086,0.049201153218746185,0.3705957233905792,-0.1299249827861786,-0.1483367532491684,-0.27384716272354126,0.060333531349897385,-0.1368892341852188,0.07904265820980072,-0.4177212417125702,0.4148189127445221,-0.03607247397303581,-0.05068838596343994,0.034835800528526306,-0.434688001871109,0.10061565041542053,-0.11616165935993195,-0.010864521376788616,0.05017116293311119,0.3071913421154022,0.49437209963798523,0.40395939350128174,-0.14164671301841736,-0.3137310743331909,0.2307179719209671,0.027929862961173058,0.5605067610740662,0.10605443269014359,0.33347687125205994,-0.17747344076633453,-0.02780895121395588,-0.035611413419246674,0.2863118052482605,-0.16265709698200226,-0.257285475730896,0.4461556375026703,-0.14600755274295807,-0.18123507499694824,0.012642327696084976,-0.2941950261592865,-0.31310850381851196,0.7019386887550354,-0.06841109693050385,0.14877058565616608,0.15025915205478668,-0.33907550573349,0.2821830213069916,0.1263839155435562,-0.2979327440261841,-0.7347186803817749,0.3007490932941437,-0.11255751550197601,0.20648425817489624,0.3134574592113495,-0.11150573939085007,-0.30809587240219116,0.6300578117370605,-0.37667253613471985,-0.44613954424858093,0.8158948421478271,0.24384313821792603,-0.1511766016483307,0.4852117896080017,0.03892369195818901,0.1004922017455101,0.15592114627361298,-0.012736489996314049,-0.7631831765174866,0.6404461860656738,-0.16940118372440338,0.7398760914802551,-0.5870363116264343,-0.31720539927482605,-1.3489573001861572,1.2495187520980835,-0.46599531173706055,0.7315680384635925,-0.17235518991947174,-0.2796768546104431,0.040074728429317474,0.7311250567436218,0.19678275287151337,-0.670987606048584,0.615382194519043,0.3412843942642212,0.8337200284004211,-1.1611406803131104,0.7641056776046753,-0.0819329097867012,-0.3699522316455841,0.0023967470042407513,-0.10894924402236938,0.16710887849330902,0.17421410977840424,0.27167901396751404,0.43981894850730896,-0.18361957371234894,0.17544859647750854,-0.018218569457530975,-0.12989282608032227,-0.22082850337028503,0.11913709342479706,-0.021671827882528305,0.052324917167425156,-0.6722776889801025,0.14433151483535767,0.26252102851867676,0.2590850293636322,0.024722062051296234,0.1408906728029251,-0.285180926322937,-0.05864263325929642,-0.05393604934215546,-0.11813883483409882,-0.11794610321521759,0.034685131162405014,-0.44948920607566833,-0.271112859249115,0.30093568563461304,0.027934111654758453,-0.07173873484134674,0.1630905419588089,0.2279002070426941,-0.07521437108516693,-0.38908740878105164,-0.3490697145462036,-0.10792101174592972,-0.3286115229129791,0.22544457018375397,0.19647222757339478,-0.08031725883483887,0.41253766417503357,0.1479228436946869,-0.07326196879148483,-0.2554086446762085,-0.2008867710828781,-0.04695430025458336,-0.28041842579841614,0.3692702353000641,0.01196987833827734,0.018875867128372192,0.31475695967674255,-0.03640631586313248,0.14797258377075195,0.08841247856616974,0.4049738645553589,-0.09753791242837906,-0.21731692552566528,-0.25211042165756226,-0.44407856464385986,-0.024309076368808746,-0.1308133751153946,0.04368305206298828,-0.4144825339317322,0.34870266914367676,0.04764119163155556,-0.24457842111587524,-0.11803023517131805,-0.2997095286846161,0.16883382201194763,-0.2020171731710434,-0.32407572865486145,0.14051872491836548,-0.08444418013095856,0.31353136897087097,0.11493133753538132,-0.3485281467437744,0.06227510794997215,0.20178955793380737,0.9297535419464111,-0.05148183926939964,0.31824496388435364,0.1980847269296646,-0.4734093248844147,0.03627359867095947,-0.2623001039028168,-0.43674877285957336,-0.373283714056015,-0.09892774373292923,-0.18639631569385529,-0.3197246193885803,-0.38218340277671814,0.13861750066280365,-0.2566768229007721,0.04354175180196762,0.5119722485542297,-0.023783903568983078,-0.0989108607172966,-0.09779679030179977,0.2540406286716461,0.3361680507659912,0.060099922120571136,0.0563359409570694,-0.16766178607940674,0.09955042600631714,0.017391858622431755,-0.2787158191204071,0.010189061053097248,-0.09746499359607697,-0.2781900465488434,-0.26016783714294434,-0.08304522186517715,-0.42823490500450134,-0.6167892813682556,0.251481831073761,0.36509832739830017,-0.1331150382757187,-0.04934080317616463,-0.21894147992134094,-0.19127777218818665,0.08143986761569977,-0.0032780517358332872,-0.02925061620771885,0.30583590269088745,-0.8354181051254272,0.5392524003982544,0.039061546325683594,-0.05712223798036575,0.36276909708976746,0.021239977329969406,0.017129382118582726,0.19044946134090424,0.12312176078557968,-0.2733857333660126,-0.14864414930343628,-0.039736177772283554,0.4546475112438202,-0.05235213786363602,-0.2723100483417511,0.039032429456710815,-0.019811030477285385,0.0032478051725775003,-0.23292359709739685,-0.1141703650355339,0.039725519716739655,0.08402455598115921,0.039560724049806595,-0.11443819105625153,0.08578260987997055,-0.21719911694526672,0.18354757130146027,0.0971420556306839,-0.09203580021858215,0.11883348226547241,-0.12244541198015213,-0.516510546207428,0.10301976650953293,0.033237554132938385,0.0012737803626805544,0.029087919741868973,0.0003799903206527233,0.11040793359279633,-0.08859075605869293,-0.03426035866141319,-0.1792505979537964,0.009983710013329983,0.13915254175662994,-0.21784697473049164,-0.10994405299425125,0.31774938106536865,0.23213650286197662,0.2771182358264923,-0.15310809016227722,-0.056512605398893356,0.18040110170841217,0.020505858585238457,-0.057739369571208954,0.12868209183216095,0.14217253029346466,0.1640312224626541,0.07067938894033432,0.2115914523601532,-0.013535856269299984,-0.09173928201198578,0.0578727200627327,-0.19120202958583832,-0.0952916368842125,-0.14007925987243652,0.1432236284017563,-0.010326661169528961,-0.0516589879989624,-0.27645012736320496,-0.04845220223069191,0.11318736523389816,0.0782545655965805,0.06343156099319458,0.3386669456958771,-0.3960384428501129,-0.029452072456479073,-0.23701165616512299,-0.1749681830406189,-0.16130298376083374,-0.4336053431034088,0.1787491887807846,-0.04794042184948921,-0.1038070097565651,0.1542517989873886,0.04663311317563057,-0.16676855087280273,-0.3581937551498413,0.061939820647239685,0.0006584879010915756,0.18044352531433105,-0.017802078276872635,0.1624862551689148,0.13078710436820984,0.14838199317455292,0.1001478061079979,0.17685380578041077,0.3768008053302765,0.29568636417388916,-0.7171990275382996,0.01326605211943388,0.018708182498812675,-0.4985693693161011,-0.19662615656852722,-0.21145808696746826,-0.09606074541807175,-0.03586656600236893,-0.198769211769104,0.5141360759735107,-0.21385541558265686,-0.3838730454444885,-0.16704942286014557,-0.07554369419813156,-0.06996741890907288,-0.02209329605102539,-0.017856910824775696,-0.2855178713798523,0.15494658052921295,0.1759597510099411,-0.35770246386528015,0.10826292634010315,0.38942238688468933,-0.5328851938247681,-0.5855019092559814,0.15892641246318817,0.2912290394306183,-0.3060598373413086,0.20642924308776855,0.016888905316591263,0.23924554884433746,-0.03425634279847145,0.22059032320976257,0.17608895897865295,0.3549751937389374,0.5219542384147644,0.49048930406570435,0.48492538928985596,0.39320558309555054,0.8038325309753418,0.06771724671125412,0.17929519712924957,0.23472101986408234,0.24335169792175293,0.07856477051973343,-0.21790769696235657,-0.6951162219047546,-0.08408170938491821,0.8280458450317383,-0.024124570190906525,0.036176010966300964,