{"version": "0.5.1", "metadata": {"date": {"year": 2023, "month": 7, "day": 9, "hour": 13, "minute": 15, "second": 11}, "loudness": -7.029788017272949, "gain": 0.8288437320950408, "name": "IIC+ 500", "modeled_by": "Sean Ashe", "gear_type": "amp", "gear_make": "Mesa Boogie", "gear_model": "IIC+", "tone_type": "hi_gain"}, "architecture": "WaveNet", "config": {"layers": [{"input_size": 1, "condition_size": 1, "head_size": 8, "channels": 16, "kernel_size": 3, "dilations": [1, 2, 4, 8, 16, 32, 64, 128, 256, 512], "activation": "Tanh", "gated": false, "head_bias": false}, {"input_size": 16, "condition_size": 1, "head_size": 1, "channels": 8, "kernel_size": 3, "dilations": [1, 2, 4, 8, 16, 32, 64, 128, 256, 512], "activation": "Tanh", "gated": false, "head_bias": true}], "head": null, "head_scale": 0.02}, "weights": [-0.13868127763271332, 0.523508608341217, -0.941301167011261, -0.8167787194252014, -0.4586174786090851, 0.31053727865219116, -0.2290305197238922, 0.7644756436347961, -0.17576828598976135, 0.1259968876838684, -0.3015439808368683, -0.2704755961894989, -1.0739920139312744, -0.8117329478263855, -0.6378141045570374, -0.05205909162759781, -0.08698727935552597, 0.4972015917301178, -0.3026270866394043, 0.06631489098072052, -0.3409005403518677, 0.3133663237094879, -0.1692602038383484, 0.5038855671882629, -0.22452615201473236, -0.11658588796854019, 0.5225231051445007, -0.3303493559360504, -0.2194061130285263, 0.36034905910491943, -0.2496834546327591, 0.2593480944633484, -0.4890364408493042, 0.12919628620147705, -0.1959632933139801, 0.27960002422332764, -0.25102531909942627, 0.255474716424942, -0.32672709226608276, 0.26429101824760437, -0.1290142983198166, 0.32933560013771057, -0.1726062297821045, -0.007359277456998825, -0.47961902618408203, 0.1195593774318695, -0.040281202644109726, 0.4738469123840332, -0.2556116580963135, -0.13452588021755219, 0.48595112562179565, -0.051870498806238174, -0.07446067780256271, 0.4124930500984192, -0.09851425141096115, -0.22177089750766754, 0.425748735666275, -0.30971959233283997, -0.23533926904201508, 0.323549747467041, -0.13332562148571014, 0.2506844103336334, -0.4329436123371124, 0.20131328701972961, 0.022391866892576218, 0.10414257645606995, -0.12932953238487244, 0.04327254369854927, -0.08053172379732132, 0.22652369737625122, -0.11854763329029083, 0.12120146304368973, -0.03333093225955963, 0.11239033192396164, 0.29834532737731934, 0.037685904651880264, 0.015568920411169529, 0.043816205114126205, -0.08279930800199509, -0.07392803579568863, -0.29696688055992126, 0.22714602947235107, 0.05885602533817291, -0.009842141531407833, -0.09675139933824539, -0.016993464902043343, -0.1954503357410431, 0.02362118475139141, 0.027048027142882347, 0.06718192249536514, -0.06736734509468079, 0.08343154937028885, -0.057601992040872574, 0.15743771195411682, -0.1593783050775528, 0.06427018344402313, -0.030082453042268753, 0.014620257541537285, 0.05450884625315666, -0.18294170498847961, 0.12937738001346588, 0.27078989148139954, -0.14973513782024384, -0.045634675770998, 0.03509579971432686, -0.09197445213794708, -0.11887965351343155, 0.06142351031303406, -0.1040932685136795, -0.047123976051807404, -0.1806950718164444, -0.009753125719726086, -0.0773591473698616, 0.09552643448114395, 0.17273108661174774, -0.08175954967737198, 0.05148405581712723, -0.0360502153635025, -0.022851120680570602, -0.055259790271520615, 0.10465579479932785, -0.03509648144245148, -0.1603923738002777, 0.11720972508192062, -0.17458029091358185, -0.1675776243209839, 0.020348234102129936, -0.0358031801879406, 0.029491666704416275, -0.17225542664527893, -0.030469531193375587, -0.02216203324496746, -0.00932694785296917, 0.03527512773871422, 0.1927691549062729, -0.06423491984605789, -0.014550989493727684, -0.07262993603944778, 0.11688028275966644, 0.12380356341600418, 0.203263521194458, 0.014805910177528858, 0.10773955285549164, -0.0809716060757637, -0.06623254716396332, -0.1052626371383667, 0.010399889200925827, 0.05847916379570961, -0.11407951265573502, -0.19972360134124756, -0.08895675837993622, -0.16242490708827972, -0.1176595613360405, 0.12497840076684952, 0.034828681498765945, -0.23075127601623535, 0.14653752744197845, -0.09831584244966507, -0.1952744424343109, -0.02910616807639599, 0.09629485756158829, -0.04224298149347305, -0.2864738702774048, -0.27972641587257385, -0.04214431345462799, 0.12850743532180786, 0.09462384879589081, 0.07488903403282166, -0.25879281759262085, 0.1490667462348938, 0.1485554724931717, -0.18850041925907135, 0.2830607295036316, 0.0689607635140419, -0.2677847743034363, -0.060468994081020355, -0.030306413769721985, 0.07091023772954941, 0.24011008441448212, -0.1201447919011116, -0.15024803578853607, -0.18712535500526428, 0.08283308893442154, 0.17037302255630493, 0.2120760679244995, 0.05440237745642662, -0.1949741095304489, -0.17628397047519684, -0.12938345968723297, 0.22760890424251556, 0.25826266407966614, 0.10437093675136566, -0.24592041969299316, 0.16249972581863403, -0.07884284108877182, -0.21538415551185608, 0.07235928624868393, 0.0688311830163002, -0.21436664462089539, 0.15404970943927765, 0.025009552016854286, -0.0354081466794014, 0.05171778425574303, -0.07633375376462936, -0.21786139905452728, -0.00404281634837389, 0.042159553617239, 0.16617774963378906, 0.016970347613096237, 0.1937638819217682, -0.0705631822347641, -0.0410047248005867, -0.19385582208633423, 0.001330244936980307, 0.014189120382070541, 0.2330569177865982, -0.15117673575878143, -0.05958785116672516, 0.33065032958984375, -0.15535631775856018, -0.0012050296645611525, 0.35268786549568176, 0.006698018871247768, -0.0017218959983438253, -0.33035409450531006, 0.11778412759304047, -0.11993485689163208, 0.1543259173631668, -0.10549838095903397, -0.036282673478126526, -0.21083101630210876, 0.15798643231391907, 0.010819151066243649, 0.3243996500968933, 0.013702536933124065, -0.09798341244459152, -0.12914453446865082, -0.03309280797839165, -0.05638417601585388, 0.24145372211933136, -0.0021149299573153257, 0.117092564702034, 0.16468264162540436, -0.04853565990924835, 0.08952752500772476, 0.07397487759590149, 0.06883803009986877, -0.1068417876958847, 0.21628078818321228, -0.060804445296525955, -0.061720989644527435, 0.23479865491390228, 0.07524563372135162, -0.02252345159649849, -0.09521839022636414, 0.050365909934043884, -0.14085650444030762, 0.04084465280175209, 0.08213161677122116, -0.04802865907549858, -0.002876144601032138, -0.02099647745490074, 0.023501543328166008, 0.026797201484441757, 0.161422997713089, -0.10021096467971802, -0.12424007058143616, 0.15148045122623444, 0.07364530861377716, -0.037567708641290665, 0.05028337985277176, -0.024566898122429848, -0.06325149536132812, -0.08677967637777328, -0.08379115164279938, -0.16778971254825592, 0.2875638008117676, -0.04228314757347107, 0.06724585592746735, -0.06769842654466629, -0.02457497827708721, -0.15263570845127106, 0.039042919874191284, 0.1586839109659195, 0.09190640598535538, -0.011307131499052048, -0.08772987872362137, -0.024539191275835037, 0.09118259698152542, -0.050071489065885544, -0.16646219789981842, 0.17314259707927704, -0.005504232365638018, -0.08613602072000504, 0.07334692776203156, -0.13894741237163544, 0.0179505106061697, 0.00012304351548664272, 0.008026170544326305, -0.13306894898414612, 0.04926634579896927, 0.06701415777206421, -0.14499829709529877, -0.00017062699771486223, 0.22508078813552856, -0.3514173626899719, -0.0031318042892962694, -0.08045981824398041, 0.32325172424316406, 0.027579301968216896, 0.024194668978452682, -0.29309824109077454, 0.009042616933584213, 0.08715207874774933, -0.2134268879890442, 0.055871523916721344, 0.07176202535629272, -0.2654739022254944, 0.024620873853564262, -0.13842616975307465, 0.27491241693496704, 0.054735612124204636, 0.06419338285923004, -0.25039446353912354, 0.07573093473911285, -0.010117881931364536, 0.3519066572189331, 0.059569962322711945, 0.23345352709293365, -0.32423511147499084, -0.12709996104240417, -0.2695828676223755, 0.3813678026199341, 0.1011788472533226, 0.05228669196367264, -0.19546784460544586, 0.07656776160001755, 0.2915642559528351, -0.1424485445022583, 0.08363363146781921, 0.10872397571802139, -0.3180616497993469, 0.0748237818479538, 0.2252197116613388, -0.3583449125289917, 0.08558005839586258, 0.21268054842948914, -0.19696280360221863, -0.12487506121397018, -0.07051675021648407, -0.038367148488759995, 0.12603579461574554, -0.38878729939460754, 0.27633997797966003, 0.25798919796943665, 0.4115050435066223, -0.2668150067329407, -0.14479510486125946, -0.4576388895511627, 0.2578258812427521, 0.11667536199092865, -0.4938357472419739, 0.10516053438186646, 0.32933488488197327, -0.27448126673698425, 0.3551974296569824, 0.3322029709815979, 0.2272099405527115, -0.31733769178390503, -0.2355259656906128, -0.4442213475704193, 0.32754188776016235, 0.1547529548406601, 0.2809714674949646, -0.35940611362457275, -0.2952663004398346, -0.23715926706790924, 0.33385685086250305, 0.3113768696784973, 0.4430241584777832, -0.0687522292137146, -0.23269285261631012, -0.2870033085346222, 0.3407042920589447, 0.25834107398986816, -0.2066488265991211, 0.2956237196922302, 0.30654385685920715, -0.4046487808227539, 0.28974318504333496, 0.23162344098091125, -0.39075222611427307, 0.14379483461380005, 0.13425610959529877, -0.46852511167526245, 0.3250793218612671, 0.32012102007865906, 0.0969184935092926, -0.22322115302085876, -0.03071512095630169, 0.020477136597037315, -0.14090846478939056, 0.03815796971321106, 0.24765872955322266, 0.2475810945034027, -0.17305530607700348, 0.020247863605618477, -0.08123666793107986, 0.014380292035639286, -0.0369330532848835, -0.2730107307434082, 0.043424010276794434, 0.009465650655329227, -0.1826561540365219, -0.029518501833081245, 0.0600721538066864, 0.1422789841890335, -0.10383408516645432, -0.07123049348592758, -0.037400051951408386, 0.10356903821229935, 0.028176648542284966, 0.19729052484035492, 0.002970194909721613, -0.027064858004450798, -0.30869653820991516, 0.07192804664373398, 0.0042014047503471375, 0.1203802227973938, -0.02909569814801216, -0.21314316987991333, -0.12793436646461487, 0.19670313596725464, -0.10105110704898834, -0.2843966782093048, 0.025536715984344482, -0.087300144135952, -0.301527738571167, 0.1343551129102707, -0.24673864245414734, -0.3285200595855713, -0.07419078052043915, -0.1457017958164215, -0.09428829699754715, -0.06283082067966461, 0.11840537190437317, -0.05448281764984131, 0.0008985602180473506, 0.018959885463118553, -0.19247755408287048, 0.23618534207344055, 0.11495111137628555, 0.2629736661911011, -0.010161406360566616, -0.1366502195596695, -0.0031904755160212517, 0.09569460153579712, 0.02743278443813324, -0.23921939730644226, 0.04553486779332161, -0.17643773555755615, -0.17590101063251495, 0.12237928062677383, -0.07999300211668015, 0.1590418964624405, -0.015486388467252254, 0.02953282929956913, -0.17380881309509277, 0.00026301428442820907, -0.0034115631133317947, 0.18603748083114624, 0.05511879175901413, 0.06336712092161179, -0.11225856840610504, 0.1720949411392212, -0.105339415371418, -0.015376931056380272, -0.03888334333896637, -0.1113937720656395, -0.032684143632650375, 0.002372978487983346, -0.10372507572174072, -0.2369399517774582, 0.1711614429950714, -0.055434323847293854, -0.012110184878110886, 0.1739622950553894, 0.040885619819164276, -0.11744248121976852, 0.041459377855062485, -0.07103174179792404, -0.10576682537794113, 0.16480350494384766, 0.0027686557732522488, 0.19173204898834229, 0.19045118987560272, -0.23080551624298096, 0.08881501108407974, 0.06489327549934387, 0.294466495513916, -0.24656817317008972, 0.19793212413787842, -0.09688667953014374, 0.19632600247859955, 0.021107815206050873, -0.24293331801891327, 0.15790140628814697, -0.03793460875749588, -0.20237112045288086, 0.1656016707420349, -0.13495096564292908, 0.24586503207683563, -0.1603429764509201, 0.037936195731163025, -0.07052218914031982, 0.21781884133815765, -0.13131298124790192, 0.17559921741485596, -0.029666680842638016, 0.08119127154350281, -0.09472130984067917, 0.10268907248973846, -0.025195833295583725, 0.04581943899393082, -0.1999942660331726, 0.010348868556320667, -0.013344825245440006, 0.08849212527275085, -0.08451586961746216, -0.22852885723114014, 0.2603115439414978, 0.047132447361946106, -0.27280402183532715, -0.0036237649619579315, -0.20621250569820404, -0.16525773704051971, 0.07754100859165192, -0.19200988113880157, -0.21692806482315063, 0.14259663224220276, -0.17282792925834656, 0.2042550891637802, -0.04073479771614075, 0.03274015337228775, 0.23730586469173431, -0.08037795126438141, -0.06718049943447113, -0.2410849779844284, 0.10638202726840973, 0.0976489707827568, 0.11903098225593567, -0.3003294765949249, 0.18727600574493408, 0.15950477123260498, -0.13177095353603363, 0.030100824311375618, 0.2139458805322647, -0.19679218530654907, 0.12902159988880157, -0.23786994814872742, 0.027791110798716545, -0.12331836670637131, 0.14771130681037903, -0.12433783710002899, -0.08492855727672577, -0.11298028379678726, 0.1283462792634964, -0.06685546040534973, 0.3442364037036896, -0.11300186067819595, 0.1440199911594391, -0.1498204618692398, 0.11641677469015121, -0.12403233349323273, 0.22525054216384888, -0.05214403569698334, -0.017717154696583748, 0.11107414960861206, -0.10182440280914307, 0.1810998171567917, 0.20864222943782806, -0.28032898902893066, -0.08819562196731567, 0.28807881474494934, -0.17585963010787964, -0.029692402109503746, 0.2820775806903839, -0.10882971435785294, 0.15613162517547607, -0.10019659996032715, 0.14397236704826355, -0.16255274415016174, -0.3116295039653778, 0.36849310994148254, 0.028726371005177498, 0.278911292552948, -0.2989490032196045, 0.17389993369579315, -0.0866895318031311, 0.3046407997608185, -0.16301290690898895, -0.27470988035202026, 0.07311008870601654, 0.10022886842489243, -0.2793422043323517, 0.11337219178676605, 0.042294446378946304, 0.14652316272258759, -0.2535896599292755, 0.02206050418317318, -0.19021928310394287, 0.11748780310153961, 0.11834253370761871, 0.15411759912967682, -0.1211748719215393, 0.1599646806716919, -0.1312141865491867, 0.22474656999111176, 0.1062479168176651, 0.22641003131866455, -0.24684448540210724, 0.15128383040428162, -0.1702900379896164, 0.048505112528800964, -0.06146224960684776, -0.31334394216537476, 0.3039416968822479, -0.056777194142341614, -0.3502417504787445, 0.1639830321073532, 0.05312385410070419, -0.18128012120723724, 0.22280441224575043, -0.027317732572555542, -0.169094517827034, 0.14093245565891266, -0.09236105531454086, 0.09911510348320007, -0.28050822019577026, 0.3647766709327698, -0.06054913252592087, 0.15930145978927612, 0.01727689430117607, -0.04726793244481087, -0.2612338066101074, 0.1363542079925537, -0.02391529269516468, 0.2881946265697479, -0.1138169914484024, 0.025631727650761604, 0.24821124970912933, -0.05779260769486427, 0.17572250962257385, 0.066925048828125, -0.12712794542312622, -0.11650567501783371, -0.13754741847515106, 0.14055003225803375, -0.0351046659052372, 0.2022995948791504, -0.057706642895936966, -0.09120249003171921, -0.062751404941082, -0.11297979205846786, 0.05850973352789879, 0.2929264008998871, -0.043782226741313934, 0.05883082002401352, -0.20634964108467102, 0.13185526430606842, -0.08617269992828369, 0.14065471291542053, -0.03130399063229561, 0.09996367990970612, 0.2223576009273529, 0.10193759202957153, 0.03985125571489334, 0.1646968424320221, 0.10324195772409439, 0.01959284022450447, 0.295658677816391, -0.09401695430278778, 0.04277178272604942, 0.1611037254333496, 0.060700155794620514, 0.17057888209819794, 0.023166844621300697, -0.01009830366820097, 0.0812196284532547, -0.04323312267661095, 0.08866693824529648, -0.0705806314945221, 0.19847148656845093, 0.13635417819023132, -0.010251847095787525, -0.2439345270395279, 0.10045501589775085, -0.1289042979478836, -0.0755118653178215, 0.021020814776420593, -0.08320853114128113, -0.053940024226903915, -0.12124168872833252, 0.04777335003018379, 0.010467423126101494, -0.025025172159075737, 0.027225470170378685, 0.031670063734054565, -0.03792576864361763, 0.11410397291183472, 0.08982054144144058, -0.06889965385198593, -0.13246199488639832, -0.2312786728143692, 0.16850470006465912, -0.0196431502699852, 0.1099168211221695, 0.02148711495101452, 0.08216923475265503, 0.02095910534262657, 0.12517058849334717, -0.12139516323804855, -0.12847858667373657, -0.07398290187120438, -0.1050565093755722, -0.07492400705814362, 0.13237819075584412, -0.1362852156162262, -0.020692912861704826, -0.07546398788690567, -0.048543497920036316, 0.005889715626835823, -0.02777603641152382, -0.008009705692529678, -0.1111910417675972, 0.014643214643001556, 0.09706633538007736, -0.25946947932243347, 0.00985777098685503, -0.17472431063652039, 0.08049117773771286, 0.0746234655380249, 0.18557041883468628, -0.2401048094034195, 0.0013689495390281081, 0.19419261813163757, -0.10201026499271393, -0.1416691243648529, 0.059223998337984085, -0.23994477093219757, -0.17779749631881714, -0.07876963913440704, 0.29689186811447144, 0.17849989235401154, 0.11847642809152603, -0.13456735014915466, -0.11111462861299515, 0.03902313485741615, 0.13709914684295654, -0.03483080491423607, 0.1098213940858841, -0.09397401660680771, -0.17142127454280853, 0.061707548797130585, 0.23711691796779633, -0.054746150970458984, 0.04368899390101433, -0.06362420320510864, -0.16871988773345947, 0.03623460233211517, -0.14329202473163605, -0.18251043558120728, 0.14827792346477509, -0.12409369647502899, 0.02038293331861496, -0.0195692740380764, -0.054416473954916, -0.15242736041545868, 0.21820244193077087, -0.3362765610218048, -0.19149617850780487, 0.04895792528986931, 0.046261947602033615, 0.01441245898604393, 0.2735200524330139, -0.026889413595199585, -0.3151589334011078, -0.12428704649209976, 0.17125320434570312, -0.0671825185418129, -0.09685646742582321, -0.18319925665855408, 0.01724894531071186, -0.036798279732465744, -0.15726998448371887, -0.09163376688957214, -0.020562391728162766, 0.06033076345920563, -0.19929367303848267, -0.040904417634010315, 0.643120527267456, -0.3450855016708374, 0.7565646171569824, -0.5795673131942749, 0.03286268562078476, 0.7998808026313782, 1.0413787364959717, -0.7933840155601501, 0.11916407197713852, 0.036852408200502396, -0.3660861849784851, -0.3931598961353302, 0.3128219544887543, -0.7036815285682678, 0.17288167774677277, 0.5047734975814819, -0.1625448316335678, 0.2929393947124481, -0.029073653742671013, 0.21705223619937897, 0.26789212226867676, -0.09040606021881104, 0.15307174623012543, 0.2996963858604431, -0.038982171565294266, -0.1438101977109909, 0.025626562535762787, -0.10441499203443527, 0.08607228845357895, -0.05577028915286064, 0.11789791285991669, -0.041252560913562775, 0.07513083517551422, 0.1680578589439392, -0.48933789134025574, 0.2936852276325226, 0.39398783445358276, -0.3813263475894928, -0.3612704873085022, 0.2691989541053772, -0.27207157015800476, -0.15492141246795654, -0.06263850629329681, 0.32682040333747864, -0.17535091936588287, 0.18574075400829315, -0.24372321367263794, -0.15437465906143188, -0.00752228032797575, 0.2775075435638428, -0.2340407371520996, 0.42392662167549133, 0.1862272471189499, -0.3479604423046112, -0.09682613611221313, 0.06212422996759415, -0.2083141952753067, -0.3736618459224701, 0.16033095121383667, 0.09922278672456741, -0.10513637959957123, 0.4580639898777008, -0.20445790886878967, -0.27277645468711853, 0.2680504024028778, -0.13159631192684174, -0.06885701417922974, -0.12576694786548615, 0.03307719901204109, 0.10025683045387268, -0.03691697493195534, 0.23391391336917877, -0.24865171313285828, 0.011823534034192562, -0.08398936688899994, -0.06379076093435287, 0.15066103637218475, 0.23014768958091736, -0.19719618558883667, -0.04706081748008728, -0.45706889033317566, -0.39585915207862854, -0.2116277813911438, 0.16238155961036682, 0.019754476845264435, 0.07779619842767715, 0.28305089473724365, -0.4263373911380768, 0.18767273426055908, 0.21293282508850098, -0.5421926975250244, 0.5276727676391602, -0.3814065158367157, 0.01861470751464367, -0.1711970716714859, 0.18271701037883759, 0.2895532250404358, 0.053562697023153305, 0.10898438096046448, 0.05013680085539818, 0.30683010816574097, 0.19163177907466888, 0.2241058349609375, -0.006043005269020796, 0.1751302182674408, -0.09588656574487686, -0.2802165448665619, -0.18487414717674255, 0.05400487035512924, -0.13618841767311096, 0.06345643848180771, 0.08744300901889801, -0.2784796953201294, 0.23545600473880768, 0.223342627286911, 0.3384556174278259, -0.2048579603433609, -0.3931104242801666, 0.26746830344200134, -0.1307847648859024, 0.18458402156829834, -0.44421717524528503, -0.3885485529899597, 0.5566759705543518, -0.06389572471380234, -0.4444355368614197, 0.02416580356657505, -0.1310221552848816, 0.519794225692749, 0.1076875701546669, 0.38774368166923523, -0.2685907781124115, -0.34279873967170715, 0.10547307878732681, 0.2695772051811218, 0.049251046031713486, 0.1659577488899231, -0.17532187700271606, 0.04691823199391365, -0.24195319414138794, 0.06270726025104523, -0.142489492893219, 0.07880619168281555, 0.13828973472118378, -0.132605642080307, 0.010468823835253716, -0.43823906779289246, -0.19535046815872192, 0.32048168778419495, -0.14222271740436554, -0.2596241533756256, 0.19490601122379303, -0.20108066499233246, -0.2753468453884125, 0.20274779200553894, 0.051882099360227585, 0.06288588792085648, -0.1261538863182068, -0.20010271668434143, -0.12111179530620575, -0.1778964251279831, 0.10305661708116531, 0.3608756959438324, -0.08876335620880127, -0.40576058626174927, -0.049326907843351364, 0.3431895077228546, -0.3807210624217987, 0.027432018890976906, 0.14006376266479492, -0.18054631352424622, 0.4293374717235565, -0.015870200470089912, 0.1266939342021942, -0.01984100230038166, 0.13637284934520721, -0.031055686995387077, 0.2929844856262207, -0.4046648144721985, 0.29124030470848083, 0.06121920794248581, -0.31777024269104004, 0.10726308822631836, -0.052607759833335876, 0.06003697216510773, -0.3322105407714844, -0.3127305805683136, 0.07312571257352829, -0.24753642082214355, 0.08232088387012482, -0.21931405365467072, 0.20409061014652252, 0.05259322747588158, -0.05024224892258644, 0.017845533788204193, 0.05094921588897705, 0.15638506412506104, -0.14099843800067902, -0.14351357519626617, 0.1425306648015976, -0.08339811116456985, -0.2560926675796509, -0.002480872208252549, -0.1747484803199768, -0.1309484839439392, 0.2182423323392868, -0.22967256605625153, -0.2736317217350006, -0.39447441697120667, -0.13415591418743134, 0.1017870232462883, -0.047554098069667816, -0.013221313245594501, -0.1211516261100769, 0.07315189391374588, 0.4177989661693573, 0.3178195655345917, 0.07028152048587799, -0.06156153231859207, 0.016526464372873306, 0.16999179124832153, -0.27258920669555664, -0.05428473651409149, 0.15018369257450104, -0.9685946106910706, -0.22748219966888428, -0.062396466732025146, 0.1849098652601242, -0.4545249938964844, 0.09719642251729965, 0.49158456921577454, -0.5360552668571472, 0.05696355551481247, -0.061459265649318695, -0.09073542803525925, 0.3894115388393402, -0.4578405022621155, -0.24533061683177948, -0.0018150066025555134, 0.3532249331474304, -0.1904968023300171, 0.38123971223831177, -0.3073532283306122, 0.036593034863471985, 0.3196379542350769, -0.18960636854171753, -0.02236041985452175, 0.35266414284706116, -0.3924247622489929, -0.05660659819841385, -0.19741341471672058, 0.17936524748802185, -0.12582513689994812, 0.32418638467788696, -0.35573914647102356, -0.2443792074918747, 0.2159072756767273, 0.07668787240982056, -0.04802102595567703, 0.02182326279580593, 0.031370364129543304, 0.00802852027118206, 0.013720271177589893, 0.4428585171699524, -0.10065395385026932, -0.2539309859275818, -0.3612639307975769, 0.011523706838488579, -0.44336044788360596, 0.2246631532907486, -0.2913256883621216, -0.21971866488456726, 0.19578078389167786, -0.125681072473526, 0.10950814187526703, -0.13702888786792755, 0.00825438927859068, 0.02255263738334179, 0.17091965675354004, 0.04536662623286247, 0.13390088081359863, -0.21418112516403198, 0.2332352101802826, 0.049415793269872665, 0.12786626815795898, 0.05699199438095093, 0.2078637033700943, 0.20870879292488098, -0.10724759101867676, -0.11468318849802017, 0.029929043725132942, 0.028062056750059128, -0.09493889659643173, 0.18743638694286346, -0.13753531873226166, -0.08177460730075836, 0.08502182364463806, -0.19597725570201874, -0.06637493520975113, -0.0030591762624680996, 0.08379549533128738, 0.02881375327706337, 0.46429771184921265, 0.2501685619354248, -0.01991979219019413, 0.005929852835834026, -0.1516191065311432, -0.13778766989707947, 0.25993451476097107, 0.12781231105327606, -0.008784199133515358, -0.22075308859348297, -0.1537322700023651, 0.013759591616690159, -0.03714829683303833, -0.06997647136449814, 0.057457711547613144, -0.19262972474098206, -0.2462494969367981, -0.04993226379156113, 0.11130166053771973, -0.280982106924057, -0.18997423350811005, 0.05322088301181793, -0.04650157690048218, -0.1951303631067276, 0.01058945246040821, -0.05898580700159073, 0.10536307096481323, -0.07821024954319, -0.21310967206954956, 0.01792285032570362, 0.09390753507614136, 0.10917763411998749, -0.06073246896266937, 0.03311018645763397, -0.17644637823104858, -0.004951861687004566, 0.27585816383361816, -0.1979813426733017, -0.030883140861988068, 0.22941811382770538, -0.20906983315944672, -0.05578693374991417, 0.27933332324028015, -0.1820061206817627, 0.03783990442752838, 0.04495314881205559, 0.06350358575582504, -0.20813237130641937, 0.023688582703471184, 0.03891219198703766, -0.11218642443418503, -0.1891920417547226, 0.05219145119190216, -0.15752527117729187, -0.07409282773733139, 0.2844928205013275, -0.035818152129650116, -0.1567285805940628, -0.28713101148605347, -0.027272924780845642, 0.14795373380184174, 0.24521157145500183, 0.05383000522851944, -0.3240959346294403, -0.12713299691677094, 0.04197673872113228, 0.179918572306633, -0.2709473669528961, -0.08494320511817932, 0.30240318179130554, 0.052551086992025375, -0.25108790397644043, 0.15404284000396729, -0.04373783618211746, 0.08667872101068497, -0.0523260124027729, -0.18276828527450562, -0.08979716151952744, 0.1719723492860794, 0.01142705138772726, 0.12184103578329086, -0.009617915377020836, -0.10482219606637955, -0.18349725008010864, -0.23056644201278687, 0.2157236635684967, 0.23447051644325256, -0.12050162255764008, 0.027195939794182777, 0.06876274198293686, -0.08024059981107712, 0.12479818612337112, 0.011081567034125328, -0.16370528936386108, 0.29523465037345886, 0.0788741260766983, 0.09897290170192719, -0.09810616075992584, 0.024825021624565125, 0.25657063722610474, 0.29064449667930603, -0.15031076967716217, -0.25133752822875977, -0.11558675765991211, -0.1058242917060852, 0.27109700441360474, 0.009256777353584766, -0.12029482424259186, -0.24168075621128082, -0.048712339252233505, 0.11306971311569214, 0.07543797791004181, -0.1322534680366516, -0.19905303418636322, -0.12764780223369598, 0.14756062626838684, -0.0407872311770916, -0.061230193823575974, -0.10701851546764374, 0.09287367016077042, -0.7190635204315186, 0.032524481415748596, -0.05678950250148773, -0.05667204037308693, -0.03485133871436119, 0.08984175324440002, -0.06651195883750916, -0.04901193082332611, 0.17419381439685822, 0.05984705314040184, 0.16769640147686005, 0.019469616934657097, -0.0007245807209983468, -0.06956915557384491, 0.07193009555339813, -0.11392071843147278, 0.21008235216140747, -0.09610901772975922, -0.2627715468406677, 0.12353444844484329, 0.09146584570407867, -0.2067606896162033, 0.05582576245069504, -0.491904616355896, 0.02837878093123436, -0.23474286496639252, 0.08364136517047882, 0.07369578629732132, 0.22106274962425232, -0.01786702871322632, 0.0037370643112808466, -0.28656014800071716, 0.04625656083226204, 0.1810617297887802, 0.2750711739063263, -0.11114763468503952, -0.04866039752960205, -0.05229898542165756, -0.21602490544319153, 0.1281837522983551, 0.3414618968963623, -0.07836925983428955, -0.09437017887830734, 0.25466179847717285, 0.11751338839530945, 0.04275370389223099, 0.07383119314908981, -0.16523964703083038, 0.40645843744277954, 0.1300560086965561, -0.3036302328109741, 0.024748457595705986, 0.11772943288087845, 0.0035003030207008123, 0.010601288639008999, 0.06256232410669327, 0.11226024478673935, -0.03108789213001728, -0.015273071825504303, -0.0024933707900345325, -0.12495385855436325, 0.13752004504203796, 0.2497711181640625, -0.10544534027576447, 0.015957346186041832, 0.16787075996398926, -0.20382170379161835, -0.06834173947572708, 0.14135956764221191, 0.01838449202477932, -0.04940253496170044, -0.2126467227935791, 0.11469008028507233, -0.20805326104164124, 0.013677761889994144, 0.07719270884990692, 0.06559626758098602, -0.325638085603714, 0.01619752123951912, -0.06697319447994232, 0.03879453241825104, 0.2789805233478546, 0.16805031895637512, 0.10845073312520981, -0.25466787815093994, -0.15565425157546997, -0.1870446354150772, 0.19113333523273468, 0.18594671785831451, 0.007818009704351425, -0.22236405313014984, 0.0068475292064249516, 0.1563536822795868, -0.039952248334884644, 0.10957393795251846, -0.7280738949775696, 0.3304963707923889, 0.005147071555256844, -0.3029005825519562, 0.07370315492153168, 0.080830879509449, -0.015137959271669388, -0.2822348475456238, 0.16457541286945343, 0.1462133228778839, -0.09066857397556305, -0.08223075419664383, -0.01577725261449814, -0.1827990561723709, -0.16636787354946136, 0.33782827854156494, -0.05507452040910721, -0.08859888464212418, 0.17588016390800476, -0.06590033322572708, -0.005871826782822609, 0.31660255789756775, -0.03987657651305199, 0.12938843667507172, -0.31659168004989624, 0.24045945703983307, 0.08829078823328018, -0.23332436382770538, 0.11181875318288803, 0.11941701173782349, -0.5404375791549683, -0.02496381290256977, 0.10288920998573303, -0.2593337893486023, 0.2575879395008087, 0.10499056428670883, 0.2911939024925232, -0.16734708845615387, 0.16416147351264954, -0.22431164979934692, 0.11309296637773514, 0.009587551467120647, 0.09794295579195023, -0.03426526486873627, 0.17035481333732605, 0.1829448640346527, -0.01163663063198328, 0.3190706670284271, -0.12403318285942078, -0.30014076828956604, 0.08097252994775772, -0.6272143721580505, 0.23847825825214386, -0.07016482949256897, 0.3454185724258423, -0.2461787611246109, -0.11588429659605026, 0.21459533274173737, -0.16507872939109802, 0.10592956840991974, 0.11557047814130783, 0.10447223484516144, 0.08326400816440582, 0.01719105988740921, 0.03163682296872139, 0.020659049972891808, -0.1853518784046173, 0.22818541526794434, 0.06752049177885056, -0.17660276591777802, -0.0666540116071701, 0.07350252568721771, 0.449505478143692, 0.18050898611545563, 0.15597356855869293, 0.2118692398071289, 0.08395496755838394, 0.42076805233955383, 0.19667446613311768, 0.34895673394203186, -0.04610957205295563, 0.19895519316196442, -0.08269713819026947, 0.06773170828819275, -0.14837557077407837, 0.0014891579048708081, 0.008078494109213352, 0.09610018879175186, -0.1444997936487198, 0.17887935042381287, -0.04244135692715645, 0.23844735324382782, -0.10791970044374466, -0.1426817625761032, 0.02968638949096203, 0.1305374801158905, 0.3931746780872345, 0.23655694723129272, 0.025302652269601822, 0.4381176233291626, -0.16259902715682983, -0.08257325738668442, -0.13221201300621033, 0.07678670436143875, 0.00011872887262143195, -0.19375434517860413, 0.09911303222179413, -0.21179133653640747, -0.05478620529174805, 0.1256258636713028, 0.05316733941435814, -0.09807326644659042, -0.0012304986594244838, -0.1723063886165619, -0.08343125879764557, 0.15394319593906403, -0.10785467177629471, -0.14788489043712616, -0.038203928619623184, 0.018209658563137054, -0.06640656292438507, -0.0874585434794426, 0.20562772452831268, -0.012056342326104641, -0.08130288124084473, -0.05494876950979233, -0.11871436983346939, 0.042393527925014496, 0.11679505556821823, 0.00018210150301456451, -0.0767379105091095, -0.0547972209751606, -0.21146947145462036, 0.16862905025482178, 0.1935146301984787, 0.1878921091556549, -0.09483473747968674, 0.029248667880892754, -0.1602979302406311, 0.051494669169187546, -0.12855017185211182, -0.14109738171100616, 0.11191248148679733, -0.21271131932735443, -0.11614307016134262, -0.10307485610246658, -0.13464957475662231, 0.05851990357041359, -0.17385704815387726, 0.0022306316532194614, -0.027683084830641747, 0.16543732583522797, -0.05366501584649086, -0.0593516081571579, 0.13669657707214355, 0.30956441164016724, 0.2771158218383789, -0.049165673553943634, -0.1114363893866539, -0.0972430631518364, -0.17542949318885803, 0.23818916082382202, 0.14952079951763153, 0.08476530760526657, 0.1368323713541031, 0.037360187619924545, -0.14729565382003784, 0.36452174186706543, 0.10880172997713089, -0.05502384901046753, -0.16520892083644867, 0.06718815863132477, 0.11913380026817322, 0.309459924697876, 0.21406637132167816, 0.14943985641002655, -0.21016623079776764, -0.12287373095750809, 0.19212490320205688, 0.0784202516078949, -0.039236798882484436, 0.05552029237151146, -0.1354355365037918, -0.012098715640604496, -0.07754217088222504, 0.17546682059764862, 0.0028798477724194527, -0.17089708149433136, 0.0928572565317154, 0.052896808832883835, 0.031706809997558594, 0.23339837789535522, 0.520716667175293, 0.32109835743904114, 0.024518106132745743, -0.09192408621311188, -0.046738866716623306, 0.11814289540052414, 0.0039028951432555914, -0.05360300466418266, 0.04479687288403511, 0.05846128240227699, -0.14947372674942017, 0.17377308011054993, 0.20773416757583618, 0.16117192804813385, -0.13453824818134308, 0.0771513432264328, 0.20453158020973206, -0.2452334314584732, -0.023688554763793945, 0.10135933756828308, -0.11949153244495392, 0.14305368065834045, 0.034984540194272995, -0.08404936641454697, -0.35306215286254883, 0.28244197368621826, 0.012736937962472439, -0.04237991198897362, -0.06726602464914322, 0.10697614401578903, -0.2523525059223175, 0.41113853454589844, 0.002906032372266054, 0.055495087057352066, -0.0022902486380189657, -0.10956981778144836, 0.14631226658821106, 0.1324528157711029, -0.03148043155670166, -0.1103464663028717, -0.05864644795656204, -0.14748936891555786, 0.06576669961214066, 0.3053310215473175, -0.10145372897386551, -0.05380536988377571, 0.1025039404630661, 0.2680458128452301, -0.3912479281425476, 0.10304028540849686, -0.1851874738931656, -0.1675666868686676, 0.023406866937875748, -0.20488467812538147, -0.16774876415729523, 0.17995616793632507, -0.08869686722755432, 0.02985595539212227, 0.004479284398257732, -0.16026148200035095, 0.017841264605522156, 0.006007478106766939, -0.14616051316261292, -0.018074719235301018, -0.03841814026236534, -0.09579790383577347, -0.07433094829320908, 0.21488399803638458, -0.13211968541145325, -0.06151279807090759, 0.14128118753433228, 0.08546191453933716, 0.01687421090900898, -0.5097249150276184, 0.14468374848365784, 0.11829565465450287, -0.16677115857601166, 0.005503622815012932, 0.14495161175727844, -0.15081125497817993, 0.03876512870192528, 0.10758830606937408, -0.09714178740978241, -0.12136504054069519, -0.05753641203045845, 0.30835455656051636, 0.04458918422460556, -0.06412458419799805, -0.18241114914417267, 0.019126567989587784, -0.07414567470550537, 0.05669537931680679, 0.009541932493448257, -0.030036885291337967, 0.07325456291437149, -0.05479399859905243, -0.20335909724235535, 0.6795743703842163, 0.029104918241500854, 0.07943425327539444, 0.03531550243496895, -0.06992487609386444, -0.05753765627741814, 0.08538223057985306, 0.015293818898499012, -0.24931123852729797, 0.06593514233827591, -0.04390425980091095, -0.12869112193584442, -0.13551737368106842, 0.026669716462492943, -0.03304988518357277, -0.11247579008340836, -0.17365632951259613, -0.02684960514307022, 0.0836803987622261, 0.03148535266518593, -0.07475882768630981, 0.02013404108583927, 0.01805008389055729, -0.16904154419898987, -0.019722310826182365, 0.08268988132476807, 0.33943861722946167, -0.05711182951927185, -0.37332338094711304, -0.4041100740432739, 0.13162122666835785, 0.19349932670593262, 0.27701127529144287, 0.00039307112456299365, 0.03221667557954788, -0.25489625334739685, -0.09689389914274216, -0.09699390828609467, 0.23197229206562042, -0.024349886924028397, -0.1588689088821411, -0.06730719655752182, -0.07872167229652405, -0.19180984795093536, -0.11590451002120972, -0.0030219077598303556, -0.4037338197231293, -0.5954895615577698, 0.9255092740058899, 0.07843749225139618, 0.11263613402843475, -0.030755838379263878, -0.02266925387084484, -0.13997216522693634, -0.12975934147834778, -0.0892234519124031, -0.06535704433917999, 0.16327112913131714, 0.07017484307289124, 0.1080906018614769, -0.12426614761352539, 0.1261211484670639, 0.08501759171485901, -0.13287200033664703, 0.11290904134511948, 0.12011357396841049, -0.16465964913368225, 0.012633857317268848, 0.0759209394454956, -0.08644960075616837, 0.15149499475955963, -0.21489034593105316, -0.03181333839893341, -0.09077512472867966, -0.1662161946296692, 0.2137005478143692, 0.06030643731355667, -0.16410233080387115, -0.009417609311640263, -0.1383925825357437, -0.10060013085603714, 0.18066546320915222, -0.05013289302587509, 0.11012986302375793, 0.010453288443386555, -0.09728957712650299, -0.024102231487631798, -0.01265034917742014, 0.20265550911426544, 0.13025498390197754, -0.07050592452287674, 0.22471927106380463, -0.06572344154119492, -0.09792987257242203, -0.15287913382053375, -0.02506382018327713, 0.07767749577760696, -0.1454620361328125, -0.1679297238588333, -0.01929217390716076, 0.14868688583374023, -0.006068632937967777, -0.08551430702209473, 0.06765783578157425, 0.15910713374614716, -0.08433116972446442, -0.06764955818653107, -0.03140989691019058, 0.23944157361984253, -0.006077603902667761, 0.008030779659748077, 0.09822259843349457, 0.06805694103240967, -0.18282830715179443, 0.20829609036445618, -0.05933432653546333, -0.0874866396188736, 0.07282289117574692, 0.08092670887708664, 0.05492410808801651, -0.41265350580215454, -0.021567916497588158, 0.1069222241640091, -0.2188788801431656, 0.3264008164405823, 0.38719314336776733, -0.16225260496139526, 0.1760871857404709, 0.11874478310346603, -0.12988482415676117, -0.006703968159854412, -0.10224718600511551, 0.26135435700416565, 0.0890560895204544, -0.06867380440235138, -0.03352774307131767, -0.00262759393081069, 0.005582498386502266, 0.11562049388885498, -0.11466427147388458, -0.0749695673584938, 0.03912883251905441, 0.23087957501411438, 0.204230397939682, 0.35976991057395935, 0.13214875757694244, 0.26359713077545166, -0.14347246289253235, -0.0978938639163971, -0.1435832679271698, -0.002816949039697647, 0.0026267205830663443, -0.16006280481815338, 0.11179136484861374, -0.1765807569026947, 0.02322584204375744, 0.01615164987742901, -0.20030523836612701, 0.18688005208969116, 0.06836595386266708, -0.31701862812042236, 0.09206874668598175, 0.13911284506320953, -0.2371160089969635, -0.07659870386123657, 0.04260718822479248, -0.2592984139919281, 0.2593418061733246, 0.35110825300216675, 0.40726354718208313, -0.0075049931183457375, -0.13953684270381927, -0.5790964961051941, -0.21292878687381744, 0.003434390528127551, 0.32229623198509216, 0.05800614878535271, -0.1795973926782608, -0.13229325413703918, -0.09524640440940857, 0.0606653206050396, 0.04832994565367699, -0.15648618340492249, -0.0010143903782591224, -0.24742718040943146, 0.09294137358665466, 0.22015905380249023, -0.17219281196594238, 0.049867887049913406, 0.07080689817667007, -0.12674319744110107, -0.21312330663204193, 0.138535737991333, -0.4004160463809967, -0.34650301933288574, -0.14869952201843262, -0.3652748167514801, 0.017340047284960747, -0.003203688422217965, 0.08466359227895737, 0.14411891996860504, 0.20588192343711853, -0.18727396428585052, -0.03992324322462082, -0.1357506811618805, 0.05306787043809891, -0.004601303022354841, 0.11806374788284302, -0.03809691593050957, -0.009487385861575603, 0.12193457037210464, 0.08045549690723419, 0.0333641842007637, -0.002640305319800973, 0.13058185577392578, 0.4467110335826874, -0.10612951964139938, 0.002856845734640956, -0.05895188823342323, -0.06723997741937637, 0.12257987260818481, 0.5328219532966614, -0.33546382188796997, 0.10116793215274811, -0.10617514699697495, -0.19682066142559052, -0.16225886344909668, -0.13277874886989594, 0.05303400754928589, -0.045467596501111984, 0.24702352285385132, 0.11310461163520813, -0.04119579493999481, 0.08191898465156555, -0.05922264978289604, -0.11984246224164963, -0.12265099585056305, 0.08632522821426392, 0.0862511396408081, 0.02098933607339859, 0.20929497480392456, 0.052748292684555054, 0.4136021137237549, -0.15793225169181824, -0.04276105761528015, -0.1678304821252823, 0.11024995148181915, -0.013276001438498497, 0.029286310076713562, 0.13074196875095367, 0.13506662845611572, 0.04886176809668541, -0.17269185185432434, 0.2018338143825531, -0.05643768236041069, 0.047067560255527496, 0.2406800389289856, 0.09137966483831406, 0.07217096537351608, -0.02996964566409588, -0.03477218374609947, 0.056546807289123535, 0.15379168093204498, 0.12938889861106873, 0.14216305315494537, -0.17582610249519348, -0.4025399088859558, 0.12925481796264648, 0.5472595691680908, -0.49896353483200073, 0.28925225138664246, -0.6205770969390869, -0.32001060247421265, -0.4288017451763153, 0.9668118357658386, -1.0204745531082153, -0.8383604884147644, -1.1444789171218872, 0.30913275480270386, -0.9712017774581909, 0.29890552163124084, -0.8985190391540527, -0.20717528462409973, -0.38229799270629883, 0.11111187934875488, 0.2814561128616333, 0.2357683628797531, -0.12998844683170319, -0.03748757019639015, -0.10904739052057266, 0.11751145869493484, -0.2186926156282425, 0.08368931710720062, 0.2873254120349884, 0.08528218418359756, -0.009526456706225872, -0.06620358675718307, 0.03786429390311241, -0.14983773231506348, -0.1764679104089737, -0.09867209941148758, -0.057700369507074356, -0.262006938457489, 0.3316943049430847, -0.18643277883529663, -0.3381410241127014, 0.00632930314168334, -0.00850004330277443, 0.19064763188362122, 0.3284132778644562, 0.020187092944979668, 0.09075331687927246, -0.09034255146980286, 0.2652556896209717, -0.18085293471813202, -0.13894611597061157, -0.11134236305952072, 0.17742812633514404, -0.10342088341712952, 0.24997347593307495, -0.12909124791622162, -0.05288030579686165, -0.022285720333456993, 0.13883449137210846, -0.08519848436117172, -0.20387446880340576, 0.054757632315158844, 0.20458969473838806, 0.2002846747636795, 0.037525393068790436, 0.16933879256248474, 0.200622096657753, -0.21097815036773682, -0.255015105009079, -0.2821040153503418, 0.10844046622514725, -0.16918855905532837, -0.04589822143316269, -0.04060849919915199, 0.22734680771827698, 0.12754100561141968, 0.29353344440460205, 0.15540006756782532, -0.10018137842416763, 0.2109115570783615, 0.051369983702898026, 0.06618460267782211, 0.005332561209797859, -0.17165246605873108, -0.12325786054134369, 0.07226595282554626, -0.007257872261106968, -0.08987514674663544, 0.09590902179479599, 0.3016757071018219, 0.01113910973072052, 0.08556424081325531, 0.14821259677410126, -0.10511405766010284, 0.1732325255870819, -0.3154807388782501, -0.02513003535568714, -0.0739608034491539, -0.03071489930152893, -0.4363594353199005, -0.09934510290622711, 0.011593899689614773, -0.1556827276945114, 0.09172887355089188, 0.009944547899067402, -0.2028523087501526, 0.3608711361885071, 0.06058450788259506, -0.13368582725524902, -0.19510644674301147, 0.120594821870327, 0.11473731696605682, 0.04947911947965622, 0.2791655361652374, 0.09564970433712006, -0.0016482340870425105, -0.12448206543922424, 0.07242611050605774, 0.7053043842315674, -0.5529279708862305, -0.16494622826576233, 0.036688923835754395, 0.26804766058921814, -0.15570321679115295, 0.26881006360054016, 0.24129998683929443, -0.20629140734672546, 0.5626696348190308, 0.18492794036865234, 0.23234905302524567, 0.10802476853132248, -0.1118837222456932, 0.10284491628408432, 0.10143215209245682, -0.10801267623901367, 0.06673025339841843, 0.1766069382429123, -0.2121812254190445, 0.30515599250793457, -0.12897659838199615, 0.07936395704746246, -0.17462468147277832, 0.1858994960784912, 0.07410681247711182, 0.07998296618461609, -0.08375205099582672, 0.061790961772203445, -0.2211441844701767, -0.162499338388443, -0.3315446078777313, -0.13118529319763184, 0.0510571114718914, -0.18209892511367798, 0.11369563639163971, -0.08253363519906998, 0.2913563549518585, -0.0521717332303524, -0.05925208330154419, 0.2445744425058365, -0.06331267207860947, 0.17281775176525116, -0.013872945681214333, 0.020640036091208458, 0.05361039564013481, 0.0793195590376854, 0.22147098183631897, -0.21337170898914337, 0.23566830158233643, 0.012162469327449799, -0.03504864126443863, -0.10410033911466599, 0.03198128193616867, 0.23591679334640503, 0.07632631808519363, -0.07552727311849594, -0.01138610765337944, -0.1495903581380844, -0.169580340385437, -0.16022008657455444, -0.07335679978132248, 0.03299245983362198, 0.04409244284033775, -0.15332579612731934, 0.0765918716788292, -0.024032071232795715, 0.18579347431659698, 0.16231270134449005, -0.18410898745059967, 0.35953861474990845, -0.018005935475230217, 0.025200214236974716, -0.062040843069553375, 0.009013109840452671, 0.1674858182668686, 0.41632696986198425, -0.2531128227710724, -0.1696407049894333, -0.33003902435302734, -0.018462667241692543, 0.03968013823032379, 0.19852417707443237, -0.32578057050704956, 0.25644728541374207, 0.26368266344070435, -0.1109868511557579, -0.037982430309057236, 0.052560675889253616, 0.19104620814323425, -0.0608309768140316, -0.22918395698070526, -0.3154074251651764, -0.20069338381290436, 0.27146294713020325, 0.03016667813062668, -0.030757766216993332, -0.20128537714481354, 0.16529914736747742, -0.21679936349391937, -0.020363925024867058, -0.19531510770320892, -0.24890688061714172, 0.3390227258205414, -0.31506258249282837, 0.027741609141230583, 0.005271537695080042, 0.02551133558154106, -0.03722285106778145, -0.2264413833618164, 0.37326928973197937, -0.2506217062473297, 0.020304640755057335, 0.019998185336589813, -0.0643339678645134, 0.24357928335666656, 0.23039618134498596, 0.07165677100419998, -0.13616681098937988, 0.3311961889266968, -0.017003413289785385, 0.17003560066223145, -0.08571722358465195, 0.08980196714401245, 0.33399447798728943, -0.07248025387525558, -0.20249347388744354, -0.408539354801178, -0.09460200369358063, 0.25022950768470764, 0.05728308856487274, -0.12302463501691818, 0.08679448813199997, 0.05882634222507477, -0.01964428462088108, -0.19499768316745758, 0.5405471920967102, 0.044778164476156235, 0.12311624735593796, 0.17389307916164398, -0.3372448682785034, 0.0050092292949557304, -0.16176699101924896, -0.2585344910621643, 0.19715584814548492, -0.09615311026573181, 0.05710466951131821, 0.072370745241642, -0.32810547947883606, 0.2409570962190628, 0.2480534315109253, -0.3751644492149353, 0.3795718550682068, -0.24410752952098846, -0.29508185386657715, 0.0012159463949501514, -0.05238085240125656, -0.252175897359848, -0.04411569610238075, -0.15107202529907227, 0.2557137906551361, 0.14798779785633087, 0.3517853319644928, 0.13292552530765533, -0.014695683494210243, 0.20724201202392578, -0.19559356570243835, 0.09659720957279205, -0.2802029252052307, -0.0053502279333770275, 0.2100810706615448, -0.11687471717596054, 0.09958449006080627, 0.01675081066787243, -0.04867437854409218, -0.21988558769226074, 0.031092647463083267, -0.15461590886116028, -0.09147471934556961, 0.06247146427631378, 0.03719935566186905, -0.2854973375797272, -0.12358986586332321, 0.19243478775024414, 0.01169582363218069, -0.18759404122829437, 0.25580281019210815, -0.0014225197955965996, -0.1570078283548355, -0.055883344262838364, -0.136280357837677, 0.28079327940940857, 0.16705211997032166, 0.12482286989688873, -0.20166420936584473, -0.11023154109716415, 0.04404786229133606, 0.07075659930706024, 0.13429926335811615, 0.09075603634119034, -0.13597474992275238, -0.10999521613121033, 0.10405711084604263, 0.05857425555586815, -0.07290579378604889, -0.1450546383857727, 0.009449062868952751, -0.17737539112567902, -0.03762242943048477, 0.1441410779953003, -0.2529642581939697, 0.09880823642015457, 0.07858271151781082, 0.10025393217802048, -0.044139664620161057, -0.1146809458732605, 0.30920034646987915, -0.03496377915143967, -0.08196001499891281, -0.022971058264374733, -0.022859975695610046, 0.019776303321123123, -0.0127252247184515, 0.17604421079158783, -0.15519365668296814, 0.2148091197013855, 0.1122107058763504, 0.006602056790143251, -0.062309280037879944, -0.040174487978219986, -0.09298959374427795, 0.27533572912216187, -0.08090147376060486, 0.12388435006141663, -0.10013028234243393, 0.13188764452934265, 0.09370671212673187, 0.005104715004563332, -0.11780387163162231, 0.19818079471588135, -0.19679656624794006, 0.021440289914608, 0.1200239360332489, 0.1784968078136444, -0.003727386239916086, -0.18202190101146698, 0.01827172376215458, 0.116956926882267, 0.16337038576602936, 0.3805689513683319, 0.23925310373306274, 0.19457411766052246, -0.08950523287057877, -0.12355148792266846, -0.10156955569982529, -0.027870267629623413, 0.08880115300416946, -0.2539091110229492, 0.25836700201034546, -0.06965002417564392, -0.2057260125875473, 0.1091824322938919, 0.07478474825620651, 0.12782706320285797, 0.35337546467781067, -0.016599347814917564, 0.13619598746299744, -0.09558070451021194, -0.2901620864868164, -0.12129922956228256, 0.07768871635198593, -0.07146432995796204, -0.18302592635154724, 0.16833002865314484, -0.0017004958353936672, 0.09193849563598633, -0.02172720432281494, -0.025019478052854538, 0.18862785398960114, -0.23564471304416656, -0.0629618763923645, 0.013891405425965786, 0.2833004593849182, 0.19178049266338348, 0.15413743257522583, 0.28027641773223877, 0.19989556074142456, 0.046667952090501785, -0.00014689988165628165, 0.12192536145448685, 0.10097791254520416, 0.04892708361148834, 0.0609305277466774, 0.06061464175581932, -0.019540973007678986, 0.04029511287808418, -0.11862900853157043, -0.16290609538555145, 0.06459285318851471, -0.00782591663300991, 0.22267696261405945, 0.41408199071884155, 0.3226410150527954, 0.2271721214056015, -0.05872395262122154, 0.041799336671829224, 0.16554434597492218, 0.041178420186042786, 0.11559400707483292, 0.0365404412150383, 0.2043309360742569, 0.07291106134653091, -0.3930414319038391, 0.36586993932724, 0.35264402627944946, -0.4364663362503052, -0.15080592036247253, 0.12221024185419083, -0.3240828216075897, -0.10034883767366409, -0.1066104844212532, -0.04921476170420647, 0.0693628340959549, -0.018478887155652046, -0.11109220236539841, -0.035530731081962585, -0.12676315009593964, -0.15893463790416718, -0.12195444107055664, -0.2404947131872177, 0.6333692669868469, 0.09067299962043762, -0.04618469253182411, 0.15908563137054443, 0.15007518231868744, 0.06725369393825531, 0.3405288755893707, 0.16114218533039093, 0.1105492040514946, 0.06961116939783096, 0.1622103452682495, 0.17585083842277527, 0.00037903705378994346, -0.08320388942956924, -0.2990569770336151, -0.1856955587863922, 0.14476555585861206, 0.18852995336055756, 0.450126588344574, 0.056365884840488434, -0.06366172432899475, 0.02896682359278202, 0.010122478939592838, 0.15163618326187134, 0.42499613761901855, 0.17365214228630066, 0.17656667530536652, -0.009052980691194534, -0.05182788521051407, 0.06182177737355232, -0.5163974761962891, 0.25608205795288086, 0.18649204075336456, 0.27956199645996094, -0.15549291670322418, -0.09790602326393127, 0.09152960777282715, 0.27823320031166077, 0.0771198719739914, 0.17013241350650787, 0.15741533041000366, -0.08918606489896774, 0.16494552791118622, 0.26929429173469543, -0.0586133636534214, 0.18834491074085236, 0.238489031791687, 0.16452528536319733, -0.35870951414108276, 0.16201964020729065, 0.1595192551612854, -0.18872958421707153, 0.013886176981031895, 0.019827159121632576, -0.37081602215766907, -0.2599034309387207, 0.10156594216823578, 0.0005807030247524381, -0.14879120886325836, 0.013824363239109516, 0.02224871516227722, 0.1087019145488739, 0.133164644241333, 0.08222916722297668, -0.14721548557281494, -0.08387715369462967, 6.473991379607469e-05, 0.09286731481552124, -0.12380896508693695, -0.058584120124578476, -0.04987643286585808, -0.1688280552625656, 0.009617539122700691, -0.1289331614971161, -0.017290575429797173, 0.030039485543966293, -0.17896342277526855, 0.17033296823501587, 0.049952346831560135, -0.2750953137874603, -0.060318414121866226, 0.3300233483314514, 0.18924856185913086, -0.45728081464767456, 0.1492781788110733, -0.016968026757240295, -0.10360405594110489, 0.08534462749958038, -0.05561218410730362, -0.252005398273468, -0.08110196888446808, -0.23631435632705688, 0.20093439519405365, -0.013027055189013481, -0.10337378829717636, 0.08835058659315109, -0.3744206130504608, -0.11308179050683975, 0.28459835052490234, -0.1454811692237854, 0.017257684841752052, -0.03462136909365654, -0.27590885758399963, -0.15362752974033356, 0.2362583875656128, 0.10028796643018723, -0.11239519715309143, -0.24809515476226807, -0.2560640871524811, -0.006727196276187897, 0.15028448402881622, 0.16262619197368622, 0.06352014094591141, -0.22263456881046295, 0.04898639768362045, -0.07066827267408371, 0.3294411897659302, 0.27920714020729065, 0.07016021013259888, -0.2972767949104309, 0.07126792520284653, 0.14642536640167236, -0.2334326207637787, -0.003119640052318573, -0.3302430510520935, 0.19599659740924835, 0.186701700091362, -0.47805026173591614, 0.18645618855953217, -0.18602289259433746, 0.006637555547058582, 0.04645954445004463, 0.10452612489461899, -0.09294953942298889, 0.06065196916460991, 0.13088904321193695, -0.1208733320236206, 0.040790658444166183, -0.08755362033843994, 0.09615156799554825, 0.046622417867183685, -0.06835885345935822, 0.09643299877643585, -0.10215771198272705, -0.06298800557851791, -0.23774117231369019, -0.14298787713050842, 0.22078083455562592, -0.5771069526672363, -0.09738068282604218, 0.11148848384618759, -0.025018127635121346, -0.2839382588863373, -0.4102971851825714, -0.13179177045822144, 0.11295005679130554, -0.0001997297367779538, 0.22046001255512238, -0.21316421031951904, -0.3913089334964752, -0.07565518468618393, -0.2962697446346283, -0.10666782408952713, -0.12285897135734558, -0.02613886632025242, -0.10509605705738068, -0.14736723899841309, 0.22482867538928986, 0.04941529780626297, -0.26202675700187683, -0.0173968356102705, -0.3973488509654999, -0.00869138352572918, -0.08594179153442383, -0.8611295819282532, -0.03431389853358269, -0.34710657596588135, -0.08832410722970963, 0.2770872116088867, -0.16391050815582275, 0.18056540191173553, 0.1737232506275177, 0.15517672896385193, -0.04233049973845482, 0.16639329493045807, -0.11414486914873123, -0.0166434608399868, -0.003109277691692114, 0.1582895666360855, -0.00942445918917656, 0.11751791089773178, 0.10935971885919571, -0.10674490034580231, 0.06550437211990356, 0.09204313904047012, -0.08740419894456863, -0.4435260593891144, 0.09603238850831985, -0.23130810260772705, 0.039700932800769806, 0.012045605108141899, 0.1141972616314888, 0.11940181255340576, -0.16849708557128906, -0.18120916187763214, 0.07000584900379181, -0.06735791265964508, 0.09258246421813965, -0.022150252014398575, -0.023769540712237358, 0.17715245485305786, -0.06911303848028183, -0.20675669610500336, -0.10715287178754807, 0.052144646644592285, -0.017994815483689308, -0.19590866565704346, -0.06510134041309357, -0.1435040384531021, 0.3487355411052704, -0.13293105363845825, 0.052913159132003784, 0.13124656677246094, -0.19503256678581238, 0.09733657538890839, -0.22433757781982422, -0.34374380111694336, -0.07838282734155655, 0.13514643907546997, -0.051187992095947266, 0.12124868482351303, -0.09507601708173752, 0.029992541298270226, -0.11005855351686478, -0.03232632204890251, 0.15181107819080353, 0.027637742459774017, 0.03329911082983017, 0.022028833627700806, 0.01893993839621544, -0.21254099905490875, 0.09139867126941681, -0.1238127127289772, -0.1313944309949875, -0.1332503706216812, -0.08526168763637543, -0.07770420610904694, -0.026086097583174706, 0.003264346858486533, 0.1615753322839737, -0.1704729050397873, -0.027445079758763313, -0.041342880576848984, 0.13188707828521729, 0.1281856745481491, -0.2842538058757782, -0.21807466447353363, -0.3770126700401306, 0.11723606288433075, 0.0828186497092247, -0.01438282709568739, -0.36592328548431396, 0.07681338489055634, -0.07548829913139343, -0.24706336855888367, -0.053201425820589066, 0.11616495996713638, 0.3185834288597107, -0.01608533412218094, 0.15372517704963684, 0.3589422106742859, -0.34347793459892273, -0.0444469153881073, -0.2249087691307068, -0.31779274344444275, -0.05797605961561203, -0.026885947212576866, 0.1936323493719101, -0.008515844121575356, -0.0713716372847557, 0.009888780303299427, 0.032995566725730896, 0.11905939877033234, 0.4905810058116913, -0.003990163095295429, 0.17203500866889954, -0.006915210280567408, 0.17263458669185638, -0.15285736322402954, 0.20064637064933777, -0.13616609573364258, -0.05252290889620781, 0.4547266960144043, -0.23314344882965088, 0.07825017720460892, -0.12975706160068512, -0.1190062090754509, -0.14764858782291412, -0.15507957339286804, 0.052631475031375885, 0.2576505243778229, -0.05813819542527199, 0.15711066126823425, 0.03223239630460739, -0.06470973789691925, -0.05696393921971321, -0.15379410982131958, 0.6697226762771606, -0.013922169804573059, -0.1360008418560028, -0.13478340208530426, -0.10079185664653778, -0.041846830397844315, -0.258621484041214, -0.06358106434345245, -0.25127437710762024, 0.3568638861179352, -0.1072055920958519, -0.08497545123100281, -0.0172073133289814, -0.13193362951278687, -0.08948247134685516, 0.030230015516281128, -0.002394616836681962, -0.14512068033218384, -0.03233428671956062, 0.1841374635696411, -0.14820198714733124, 0.03702392056584358, 0.20589309930801392, -0.009980035945773125, -0.030559958890080452, 0.14526823163032532, 0.09374748170375824, 0.13350814580917358, 0.10687725245952606, 0.1503829061985016, -0.19505849480628967, -0.23266854882240295, 0.25436076521873474, 0.17956338822841644, -0.20656007528305054, 0.2975066602230072, -0.03657885268330574, -0.17048099637031555, -0.34038978815078735, -0.06371619552373886, 0.0338699035346508, 0.16422304511070251, 0.058924976736307144, -0.04584534093737602, -0.26007935404777527, -0.13365639746189117, -0.07574231177568436, -0.01557366643100977, -0.19363828003406525, 0.10564227402210236, 0.0753566101193428, 0.03060535155236721, 0.17586961388587952, 0.1492382287979126, -0.04733244702219963, 0.2138710916042328, -0.3115145266056061, 0.07141170650720596, -0.19324840605258942, -0.6472395658493042, -0.1342511624097824, -0.23135079443454742, -0.19081604480743408, -0.14641793072223663, 0.182249516248703, -0.08138738572597504, -0.190438374876976, 0.19586192071437836, -0.07532061636447906, -0.14456720650196075, 0.27863797545433044, -0.1459345817565918, -0.05679696798324585, 0.25448331236839294, 0.1878567487001419, 0.1261339634656906, -0.11673693358898163, 0.10826949775218964, 0.008247443474829197, -0.1801992952823639, -0.26588383316993713, -0.10262184590101242, 0.16915757954120636, 0.2420692890882492, 0.03147578984498978, -0.29493680596351624, -0.2976805865764618, -0.08737391978502274, 0.08220348507165909, 0.040748853236436844, 0.07995028793811798, -0.31140264868736267, -0.2393842488527298, -0.22106680274009705, 0.04031500592827797, 0.015401558950543404, -0.18261989951133728, 0.3981131613254547, -0.170846626162529, -0.1412576287984848, 0.08576132357120514, -0.2097560316324234, -0.1355104297399521, 0.31905996799468994, -0.05473700538277626, -0.15892447531223297, 0.3964710533618927, -0.07457727193832397, -0.12327711284160614, -0.03347667306661606, 0.002684409264475107, -0.22516196966171265, 0.24214757978916168, 0.237127885222435, 0.11123355478048325, -0.23384742438793182, 0.09546435624361038, -0.07489925622940063, -0.053500477224588394, 0.02310383878648281, 0.18120265007019043, -0.3492589294910431, -0.00595658365637064, 0.0973685011267662, 0.1733040064573288, -0.0930054634809494, -0.005921103525906801, 0.029926510527729988, -0.08808813244104385, 0.2240871787071228, -0.273824006319046, -0.02694755047559738, -0.12517844140529633, 0.09952978789806366, 0.07737159729003906, -0.07129505276679993, -0.16097378730773926, -0.18771593272686005, -0.017213065177202225, 0.1375962793827057, 0.06646654009819031, 0.044650524854660034, -0.12595319747924805, 0.04370490461587906, 0.31726643443107605, -0.3201473653316498, 0.041202228516340256, 0.035102736204862595, -0.12253256142139435, 0.16666468977928162, 0.09725402295589447, -0.0319821834564209, -0.11564911156892776, 0.2814424932003021, -0.5437468886375427, -0.08610690385103226, 0.08547728508710861, -0.28805992007255554, 0.033857688307762146, -0.06152715906500816, -0.1098628118634224, 0.15221214294433594, -0.08245760947465897, -0.09530145674943924, 0.13964305818080902, 0.0025373497046530247, -0.1858220398426056, -0.047448594123125076, 0.02154994010925293, 0.22533993422985077, -0.2347581535577774, 0.18015578389167786, 0.2339656502008438, -0.04607228934764862, -0.12088607996702194, -0.07082430273294449, 0.19279517233371735, 0.024225622415542603, -0.1117045134305954, 0.03326058387756348, 0.05407128855586052, 0.013676133006811142, -0.043613091111183167, -0.014028288424015045, -0.11102178692817688, 0.012822029180824757, -0.028889257460832596, 0.23902374505996704, -0.1167987510561943, -0.13358429074287415, -0.2638310194015503, -0.10554621368646622, 0.22084641456604004, 0.04917629063129425, -0.023169703781604767, 0.0009578274912200868, -0.13024762272834778, 0.03033289685845375, -0.03628747910261154, -0.26478809118270874, -0.27597787976264954, 0.17804311215877533, -0.0620722621679306, -0.5878650546073914, 0.1463492065668106, 0.1028675064444542, -0.024439698085188866, 0.13980866968631744, 0.16551640629768372, -0.030190452933311462, -0.11332231760025024, 0.1360275000333786, -0.1736128330230713, -0.0752558559179306, 0.17208686470985413, -0.13475854694843292, -0.21276412904262543, 0.04404376074671745, -0.05561714991927147, 0.045243486762046814, -0.3394598066806793, 0.2637062966823578, -0.24281488358974457, -0.3249955177307129, -0.21829010546207428, -0.21137635409832, -0.0840812623500824, 0.20731091499328613, -0.11029240489006042, -0.12184412032365799, -0.05850645899772644, -0.13193190097808838, 0.13504523038864136, 0.2608773708343506, 0.02298717014491558, -0.06700651347637177, -0.1583193838596344, 0.127932608127594, 0.06271857768297195, -0.053928326815366745, 0.036184053868055344, -0.08903373777866364, -0.11065950244665146, -0.05619340389966965, 0.20610004663467407, -0.1550365388393402, -0.06444942206144333, 0.26863184571266174, -0.12441598623991013, -0.09539216011762619, -0.04423339664936066, -0.06460227072238922, 0.31225070357322693, -0.09366218000650406, 0.03417292237281799, 0.27483612298965454, 0.16354064643383026, 0.042603734880685806, 0.15338727831840515, 0.19575490057468414, -0.051679547876119614, 0.13851167261600494, 0.07922240346670151, -0.14783580601215363, 0.01264271978288889, 0.067359559237957, 0.061081212013959885, -0.0018154627177864313, 0.07853075116872787, -0.0845695212483406, -0.2251604199409485, -0.08302980661392212, 0.07831522077322006, -0.268407940864563, 0.18330958485603333, -0.05105215683579445, 0.008752736262977123, 0.07347343862056732, -0.01924218237400055, -0.16606834530830383, -0.1512099653482437, -0.1454194188117981, -0.024754805490374565, -0.008636072278022766, 0.05863909050822258, -0.05975339189171791, 0.034372128546237946, -0.3177708089351654, -0.22627389430999756, -0.09771822392940521, -0.15499411523342133, 0.21633663773536682, -0.08628854900598526, -0.05366095155477524, -0.04155377298593521, -0.11704588681459427, 0.05161020904779434, -0.3956182897090912, -0.22127439081668854, -0.18029551208019257, -0.28291836380958557, -0.09898950159549713, 0.18772633373737335, 0.10313276946544647, 0.15959800779819489, 0.3505789339542389, -0.21034269034862518, 0.01387589331716299, -0.19441023468971252, -0.1305542290210724, -0.014001091942191124, -0.018683794885873795, -0.10893969982862473, -0.08516775071620941, -0.23344895243644714, -0.009049445390701294, -0.03447571396827698, -0.038943786174058914, -0.2821705937385559, -0.26859474182128906, 0.7392071485519409, 0.39138486981391907, -0.3889530897140503, 0.3621981143951416, -0.3067079484462738, 0.19430267810821533, 0.7663066983222961, -1.1383721828460693, 0.6918268203735352, 0.38714295625686646, 0.254475474357605, -0.32815036177635193, 0.0613669753074646, -0.45983070135116577, 0.4308166801929474, -0.10894015431404114, 0.053444284945726395, -0.589304506778717, 0.32483962178230286, 0.08680713921785355, -0.3194926679134369, -0.15254640579223633, 0.7002511024475098, -0.0980248674750328, -0.29983675479888916, -0.03416288271546364, -0.03300519287586212, -0.24929603934288025, -0.2876841127872467, -0.31467607617378235, 0.22704249620437622, -0.3961566090583801, 0.1816704422235489, 0.2170328050851822, -0.04971182718873024, -0.11428248137235641, 0.3769579529762268, -0.5143718719482422, -0.7830262184143066, 0.08302018791437149, 0.4435631334781647, 0.03875579684972763, 0.0973871573805809, 0.45564237236976624, 0.3303444981575012, -0.11155689507722855, 0.14958587288856506, -0.17585617303848267, 0.15449152886867523, -0.4348979592323303, 0.32008305191993713, -0.26636409759521484, -0.004890893120318651, -0.18477341532707214, -0.0923025980591774, 0.02925095334649086, -0.21503588557243347, 0.31078284978866577, 0.14790615439414978, -0.28911054134368896, -0.18853271007537842, 0.03417534753680229, 0.30024290084838867, 0.028763776645064354, 0.06485311686992645, -0.05793847143650055, -0.038377173244953156, -0.027898462489247322, -0.27649110555648804, 0.29471874237060547, 0.3604816794395447, -0.09719965606927872, 0.04680138826370239, 0.3530895709991455, -0.10480708628892899, 0.016821667551994324, 0.06429064273834229, -0.12283475697040558, 0.2296644151210785, -0.2798845171928406, 0.27115198969841003, -0.13421082496643066, -0.09988683462142944, -0.0676366537809372, 0.05285169929265976, -0.15874838829040527, 0.18536706268787384, -0.13172924518585205, -0.14494605362415314, -0.005409128498286009, -0.18451930582523346, -0.31956079602241516, 0.37186864018440247, -0.31215205788612366, -0.17217881977558136, -0.44332948327064514, 0.0925409123301506, -0.13040341436862946, -0.4123782813549042, -0.2852010726928711, 0.41693857312202454, -0.018739646300673485, -0.3032797574996948, 0.18915286660194397, 0.17196117341518402, 0.23662172257900238, 0.05885585770010948, 0.38275057077407837, 0.4682413637638092, -0.08989608287811279, 0.1835721880197525, 0.15119975805282593, -0.19683273136615753, 0.036612387746572495, 0.2799932658672333, -0.10713087767362595, 0.021349435672163963, 0.04787152260541916, -0.16687165200710297, 0.0722198337316513, 0.2810223400592804, -0.11980541795492172, 0.15717917680740356, 0.08116668462753296, 0.16177433729171753, 0.18407042324543, 0.170315682888031, 0.10562241822481155, -0.35602620244026184, -0.2436949610710144, 0.0962640568614006, 0.10446058213710785, -0.07946083694696426, -0.06466204673051834, 0.04399215802550316, 0.11483337730169296, -0.21450747549533844, 0.1001286506652832, -0.0466313362121582, 0.009979312308132648, -0.041972097009420395, 0.034778643399477005, -0.16966946423053741, 0.3319985270500183, -0.11187545210123062, 0.174235001206398, 0.22472065687179565, -0.09841767698526382, -0.25261637568473816, 0.10362683981657028, -0.11344379931688309, 0.1679641604423523, -0.08625765144824982, 0.3635448217391968, -0.3159676492214203, -0.11492536216974258, -0.05717821046710014, 0.06889664381742477, 0.23066219687461853, -0.1946147233247757, -0.24404746294021606, 0.2554222643375397, -0.2255413681268692, 0.24350012838840485, -0.11431948840618134, -0.2912960648536682, -0.22202184796333313, -0.16024915874004364, 0.13605272769927979, -0.14991545677185059, 0.059785641729831696, -0.08970588445663452, 0.41441768407821655, -0.09592491388320923, 0.2973058521747589, -0.12302175164222717, -0.17069652676582336, -0.24939024448394775, 0.22098343074321747, -0.16595031321048737, -0.12376970052719116, -0.0544908232986927, 0.40113595128059387, 0.2114323526620865, -0.33507490158081055, 0.23600593209266663, 0.1888454258441925, -0.2613152265548706, 0.04366988688707352, 0.30592435598373413, 0.19372712075710297, 0.004797171801328659, -0.11668072640895844, 0.007784681394696236, -0.08646110445261002, -0.1255652755498886, 0.38265761733055115, 0.09544554352760315, -0.15398047864437103, -0.16775041818618774, -0.07794061303138733, 0.627948522567749, -0.42649197578430176, -0.2307213842868805, 0.043843626976013184, 0.10508038848638535, -0.34152570366859436, -0.18454541265964508, -0.05660130828619003, -0.19363181293010712, 0.24174121022224426, 0.003392999991774559, -0.2556592524051666, -0.22463688254356384, 0.23388125002384186, 0.06946034729480743, -0.1194581463932991, 0.10807103663682938, 0.02262336201965809, 0.200449600815773, -0.009571670554578304, 0.013043875806033611, -0.5005785822868347, 0.20275121927261353, 0.0954548642039299, 0.1212448850274086, 0.19236107170581818, -0.08412622660398483, 0.2297762632369995, -0.29515600204467773, -0.11904306709766388, 0.2161356806755066, 0.09485958516597748, -0.28111347556114197, 0.08707781881093979, 0.418723464012146, -0.33715593814849854, -0.032324619591236115, 0.18952274322509766, -0.13875214755535126, 0.013600793667137623, -0.11135587841272354, -0.31909218430519104, -0.44709262251853943, 0.15978354215621948, -0.4754864573478699, -0.06097988411784172, 0.41535618901252747, 0.37162041664123535, 0.47354087233543396, -0.0361911915242672, 0.07915277779102325, 0.2711311876773834, -0.2862527072429657, -0.00741542736068368, -0.11975226551294327, 0.021905606612563133, -0.27732524275779724, -0.11671403050422668, -0.36177170276641846, -0.06282728910446167, -0.2314770370721817, 0.017132315784692764, 0.22685012221336365, 0.1907103806734085, 0.6287664175033569, -0.34168317914009094, -0.042601797729730606, -0.061589088290929794, -0.06614072620868683, 0.27732789516448975, 0.0691690668463707, -0.10593689978122711, 0.18124906718730927, -0.1064528226852417, 0.29367297887802124, 0.14730508625507355, 0.1311720460653305, -0.31090155243873596, -0.19684788584709167, 0.3141792118549347, 0.051040906459093094, 0.2912053167819977, 0.06293075531721115, 0.14921444654464722, 0.14872632920742035, 0.013628031127154827, -0.06950925290584564, -0.11436104029417038, -0.2406649887561798, -0.4493663012981415, 0.13153323531150818, 0.18965689837932587, -0.09794565290212631, -0.030292723327875137, -0.028903640806674957, -0.290971964597702, 0.17429132759571075, -0.10161051154136658, -0.23820340633392334, -0.10611896961927414, -0.027492685243487358, -0.05390701815485954, 0.17751970887184143, 0.16824498772621155, -0.08471342921257019, 0.11729983240365982, -0.2649930715560913, 0.06766370683908463, 0.14106887578964233, 0.12430804967880249, -0.16926035284996033, -0.16302616894245148, -0.14018723368644714, 0.10056408494710922, 0.020989276468753815, -0.04175277054309845, -0.1167779341340065, 0.10099989175796509, 0.13017486035823822, -0.5998935699462891, 0.042789798229932785, -0.02170705795288086, 0.07211825996637344, -0.12282788008451462, 0.15838655829429626, -0.01009552925825119, -0.20663858950138092, -0.25763529539108276, -0.3713448643684387, 0.001190721057355404, -0.1855783313512802, -0.3695479929447174, 0.02668841741979122, -0.1571076661348343, -0.3744690716266632, -0.2907026708126068, -0.218361496925354, -0.13159658014774323, 0.030588481575250626, -0.030174696817994118, -0.07958655059337616, 0.1125553622841835, -0.2125861495733261, -0.1891878843307495, 0.11112713813781738, -0.20910164713859558, 0.15503686666488647, 0.15592187643051147, 0.15659116208553314, -0.18994943797588348, -0.05424091964960098, -0.195110023021698, -0.32202455401420593, -0.02697775885462761, 0.074463851749897, -0.17772434651851654, -0.15428544580936432, -0.07653684169054031, 0.18424782156944275, -0.08415905386209488, -0.06470328569412231, 0.05778760462999344, 0.1424189954996109, -0.06514184921979904, 0.10047165304422379, -0.389082133769989, 0.07228269428014755, -0.3306676149368286, -0.10542484372854233, 0.042776767164468765, -0.021270625293254852, 0.04421023279428482, -0.3143194317817688, 0.19321487843990326, -0.18661551177501678, -0.008633124642074108, 0.3726598024368286, 0.054052237421274185, -0.01776609756052494, 0.2646290063858032, -0.1576022356748581, -0.19522656500339508, -0.1751849204301834, -0.4063986837863922, 0.019314171746373177, 0.21602703630924225, -0.43715086579322815, -0.016018496826291084, -0.05560510978102684, -0.05997362732887268, 0.08153264224529266, -0.01745539903640747, -0.04213515296578407, 0.020703734830021858, -0.08618980646133423, 0.06614142656326294, -0.25377413630485535, -0.12391979247331619, 0.12058952450752258, -0.08917552977800369, 0.1324080526828766, -0.019428987056016922, -0.10838676989078522, -0.07103012502193451, 0.21293653547763824, 0.11606273800134659, 0.03205318748950958, -0.024584025144577026, -0.06266769766807556, -0.05302991345524788, 0.13718517124652863, 0.003542184829711914, 0.04256461188197136, -0.23317649960517883, 0.1570906788110733, -0.21596384048461914, 0.12870752811431885, 0.00033421479747630656, 0.055340271443128586, -0.18899135291576385, 0.03909090533852577, -0.011806347407400608, -0.11935166269540787, 0.05581801384687424, -0.2375801056623459, -0.026344086974859238, -0.1573069840669632, -0.10472863912582397, 0.0010498726041987538, 0.09551960974931717, 0.1563607156276703, -0.1480437070131302, 0.1638658493757248, 0.24818740785121918, -0.2828783690929413, 0.2840326428413391, -0.0017864224500954151, -0.28464508056640625, 0.09289785474538803, -0.0642743781208992, 0.04750097915530205, -0.07401479780673981, 0.06651567667722702, 0.0020828484557569027, -0.14921210706233978, -0.09318962693214417, 0.2092617303133011, 0.14298805594444275, -0.025404972955584526, 0.03146057203412056, -0.12337153404951096, -0.004037509672343731, 0.33225083351135254, 0.19065642356872559, -0.1696576029062271, -0.28696686029434204, -0.31602925062179565, 0.012181403115391731, 0.2399345189332962, 0.08096402883529663, 0.1402161866426468, -0.1610485315322876, 0.18135453760623932, -0.01615523174405098, 0.13604362308979034, 0.13845643401145935, 0.1966201215982437, -0.23330210149288177, 0.24915213882923126, 0.05277195945382118, -0.2224181890487671, -0.1442747563123703, 0.07976981997489929, 0.0461362786591053, -0.08713104575872421, 0.08026549965143204, -0.0030206104274839163, 0.1689385622739792, 0.18898382782936096, -0.11342442780733109, 0.24350027740001678, 0.1559910923242569, 0.07538735121488571, -0.1691456437110901, 0.20875218510627747, -0.04905335605144501, 0.19540105760097504, 0.36367613077163696, 0.1656123548746109, 0.17211684584617615, -0.10964877903461456, -0.11752276867628098, -0.05887758731842041, 0.06260579079389572, 0.0718032717704773, -0.08033701777458191, -0.06830382347106934, 0.11529228091239929, 0.14529851078987122, 0.0031989822164177895, -0.0893607884645462, -0.19435955584049225, 0.205501988530159, -0.055520616471767426, -0.06561562418937683, -0.1444907784461975, -0.05104595050215721, 0.09097378700971603, 0.226459339261055, -0.0141522828489542, -0.18753798305988312, 0.24745628237724304, 0.022784238681197166, -0.17030861973762512, 0.05704965442419052, 0.006514601409435272, -0.284658819437027, -0.10450182110071182, -0.024816002696752548, -0.010398096404969692, -0.0030060927383601665, -0.07559068500995636, 0.12970466911792755, 0.26652467250823975, -0.014280706644058228, 0.12582442164421082, -0.08736133575439453, -0.056915998458862305, -0.1453525871038437, 0.5621085166931152, 0.014709893614053726, -0.06728120893239975, 0.2549312710762024, 0.1105133593082428, 0.07967709749937057, 0.6048293709754944, -0.18561440706253052, 0.24369697272777557, -0.0384332500398159, -0.13284243643283844, -0.05848466232419014, -0.03414253145456314, 0.012635452672839165, -0.08683650195598602, 0.10300494730472565, -0.14694064855575562, 0.09017986804246902, -0.060720715671777725, -0.12858563661575317, -0.21014943718910217, 0.12871652841567993, -0.057719018310308456, 0.025266991928219795, 0.005364733282476664, -0.09988826513290405, -0.04494412615895271, -0.01651851087808609, -0.16544190049171448, 0.07527615129947662, 0.6634845733642578, 0.11233793199062347, -0.04510175809264183, -0.034248217940330505, -0.08487077802419662, -0.09366562962532043, -0.12009035050868988, -0.05650683864951134, 0.12018941342830658, 0.5447174906730652, -0.05582631006836891, 0.11693258583545685, 0.8058904409408569, 0.06934157013893127, -0.17509645223617554, 0.11536267399787903, -0.1235932782292366, -0.13036762177944183, -0.4798536002635956, 0.10583742707967758, -0.0431007519364357, -0.022725369781255722, 0.1324189007282257, -0.18153385818004608, -0.20847265422344208, -0.17437703907489777, 0.030478399246931076, 0.023141086101531982, -0.05727287381887436, 0.005593194626271725, -0.19320982694625854, 0.0356995053589344, 0.04909651353955269, -0.04952090606093407, 0.026815561577677727, 0.22230099141597748, -0.025554785504937172, -0.04344695433974266, -0.13977313041687012, 0.027301685884594917, 0.013858986087143421, 0.15082813799381256, 0.12487471848726273, 0.055230557918548584, -0.038132742047309875, -0.2968045175075531, -0.1612304449081421, -0.09982931613922119, -0.6413493752479553, -0.02559947595000267, 0.10254384577274323, 0.006384986452758312, -0.08806867152452469, -0.08999734371900558, 0.14669622480869293, -0.07743936777114868, -0.0434226430952549, -0.15114475786685944, 0.0652972161769867, 0.023053353652358055, -0.5575238466262817, -0.13475829362869263, -0.20900146663188934, -0.17826811969280243, 0.36616262793540955, 0.013371335342526436, -0.6764813661575317, 0.12778523564338684, -0.011585844680666924, -0.2825734317302704, 0.07459347695112228, -0.2202272266149521, 0.2102697640657425, -0.02382681705057621, -0.19770283997058868, 0.12788963317871094, 0.09529376029968262, -0.1838919073343277, -0.1411140114068985, 0.00283059966750443, -0.09895408898591995, -0.29931220412254333, -0.07012514024972916, -0.1701194941997528, 0.11477414518594742, 0.08675699681043625, 0.1755373477935791, -0.06545775383710861, -0.13376304507255554, -0.14062830805778503, 0.015069824643433094, 0.13493353128433228, 0.0247929897159338, -0.20874643325805664, -0.01182504091411829, -0.14185190200805664, 0.03126004710793495, -0.17110829055309296, 0.19323869049549103, -0.10759139060974121, 0.06694965809583664, 0.23647154867649078, -0.2608543336391449, -0.11879058927297592, -0.0805022343993187, -0.32834547758102417, 0.1493453085422516, -0.3642607629299164, -0.29492905735969543, 0.15379305183887482, -0.08128375560045242, 0.1907096803188324, -0.09980323165655136, 0.10069647431373596, -0.22396020591259003, 0.027121100574731827, 0.11661800742149353, -0.11365535110235214, -0.04661067575216293, -0.22602416574954987, -0.26904770731925964, 0.16658470034599304, -0.4139400124549866, -0.060624249279499054, 0.08405781537294388, -0.06934297829866409, 0.022817954421043396, 0.03527156636118889, 0.20284301042556763, -0.16611559689044952, -0.0185227133333683, -0.12352464348077774, -0.0954257994890213, -0.040716156363487244, 0.05750269442796707, 0.017260661348700523, -0.11621997505426407, -0.11424469202756882, 0.05757072940468788, 0.010279177688062191, 0.36716213822364807, 0.33182477951049805, -0.1006554588675499, 0.09271415323019028, -0.2551572322845459, -0.08108243346214294, 0.2166081666946411, 0.0972844585776329, -0.22380656003952026, -0.07613039016723633, 0.07729125022888184, -0.08235152065753937, -0.1256662756204605, 0.19201232492923737, 0.07303211838006973, 0.08789197355508804, 0.20299552381038666, 0.18152542412281036, 0.13637815415859222, 0.35255861282348633, 0.4654557704925537, 0.22632506489753723, -0.2146536111831665, -0.05529442057013512, 0.2322472780942917, -0.08419857174158096, -0.05134104564785957, 0.10476362705230713, -0.21257255971431732, 0.19074466824531555, -0.02598997764289379, 0.011266532354056835, 0.247628316283226, -0.14710624516010284, -0.016543259844183922, 0.05493169650435448, 0.09357574582099915, -0.37625157833099365, 0.122376948595047, -0.16408787667751312, 0.06235400214791298, 0.1996338665485382, 0.11669139564037323, -0.017092173919081688, -0.13211648166179657, -0.22226111590862274, 0.07787282019853592, 0.07568951696157455, 0.016736892983317375, 0.01750090718269348, 0.07067141681909561, -0.04337723180651665, -0.49433815479278564, -0.07530484348535538, 0.14510409533977509, -0.009133034385740757, -0.15611331164836884, 0.014571362175047398, 0.13071507215499878, -0.1558905392885208, 0.007646629121154547, 0.004039018880575895, 0.05785704404115677, -0.016569802537560463, -0.07186982035636902, 0.3086782991886139, -0.31422147154808044, -0.144280806183815, -0.0667584016919136, -0.05480923876166344, 0.44197890162467957, -0.019538288936018944, -0.2999057471752167, -0.021591361612081528, 0.07625055313110352, -0.43019556999206543, -0.12824298441410065, -0.09758889675140381, -0.18765562772750854, -0.04001006856560707, -0.023590480908751488, 0.07110423594713211, 0.19324001669883728, 0.002671184716746211, -0.008202189579606056, 0.2554595470428467, -0.05357765778899193, 0.027770189568400383, 0.0795239582657814, 0.08966459333896637, -0.10035578161478043, -0.013231607154011726, 0.0671604797244072, 0.05782835930585861, 0.1317753791809082, 0.05214918777346611, -0.29572173953056335, -0.060914576053619385, -0.09617167711257935, -0.4489665627479553, 0.3003993332386017, -0.042296793311834335, 0.05964112654328346, -0.1718357354402542, 0.07377959042787552, 0.11773940920829773, -0.14795587956905365, 0.022440508008003235, -0.41722530126571655, -0.015419838950037956, -0.006596689112484455, -0.5476807355880737, 0.1935579478740692, -0.11719111353158951, -0.1511407494544983, -0.15802308917045593, -0.27791833877563477, -0.13706038892269135, 0.06910873204469681, 0.08014439791440964, 0.03527957201004028, -0.07767447829246521, 0.057359155267477036, -0.10977104306221008, -0.23611177504062653, -0.04335910826921463, -0.1828927844762802, -0.09142401069402695, 0.14604590833187103, -0.05649696663022041, -0.07679402828216553, 0.04723932966589928, -0.13450871407985687, 0.012000481598079205, 0.051446735858917236, 0.03405612334609032, -3.7744037399534136e-05, 0.18017587065696716, -0.015124876983463764, -0.1713976263999939, -0.09387027472257614, -0.1565505713224411, 0.19624581933021545, 0.21178914606571198, -0.058550044894218445, -0.16280236840248108, -0.09392140060663223, 0.25099486112594604, -0.387826532125473, 0.03744705393910408, 0.10894633084535599, 0.0465753935277462, -0.23805657029151917, 0.25260844826698303, -0.09254303574562073, 0.0031798481941223145, -0.07827440649271011, -0.16335947811603546, -0.03946575149893761, 0.07057584077119827, -0.3169994056224823, 0.0888783261179924, 0.00045511877397075295, -0.016198772937059402, -0.001726509421132505, -0.027797957882285118, -0.0943104475736618, -0.6304966807365417, 0.2301236391067505, -0.014748665504157543, -0.35332053899765015, -0.026875006034970284, -0.03396490961313248, -0.3187708258628845, -0.03656105324625969, 0.08802357316017151, -0.07670195400714874, -0.030608894303441048, -0.07140402495861053, -0.10479696094989777, -0.12050097435712814, -0.0363650768995285, -0.12452846020460129, -0.0748220831155777, -0.014004450291395187, 0.1950400024652481, 0.009585163556039333, 0.16728901863098145, -0.28759968280792236, -0.2472299188375473, 0.021244928240776062, 0.0943228229880333, -0.2692788541316986, -0.20060226321220398, -0.26337361335754395, 0.0792250856757164, 0.09035497903823853, -0.37608420848846436, 0.1624295711517334, -0.009146442636847496, -0.07836863398551941, 0.2951489984989166, -0.03519583120942116, 0.017610901966691017, -0.16252517700195312, -0.12921732664108276, -0.3039741516113281, -0.15167251229286194, -0.0033453968353569508, -0.5295701026916504, -0.08589165657758713, -0.017626503482460976, -0.09436249732971191, 0.0738653689622879, -0.33459076285362244, -0.44127750396728516, -0.21150721609592438, 0.09617555141448975, 0.0792512521147728, 0.5189026594161987, 0.11131544411182404, -0.09992342442274094, 0.30027076601982117, -0.1429087221622467, -0.001190337585285306, 0.268480122089386, -0.016852056607604027, -0.04331411421298981, -0.45336124300956726, 0.10863404721021652, 0.10772979259490967, 0.04498222842812538, -0.07134600728750229, -0.12759748101234436, -0.025159386917948723, 0.12449033558368683, 0.23025985062122345, 0.07039870321750641, -0.21120141446590424, 0.02619757130742073, -0.022753169760107994, 0.06093628332018852, -0.10977786779403687, 0.6210648417472839, -0.26074278354644775, 0.1050819531083107, -0.1626989245414734, 0.11953071504831314, -0.011558127589523792, -0.22273601591587067, 0.050221335142850876, 0.17603327333927155, 0.4137846827507019, -0.23177209496498108, -0.09439736604690552, 0.47107455134391785, -0.13874678313732147, 0.04415271058678627, -0.24533052742481232, 0.13677337765693665, 0.20547400414943695, -0.16200540959835052, 0.1457359343767166, 0.06675228476524353, -0.19754011929035187, 0.03675391152501106, 0.1580042839050293, 0.12400267273187637, 0.060780759900808334, 0.1393381655216217, 0.12753482162952423, 0.0019383217440918088, -0.24218401312828064, 0.1732732504606247, -0.1762618124485016, -0.19841763377189636, -0.049765437841415405, -0.13898740708827972, 0.019692953675985336, 0.051461007446050644, -0.010006076656281948, -0.01869976706802845, -0.15496329963207245, 0.06326831132173538, 0.1985984742641449, 0.13817620277404785, 0.09625700116157532, -0.05396861582994461, 0.10857806354761124, -0.28549009561538696, -0.14539308845996857, -0.06835361570119858, 0.020979072898626328, -0.2039565145969391, -0.18457654118537903, -0.13700023293495178, 0.08721908926963806, -0.13411319255828857, -0.00022603677643928677, 0.05303296074271202, 0.1310083121061325, -0.019550465047359467, -0.14841343462467194, 0.0652865618467331, -0.1434990018606186, -0.16018357872962952, 0.03343191370368004, 0.2698076665401459, 0.3205932080745697, 0.08440184593200684, -0.005595478229224682, 0.14858891069889069, 0.025698158890008926, -0.15542057156562805, -0.1657419204711914, 0.07188580185174942, 0.0026952179614454508, 0.12808822095394135, -0.11619442701339722, 0.10832203179597855, 0.11155388504266739, -0.25062546133995056, -0.060217954218387604, 0.17115743458271027, 0.14875361323356628, -0.08358477056026459, 0.11559121310710907, -0.2515927851200104, 0.1324159801006317, -0.01868363842368126, 0.22107501327991486, -0.06487433612346649, -0.10117185115814209, -0.24563191831111908, -0.004119433928281069, 0.205267995595932, -0.051990069448947906, 0.06806539744138718, -0.06452198326587677, 0.0003726612194441259, -0.5243476629257202, -0.16685619950294495, -0.01052974071353674, 0.010231859982013702, -0.01711801066994667, 0.05845508351922035, 0.11113064736127853, 0.042596351355314255, 0.035303760319948196, 0.062213294208049774, 0.14687293767929077, -0.11258150637149811, -0.013471371494233608, 0.24663618206977844, 0.09785916656255722, -0.37784644961357117, 0.14030294120311737, 0.02258036471903324, 0.11187902837991714, 0.05356987938284874, -0.01211412250995636, -0.08979973942041397, 0.02600971609354019, 0.05603824183344841, 0.054980598390102386, -0.08300162106752396, 0.06338221579790115, 0.12731140851974487, -0.08255305886268616, 0.2245817482471466, 0.7209609746932983, 0.32098138332366943, 0.7213424444198608, -0.6995201110839844, -0.5427394509315491, 0.10553749650716782, 0.1360628455877304, 0.08897091448307037, 0.33692046999931335, 0.40566930174827576, -0.822421669960022, 0.37099218368530273, 0.3319103717803955, -0.8854506611824036, 0.05024547129869461, -0.21436217427253723, -0.2533343434333801, -0.06976012140512466, 0.25865283608436584, -0.3313436806201935, 0.38007837533950806, 0.2508851885795593, -0.010194017551839352, -0.07167531549930573, -0.3058784306049347, -0.10002322494983673, -0.12836232781410217, -0.22671283781528473, -0.004565168637782335, -0.015993274748325348, 0.07676251232624054, 0.14352935552597046, 0.06025766581296921, -0.25678911805152893, 0.110944002866745, -0.3585093319416046, 0.0203914325684309, -0.16592907905578613, 0.17440833151340485, -0.15566608309745789, -0.10753011703491211, 0.05649634823203087, -0.17020337283611298, 0.33130398392677307, -0.20104838907718658, 0.16786843538284302, 0.12456011027097702, 0.1217363253235817, 0.06362453103065491, 0.24880914390087128, -0.0663958415389061, -0.07477248460054398, 0.18683843314647675, -0.27880457043647766, -0.07042659819126129, 0.047927990555763245, 0.11288204044103622, 0.11688695847988129, -0.006552194710820913, -0.025040240958333015, 0.17926406860351562, 0.0298477653414011, 0.025377416983246803, 0.39822468161582947, -0.4445435106754303, 0.07722453773021698, -0.0699586570262909, -0.07482121139764786, 0.3200721740722656, 0.3062138855457306, 0.2951450049877167, 0.04267802834510803, -0.22952264547348022, -0.4201066792011261, 0.07326618582010269, -0.439479261636734, 0.07878690958023071, 0.17345918715000153, 0.30974242091178894, -0.2446950227022171, 0.26271769404411316, 0.10659123957157135, -0.03155062720179558, 0.19700515270233154, 0.08988359570503235, 0.09955071657896042, 0.06872628629207611, -0.08815663307905197, 0.1264316886663437, 0.5357833504676819, 0.13065631687641144, 0.23657982051372528, -0.17660683393478394, -0.235626220703125, 0.3462342917919159, -0.1705000400543213, -0.10597066581249237, 0.22156301140785217, 0.04762871190905571, 0.10443722456693649, -0.12232482433319092, 0.24927006661891937, -0.08753953129053116, 0.06441649794578552, 0.20961590111255646, 0.3411257266998291, -0.15041258931159973, 0.29259705543518066, 0.03423062711954117, 0.049174994230270386, -0.14895088970661163, 0.052549295127391815, -0.3587561249732971, -0.3940359055995941, -0.11880552768707275, -0.5667814016342163, -0.1438172310590744, -0.08678831160068512, 0.1674494594335556, 0.343051940202713, -0.23644094169139862, -0.24296298623085022, 0.16874127089977264, -0.11582446843385696, -0.03827166184782982, -0.1734137088060379, 0.41356396675109863, -0.5052274465560913, 0.09387016296386719, 0.18098248541355133, -0.02818566933274269, 0.2374347597360611, 0.41130831837654114, -0.22476239502429962, -0.17938336730003357, 0.5239682793617249, -0.12534181773662567, -0.16664525866508484, 0.07250569760799408, 0.05306972935795784, 0.0912206843495369, -0.16825386881828308, 0.22243376076221466, -0.0007463943329639733, -0.29017123579978943, 0.038270432502031326, -0.19805888831615448, -0.17702315747737885, 0.24788399040699005, 0.017146142199635506, -0.09559281170368195, -0.13051289319992065, -0.05700298398733139, -0.12292541563510895, -0.005205883178859949, -0.08199633657932281, 0.2221912443637848, -0.06899852305650711, 0.2408212572336197, -0.08978775888681412, -0.0387546569108963, 0.10027413070201874, 0.18942523002624512, -0.1270938515663147, -0.13493245840072632, 0.08569474518299103, -0.07017283886671066, 0.13352207839488983, -0.43866389989852905, -0.14349210262298584, 0.16447924077510834, -0.08577258139848709, 0.2557195723056793, -0.19251896440982819, 0.19110539555549622, 0.07481574267148972, -0.4220820367336273, 0.361398845911026, -0.4484088718891144, -0.28454554080963135, -0.13048481941223145, -0.015886683017015457, 0.07443563640117645, -0.39060837030410767, 0.4179731011390686, -0.19448038935661316, -0.057527102530002594, -0.33669763803482056, -0.12457922846078873, 0.020252622663974762, 0.28181466460227966, -0.2402183562517166, -0.051871638745069504, 0.1055954098701477, -0.12970341742038727, -0.5097882747650146, -0.06667451560497284, -0.17899207770824432, 0.031206073239445686, -0.07388731092214584, -0.39167651534080505, -0.21676209568977356, 0.2624607980251312, 0.0858931764960289, -0.2185787558555603, 0.20568335056304932, -0.03772945702075958, -0.26763999462127686, 0.26664119958877563, 0.2646554708480835, 0.11147793382406235, 0.2632638216018677, -0.35091111063957214, 0.06544958055019379, -0.2763776481151581, 0.1137818917632103, 0.40267547965049744, -0.03703314810991287, -0.27286526560783386, -0.1747228503227234, -0.3268360197544098, 0.15452519059181213, -0.10339454561471939, -0.24755625426769257, -0.26995956897735596, -0.08246541768312454, -0.19499395787715912, 0.18057756125926971, -0.08942931145429611, -0.023272382095456123, 0.09729989618062973, -0.29021427035331726, 0.19165748357772827, 0.07897219061851501, 0.09770561754703522, -0.1227041482925415, -0.28660258650779724, -0.18590494990348816, -0.45132455229759216, -0.13591083884239197, 0.680243968963623, -0.13408468663692474, 0.13885490596294403, 0.10341449826955795, -0.3543897271156311, -0.3663981258869171, 0.06687435507774353, 0.3497895300388336, -0.026665164157748222, 0.2462429404258728, -0.1911557912826538, 0.23221953213214874, 0.06734484434127808, -0.015036550350487232, 0.05399634316563606, 0.19363506138324738, 0.08006037026643753, 0.17713026702404022, -0.18219724297523499, -0.16117171943187714, -0.14227531850337982, -0.35534265637397766, 0.2181461602449417, -0.08548035472631454, -0.11524331569671631, 0.17824076116085052, -0.19505271315574646, 0.02983364835381508, -0.1854841262102127, 0.05032770335674286, 0.3790626525878906, 0.03841596469283104, -0.1401395946741104, 0.03029697760939598, 0.06571108102798462, 0.024968909099698067, 0.09954312443733215, 0.05255512148141861, 0.07489363849163055, 0.09529435634613037, -0.08819273114204407, 0.12398947775363922, 0.15212640166282654, 0.05271358788013458, 0.09996223449707031, -0.037797700613737106, -0.04586898535490036, 0.060460273176431656, 0.0009598086471669376, -0.031921662390232086, 0.06707804650068283, -0.023993127048015594, 0.0066027333959937096, -0.2865537106990814, -0.04310698062181473, 0.20152944326400757, -0.07138637453317642, -0.10668689012527466, -0.07236228138208389, 0.26223328709602356, -0.1031142920255661, 0.005116152577102184, -0.07223188132047653, -0.08392050117254257, -0.1467278003692627, 0.14518702030181885, -0.03011242114007473, 0.23744982481002808, 0.46560999751091003, 0.08918002247810364, -0.02321050502359867, 0.34843796491622925, -0.029842820018529892, -0.04954426363110542, 0.11665366590023041, 0.0006444115424528718, -0.07962926477193832, 0.07324979454278946, 0.16472399234771729, 0.14472317695617676, 0.0032548769377171993, 0.05368964001536369, 0.2795349359512329, -0.16598822176456451, -0.10729582607746124, 0.30472859740257263, 0.1622312068939209, -0.036516398191452026, 0.058432772755622864, -0.07579784840345383, 0.039532992988824844, 0.028960922732949257, 0.2837558686733246, 0.06367141753435135, 0.0009950478561222553, 0.3739750385284424, -0.03731932118535042, -0.048764463514089584, 0.3068573772907257, -0.08714881539344788, -0.06444921344518661, -0.06992004811763763, -0.25565335154533386, -0.11060679703950882, 0.02818077988922596, -0.12136849015951157, 0.049650996923446655, 0.28752002120018005, 0.12968231737613678, 0.08911886811256409, -0.166056826710701, 0.07432706654071808, -0.03459431603550911, -0.2054944485425949, -0.05663085728883743, 0.22543685138225555, 0.12625713646411896, -0.08377154916524887, 0.03075101226568222, -0.27547556161880493, -0.1225476786494255, 0.015784282237291336, 0.2441171109676361, 0.08501693606376648, 0.1920231282711029, -0.06249350309371948, 0.002093658084049821, -0.25368717312812805, 0.1870994120836258, -0.3727838397026062, -0.04740191623568535, 0.13534493744373322, -0.1229666918516159, -0.2132451832294464, 0.050936389714479446, 0.090434230864048, -0.1862945854663849, 0.13992716372013092, -0.01997797004878521, 0.17853011190891266, -0.3304428458213806, -0.3040120005607605, 0.05232968553900719, -0.15507978200912476, -0.19672320783138275, -0.07461570203304291, -0.1845545917749405, 0.04253483563661575, 0.521717369556427, 0.46174874901771545, -0.006159722339361906, -0.14248806238174438, 0.07193727791309357, -0.23070251941680908, 0.0012676884653046727, -0.3591729700565338, -0.36167675256729126, -0.10871929675340652, -0.06809177994728088, -0.11650547385215759, -0.008144323714077473, 0.24130477011203766, 0.10433485358953476, -0.051966629922389984, 0.13003532588481903, -0.26916128396987915, -0.15034081041812897, -0.13043814897537231, 0.19797338545322418, -0.10413903743028641, -0.15545585751533508, 0.01740005612373352, -0.06255852431058884, 0.0422084778547287, 0.039220068603754044, 0.0931583121418953, 0.18125931918621063, -0.26700690388679504, -0.12256214022636414, -0.15796348452568054, -0.08974521607160568, -0.14935864508152008, 0.0030273436568677425, 0.24646390974521637, 0.02996508590877056, 0.280957967042923, 0.09316392242908478, -0.1181403398513794, 0.12248046696186066, -0.0694287121295929, 0.008408790454268456, 0.6081774234771729, -0.052699290215969086, 0.07148973643779755, 0.1784341186285019, -0.23605357110500336, -0.11883724480867386, -0.316333144903183, 0.17860734462738037, 0.18369781970977783, -0.147686168551445, 0.10774081200361252, -0.04349629953503609, 0.19356463849544525, 0.02254549227654934, 0.04800344631075859, 0.24990181624889374, -0.13419146835803986, -0.09245023876428604, 0.29366880655288696, 0.16434729099273682, -0.11015494912862778, 0.0885305106639862, 0.061354223638772964, 0.028285564854741096, 0.13216105103492737, 0.12234356254339218, 0.04356531798839569, -0.1061030924320221, -0.25519683957099915, -0.024850185960531235, 0.10006030648946762, 0.09824015200138092, 0.18564008176326752, 0.019293177872896194, -0.036039989441633224, -0.1402115374803543, -0.037558190524578094, 0.13571970164775848, 0.09658270329236984, -0.09216046333312988, 1.1967207683483139e-05, 0.09927549213171005, -0.3181073069572449, 0.07129647582769394, -0.05174851417541504, 0.296148419380188, 0.03637779504060745, 0.16802164912223816, 0.23831990361213684, 0.06292960047721863, 0.24461261928081512, -0.1298840194940567, 0.14690208435058594, 0.18377600610256195, 0.32661300897598267, -0.06663467735052109, 0.19298414885997772, 0.08770480751991272, -0.034741319715976715, 0.1676967293024063, -0.18755315244197845, -0.12751948833465576, -0.017812035977840424, 0.04871493577957153, 0.04521357640624046, -0.24798506498336792, -0.04314985126256943, -0.019196461886167526, 0.5406361818313599, -0.10034094005823135, 0.025462662801146507, 0.02571886032819748, -0.018743257969617844, -0.018123509362339973, 0.05362682789564133, 0.06050657108426094, 0.08967873454093933, -0.07545465230941772, 0.014536884613335133, 0.044743187725543976, 0.1795198619365692, -0.23170776665210724, 0.13792605698108673, -0.0069542862474918365, -0.4565429389476776, -0.06902452558279037, 0.1554100662469864, 0.09471242874860764, -0.14614690840244293, 0.12335842102766037, -0.08436469733715057, -0.1876811683177948, -0.15647518634796143, 0.14376746118068695, 0.22846059501171112, 0.2565055191516876, 0.1960807889699936, -0.1113366037607193, 0.1516239196062088, -0.10743699967861176, -0.096855029463768, -0.20949271321296692, -0.042736250907182693, 0.08660358190536499, -0.045013025403022766, 0.041073381900787354, -0.21844781935214996, 0.21339084208011627, 0.005998620297759771, -0.12249298393726349, 0.12558792531490326, -0.14775164425373077, -0.10816087573766708, -0.05067577213048935, 0.0424932986497879, 0.22365118563175201, 0.15785539150238037, -0.04965827241539955, -0.15442144870758057, 0.11928468942642212, -0.022346321493387222, -0.13994693756103516, -0.18196363747119904, 0.035917118191719055, -0.09890932589769363, 0.25822457671165466, -0.1713477522134781, 0.023731499910354614, -0.031202934682369232, 0.020033443346619606, -0.46318164467811584, 0.05735398828983307, -0.0023682909086346626, 0.18317314982414246, -0.15547242760658264, -0.028839807957410812, -0.03991129621863365, -0.2117629498243332, -0.11629948019981384, -0.19406750798225403, 0.21453236043453217, -0.06667182594537735, -0.01209461223334074, 0.09925558418035507, 0.08794578909873962, -0.0305778905749321, 0.008018940687179565, 0.20717450976371765, -0.15591314435005188, -0.10506312549114227, -0.42066431045532227, -0.16641364991664886, -0.19038915634155273, 0.13097135722637177, -0.02912048250436783, -0.060274332761764526, 0.2593950927257538, 0.1496654599905014, 0.17848271131515503, -0.23741614818572998, 0.14387471973896027, 0.12459085136651993, -0.1087082028388977, 0.011658009141683578, 0.2554716467857361, 0.12403060495853424, 0.019458133727312088, -0.06007128581404686, -0.11367712914943695, -0.1166677325963974, -0.07859452813863754, 0.28585708141326904, 0.11089740693569183, 0.19194160401821136, -0.10416901111602783, -0.0636017769575119, 0.058551229536533356, 0.08720997720956802, 0.11168646812438965, -0.018708685413002968, 0.17548178136348724, -0.1915886402130127, 